Best Model in generation 0, with a score of 6.000000 
[0.20827118353366, -0.0631155756222, -0.0337055647271, -0.27936054373304, -0.12514167029722, 0.28040833653553, -0.20251665797543, 0.12290838158715, 0.25412272933348, 0.11644149785991, -0.16415905609635, -0.18668793192675, -0.03851361538953, 0.0206321643895, 0.19267162596491, -0.22606967088365, 0.2282595073145, 0.26048881631548, -0.19027268821536, -0.24032937488687, -0.0509547033249, -0.07648192578875, 0.07564052743274, -0.0281120637585, -0.15909679438417, -0.20574737799384, -0.15525113844983, 0.0000361511352, 0.26732439304837, -0.19779376893502, -0.15676856826007, -0.18023080175068]
[-0.12359497111646, 0.15338061671963, 0.23485546652344, 0.2243039468109, 0.03459758001256, -0.14388885646494, -0.03959354238881, -0.12732851708509, -0.05722741009939, 0.25093991750203, 0.14194345320824, -0.22586059739065, -0.03033531038304, 0.08809237010239, 0.23315478859567, 0.21789189080425, -0.10799442556473, -0.05326896207901, 0.0243431992326, -0.11270907462053, 0.17730968207325, 0.08319739774396, 0.08182020312981, 0.05676248448978, 0.08422853709579, 0.01649493683318, 0.04579967382425, -0.13929499993127, -0.07018768781832, -0.14134381947369, -0.29042639139761, -0.19600211827103]
[0.12474675845209, 0.01029154728907, 0.09043008472207, -0.19364914271222, 0.11137440989006, -0.07225091012967, -0.13550102107859, 0.15894853665842, -0.12572964923349, 0.15900556856312, -0.2791834553236, 0.28700449565258, -0.14844698155484, -0.22678616509623, -0.25432278627719, 0.20363967211956, -0.01565642771923, 0.26591561640002, 0.13515565193065, -0.09858508198247, 0.09894508215246, -0.17266798232878, 0.15381977566705, 0.04259919261839, -0.1141504837927, -0.15006822544469, 0.01684159101345, -0.10273352218262, 0.27868396017451, -0.11873852633073, 0.23776997509007, 0.10546999857526]
[0.19580165878283, 0.23683188243717, 0.27107451321628, 0.23307845930748, 0.06944178870772, -0.1844270175893, 0.19542996748011, -0.23264165934804, -0.21049497262829, -0.21342385643436, -0.29013589154068, -0.07397567333463, 0.11739469400402, 0.13738011357782, -0.01254780808067, 0.1014740681634, -0.09970861048313, -0.11724339882175, 0.28087106915501, -0.02746904808737, 0.12693280176476, -0.28364297311671, -0.06181745636937, 0.04086217924425, 0.01893366737929, 0.02130331708224, -0.25731105367539, 0.08283622555672, 0.27819862706943, -0.14481537486977, -0.0569142733031, 0.21620229609043]
[0.249106871751, -0.0969571498899, 0.0413368695783, -0.26297568539461, 0.24832868846812, 0.29471253442059, 0.27811573385601, 0.29324934052463, 0.21254460770601, -0.11349013241093, -0.08567345907746, 0.27260422763961, 0.26219390308377, 0.15084655136687, 0.12969864812456, 0.15836510720423, -0.1913374487312, 0.26667667377797, -0.04084642002832, -0.0656852119969, -0.08025954780304, 0.25833707867574, -0.14141694268802, -0.07179015692264, 0.28828170355296, -0.14691342917599, -0.16137659698717, -0.26211677804618, 0.14964044666884, 0.14968748475494, 0.14690491985174, 0.0616623224485]
[0.20036306997823, 0.12874246486815, 0.01306883504545, -0.10590800128342, 0.13347950347621, -0.28013555667225, 0.06978605483239, 0.09965711254241, -0.04328227052941, -0.23421188637464, 0.04872552968567, -0.08388893115119, -0.28458455310947, 0.09686447490827, -0.15561851699194, 0.29142323485235, 0.17221381749348, -0.22403711185314, -0.29389993186667, 0.1031617962311, -0.23907029520275, 0.18658642252771, 0.27929310190573, 0.0149659580428, 0.28874286992864, -0.19054203697953, 0.03374829073903, 0.15058904787534, -0.19414719873585, 0.14021815858096, 0.07262066748799, -0.24006042888245]
[0.23016503848571, -0.2431450693628, 0.19058312453312, 0.07724157680178, -0.26840389370407, 0.18414112455136, 0.07488825714579, 0.12968708148577, 0.14745976718374, -0.25256362675722, -0.26908554182929, 0.01208858418058, 0.27006623737731, -0.18842869500426, 0.00405186098059, -0.1917799138106, 0.13731976498276, -0.26745252623028, 0.26872541201154, 0.19461256951119, -0.19337596717629, 0.25119610144702, 0.01394622093596, -0.28068769562865, -0.06624692356251, 0.13071669516099, 0.17216814205329, 0.29240921429806, -0.13017219541661, -0.17482555239378, 0.09277177152782, 0.15469054742397]
[-0.2094479581608, -0.16608187219243, 0.15378383446855, 0.032113597582, -0.06491762025293, -0.25772045917478, 0.27780157250556, -0.21759435212981, 0.17466248803187, -0.17427515154551, 0.20971794447413, 0.22921344057202, -0.27649777027997, 0.18748906395488, -0.18994980443281, 0.05161478436375, 0.25686532251651, -0.21381378912273, -0.04657464114227, -0.20485164407267, -0.17930093805964, -0.21933656795077, 0.22075316618434, 0.1469923965265, 0.19190655937646, -0.24473304658332, -0.20353527083045, -0.13243219629899, -0.13378969494213, -0.27386270942893, 0.04652835771742, 0.05275394331625]
[0.09046710323592, 0.20980933486024, -0.26543524340195, 0.17056856812542, 0.23870205636931, -0.20018134814258, -0.15070580556033, -0.27206852178332, -0.03847357015189, 0.12955650028065, -0.1536141272807, 0.14639655507196, -0.06960926546296, -0.01948874955172, 0.12974816349699, 0.02712034117815, 0.23868899851275, 0.20526949663075, -0.25803514297138, -0.14485000626571, -0.0211495834111, -0.15329530312638, -0.24920852658681, -0.04976515977433, -0.17529361238716, -0.23121871710467, -0.05779257698323, -0.21282693891301, 0.06496998667251, -0.21675295596669, 0.0702580635091, 0.28288197022173]
[-0.0771164208634, -0.24904923806393, 0.2579350221999, 0.16486219011901, 0.21789715828117, -0.12740035326459, 0.14206591418204, 0.08066343946997, 0.05851360146674, -0.0024206839141, -0.00453995971445, -0.29264661453969, -0.19623942719276, 0.0015021294282, 0.25196864965644, -0.19240457741982, 0.09398116951346, 0.08287318847732, -0.01919199758717, 0.14337330950477, 0.16110067407411, 0.24279939780209, 0.16017261304546, -0.24365395785255, 0.00017759706939, 0.23479202476471, -0.03918508801184, 0.24841523560208, -0.21919011837427, 0.05547750067927, -0.07358134832409, 0.20194278918959]
[-0.23485379552801, 0.23114237510185, 0.17967503862936, -0.25594145958633, 0.13165528513344, -0.04676888793804, 0.25762457688867, 0.16598544965031, -0.00860956538271, -0.1460433309925, 0.23298431025692, -0.23511578721288, -0.0957849358339, -0.26624781105526, 0.15563901376206, -0.17241133688639, 0.05841210658375, -0.12902473181089, -0.20849166427221, -0.17980475314866, -0.186184413342, -0.09908750091128, -0.20863382740353, -0.06702925242482, 0.23517278983452, -0.15210857891232, -0.20844550629602, 0.01877051025655, 0.13189994825065, -0.23757983068455, -0.11412609598564, -0.09174189779528]
[0.21151542443079, 0.12538639974465, -0.04224945268606, -0.11698662155161, 0.17579952535593, -0.055652720821, 0.18099440615275, 0.05633021579937, -0.06599681910043, -0.2621860570265, -0.28085720940747, -0.24724250286061, -0.03046843615072, -0.29294538844138, -0.17532116961722, 0.05474928333891, -0.01787202912299, -0.08854222979971, -0.18226756051773, -0.12912762725218, -0.03871219679297, 0.07305414095052, 0.03794372352592, 0.03056884510493, 0.14454590850532, 0.28495211777698, -0.04146952190444, 0.1292057298636, 0.05155525508836, -0.05569878081314, -0.18862470369421, -0.22245526022413]
[0.03747414039346, 0.08255910375191, 0.09767169238192, 0.24701093467534, -0.12592453388051, -0.11097732434315, 0.15458362345276, -0.00524758584769, 0.08174675946241, -0.16557209531201, 0.00611038934285, 0.11159329492662, -0.15740190935867, 0.07685703510436, -0.2925662611752, -0.00544959778123, -0.05101828175472, -0.20286453358074, -0.15476036562757, 0.14093235450034, -0.0768591622248, -0.07596166429934, -0.24482805120969, 0.1233424447943, 0.26980771148318, -0.03879222052054, -0.17138616540584, 0.08595405729718, -0.01417175691488, -0.19453377448063, -0.0452532495606, 0.13470589630403]
[-0.05810067158234, -0.0367522900053, 0.01566537146669, 0.21231593101037, -0.26192928469548, 0.19216935692288, 0.24648145342344, -0.06747573788975, 0.21947686131268, 0.0980462324305, -0.09952030020942, -0.13536721559812, -0.16908481366664, -0.15201491816697, 0.08786822769316, -0.07402677467798, -0.27211997920702, -0.02932031322578, -0.1964189905477, 0.03502950098053, 0.1347862809079, 0.22225727375879, -0.01705149179108, 0.0818369908694, 0.2082309907668, -0.21088475629555, 0.254166258993, -0.03172115935057, 0.14907389336809, 0.1491480633547, 0.04786163961244, -0.12457538512188]
[0.09537360366022, -0.00173596954069, -0.2878781613475, 0.09857188925328, 0.15710754002967, 0.12812595519464, -0.15992978145372, 0.28810898633713, 0.10123416987263, 0.22081598396617, -0.25537091655138, -0.11317208773109, 0.23122077400904, -0.05990745889386, -0.26162894960916, -0.03135557703244, -0.28577600297102, -0.05948289571909, 0.21359003612789, 0.02156546709945, -0.04377746213415, -0.02437527936214, -0.19855037801354, -0.26450763890437, 0.28009806811938, 0.2809648229912, -0.20057847015164, 0.273914222551, -0.23977136876117, -0.00109817329152, 0.0136762044264, 0.13787548870442]
[0.02806668503499, -0.20860986804938, 0.14805751246255, 0.06918441319527, -0.12929681772076, -0.09379594374844, 0.21484260594124, -0.14688556163285, -0.04195792987298, -0.20675091690719, 0.29455775674186, -0.12637964454446, 0.26056969002359, 0.08026723657643, -0.15923144338069, -0.16995108858663, 0.28208271845182, 0.06812681646098, -0.03413000066323, 0.01997446433902, -0.29487815430581, -0.28168986175413, -0.19923620643082, -0.14766876134685, 0.10000876495636, -0.18189215338901, 0.09574247612706, 0.06058098405701, 0.12631527765948, 0.22542016611403, 0.09464939226579, -0.19658545196809]
[0.17508989336573, -0.07690179683162, -0.20516975982267, 0.12026639636221, 0.04257493326781, 0.20882922695208, -0.16736794963246, -0.07622144166752, 0.01491656385874, -0.02165443974973, 0.17828902613082, 0.00579391297071, 0.15414610327343, 0.18342814843455, -0.16814434974319, -0.04410963572007, -0.26155319518694, -0.10925756446234, -0.10218832048652, 0.16958989969076, 0.24590223033704, -0.10194083643662, 0.18198020041646, -0.0653534088226, -0.27145870435403, -0.20055709423995, -0.18175001104992, 0.15620266563714, 0.17794067523193, 0.0122432623782, 0.06004873455156, -0.24368416323385]
[0.05241916538824, 0.00268822199886, -0.26200954958834, -0.10065771984416, 0.05861427876583, -0.07327183227694, -0.11500630433463, -0.0494925321544, 0.11452392114067, -0.13114513439835, 0.15521515180708, 0.24142409098538, 0.23409423909224, 0.24459396747321, 0.18895559565835, 0.2344845533323, -0.23610669483231, 0.0326361606449, 0.17372444647108, 0.2374978789952, 0.20039619599154, 0.28839881185516, 0.25923681803104, 0.01261705719151, 0.04537040629498, -0.2121769397703, 0.09524134122663, -0.26238967376525, 0.10308516795027, 0.13443211526272, 0.17900218708131, -0.11601375244757]
[0.14166654442494, -0.13847653877031, -0.15516314594893, 0.23256640426039, 0.16346760778782, 0.08592733974638, -0.27991187019578, -0.28533165697568, 0.22083342388346, 0.17073919027042, 0.04909151540248, 0.0939314341191, -0.29077414216721, 0.07358303853503, -0.18208651102779, 0.22288285434225, -0.0413327407364, 0.22665454119003, 0.00908188629448, -0.04820684498346, 0.15554242344416, -0.28408326750851, -0.15213393927983, 0.1158849218745, -0.16780413328794, -0.19285408193088, -0.05868402456955, -0.27586793806956, 0.28943215760145, -0.16902025825348, -0.08709285366845, -0.18425420740571]
[0.29480859641863, 0.17020704534907, -0.21685022840797, -0.27402241203878, -0.13118121171237, 0.18528350238436, -0.16030495718364, -0.07886405408299, -0.23330491335626, 0.21181438903279, 0.28969360399146, -0.05492507008569, 0.19695031642037, -0.2762512347217, 0.11391211366503, -0.10955535556243, 0.17529713961973, -0.20859227190675, -0.22391779675785, 0.17753352178226, 0.04987069505133, 0.15185120709103, -0.26177213706525, 0.02377991075602, -0.13419232968311, -0.22691026691194, -0.16353495694185, 0.22584348436681, 0.10488538290814, 0.02933413950225, 0.10169643993213, -0.09773102903289]
[-0.00811426015225, -0.09932222080097, -0.22386875937908, -0.22342276463571, 0.2121560443875, -0.10443680365278, -0.00336203537468, 0.13340403864629, 0.08462529742248, 0.075241525684, 0.02604430886615, -0.23209937947644, 0.1074418420102, -0.17991228118705, 0.08851570087246, 0.29217590625966, 0.181050856905, 0.24102931086308, 0.23531250523802, -0.17189439206179, 0.25636094574377, -0.0625381987468, -0.08167311463263, 0.16747931019948, 0.20231625397134, 0.05580424073301, -0.21249205496355, 0.13835505280956, 0.04315303328987, -0.26555124794706, 0.19112376118832, -0.00267588110183]
[-0.16594479401448, 0.14019257990336, -0.23230095651148, -0.28527471270763, -0.17862023549529, 0.0934575315781, 0.07672704052417, 0.23374286512004, 0.28867744038451, -0.07833857409431, -0.0575832976612, -0.13323824554672, 0.28759165307463, 0.01904489051949, -0.09912141017867, 0.19017317786029, 0.14772937273262, -0.18813988501733, -0.02079753664007, 0.07388394531084, 0.11465112757272, 0.17775687337843, 0.14199875382934, 0.01047243105769, 0.24423911407691, 0.00610857808346, -0.03668577388709, -0.17905194879717, 0.25184440725237, -0.15054221936919, 0.19306597204821, 0.28388472517056]
[0.06478666936726, 0.11291717892401, -0.04776013406873, 0.04264235986178, 0.14304923434411, 0.11286448472143, -0.26666024466942, -0.12531691573629, 0.05473583909242, 0.2706163181326, 0.0706661087642, -0.17966428823195, -0.26047226837341, -0.23956378620003, -0.27837358349164, -0.19156855993545, -0.17013657485169, 0.05984941794469, -0.04002407273365, 0.03059017612545, 0.1883198730261, -0.14258060073056, 0.18554427033631, 0.19882228372712, -0.1453165260839, 0.11502582979733, -0.04664881044643, -0.24388355124214, 0.13851071887964, -0.13826155018091, 0.03100674946739, 0.20562399173523]
[0.15813880480132, 0.0181721853321, -0.02798976816823, -0.13731628113363, -0.26969940470498, -0.25703567546438, -0.18931768947498, 0.02653505994377, -0.21554175227932, 0.00729212597618, 0.13765737612157, 0.27138194427023, 0.01815072353814, -0.28865805740322, 0.148400947284, -0.0569857944653, -0.18828109360451, -0.0133378830731, 0.20249574968742, 0.17767434679003, -0.01641609791548, 0.06273709923109, -0.12575411924632, 0.03746070632875, 0.1957307666572, -0.17709344313137, -0.09181592160352, -0.20559788723814, -0.16172383927725, -0.24542488370726, -0.08191600945931, -0.23586086600904]
[-0.23664151986016, 0.01997809926911, 0.24809279713298, 0.17940470591901, 0.25721590223541, -0.11919462372349, 0.18800073447823, 0.17360585087438, -0.27236184329034, 0.09740931359372, 0.07672709614632, 0.00129827925485, -0.08763701637051, -0.2365881778929, 0.16954288617497, 0.23332874492613, 0.20757346237543, -0.1419141730351, -0.26649226901571, 0.17346836333444, 0.13272870095397, 0.15956837848768, -0.04375273241722, -0.0571044752047, -0.26523010322568, -0.28569958238401, 0.05601601223073, 0.12773412149227, -0.04359562754248, 0.22868472716538, -0.07194111275188, -0.17503662871325]
[0.1727099939611, -0.12541452222153, -0.03877800062247, -0.10996697708377, -0.03142348648259, 0.27825084272947, -0.18162028691689, 0.10436693068823, 0.08047088132252, 0.07045499509138, -0.07342009155066, 0.17478170338159, -0.27955898532736, 0.10014457224996, 0.27130008357726, 0.0001760413335, 0.23035927030695, -0.06072679910923, -0.01629912886786, -0.12937557876454, 0.04555785686261, -0.13865459298562, 0.17568113733222, -0.18533745092668, -0.22215814118431, 0.21945728293273, -0.02261555185732, 0.09559770686792, -0.04544101776006, 0.0192988347223, 0.08442187376621, -0.20915403259729]
[-0.23987002719449, -0.14389444388055, 0.24068405690895, 0.16022345565563, -0.19890871107168, 0.11221805270933, 0.10472141429608, 0.09264260130035, -0.0210160793482, 0.29120524398358, 0.23897346379749, -0.2489644649264, -0.10898147914554, 0.07525541920207, -0.1184323137936, -0.16896550187778, 0.01165970516148, 0.05913759851795, 0.21836109076164, -0.24231615998958, 0.06249999931487, 0.18960788923175, -0.12541713403843, -0.24865801671385, -0.19537971833879, 0.28105666003322, -0.05001875781838, 0.28816455159115, 0.2711872960252, 0.02183818937757, -0.25424202689574, -0.27684225950669]
[-0.1308435576415, 0.20870784698354, -0.16776074249877, -0.04022598514361, -0.2301069718507, 0.11480284003402, 0.11882337075857, -0.01543229372564, -0.06464811100445, 0.24115717751981, 0.00939586363714, 0.01246576848423, 0.0986398688144, 0.15884091207895, -0.10699851057793, -0.05157984628887, -0.17981659449177, 0.04107025595156, 0.14676943706506, -0.19133141948077, 0.20999473236835, 0.05956701843663, 0.15220826930321, -0.03329127686593, 0.14987802956369, -0.03012661727706, 0.24842273887568, -0.19701269415685, 0.25298040410065, 0.17041242768703, -0.02650913907722, 0.22062440305811]
[0.28174936231217, 0.27830782582463, 0.0835539089747, 0.00091554270892, -0.26091219592437, -0.11087552708284, -0.12292948005411, 0.14534058912977, 0.1946584971585, -0.13935367508541, 0.22030625461714, -0.2525610051899, 0.05518236677847, -0.03790890672921, -0.00938208404713, 0.07131114429907, -0.20518554333388, -0.14682667705061, 0.15963220672547, -0.2111736510509, -0.21856512087286, 0.12445608059713, 0.09913738693724, -0.00105472356937, -0.0266064646338, 0.28165983349497, -0.16362778060233, -0.00342815221813, -0.26027090144272, 0.13211242828693, -0.22109307855647, 0.07274170055469]
[-0.25988420762497, 0.15850821276012, 0.2309805439849, 0.12340884593046, -0.26592877674458, 0.0466578975486, 0.29329633532192, -0.24058457768702, -0.24316192136504, -0.28878755889874, 0.09856348549051, -0.04234786174927, -0.22289069353555, 0.20990227958795, -0.10583878207576, -0.09440047850405, 0.07163523189822, -0.18573063309288, -0.09735809916065, -0.10999634990297, -0.26650895707755, -0.23274539582933, -0.12594105674216, 0.17460371264273, 0.0943185037189, 0.23288479303771, -0.1942897712683, -0.20789438246662, 0.03722649834858, 0.2330747109969, 0.10857232495909, -0.14309257578671]
[0.28899536114455, 0.18459903782213, 0.24160151041097, -0.19790725360888, -0.16540638179391, 0.11539820878361, 0.26416416568431, -0.23939168355597, -0.23082091885332, -0.0527792972685, -0.14041440810056, 0.10545209881217, -0.21022976818607, 0.09737833299065, -0.25125943799797, -0.12734921953838, -0.0097631713232, -0.25893241497079, -0.00417508756817, 0.11130015790979, -0.17186929228587, 0.1557025972172, -0.06647752184949, -0.19899681297689, 0.26702406243053, -0.2542330978878, -0.01603968914821, 0.26061495749305, 0.01133363664018, 0.06912058409081, -0.11949685728815, 0.0818303508994]
[-0.2549499516582, -0.27265407202715, -0.11592738546803, 0.15326764635589, -0.0416152492244, -0.15655211187296, 0.11117767946076, 0.1894992660418, 0.07662815704312, -0.14451086788804, 0.15664188387429, -0.17518310830581, 0.13003250609661, -0.26170162300075, 0.14722646427659, 0.09765785505182, 0.11943642019567, 0.22925463814152, -0.01101400220673, 0.02075041700157, -0.24934155991552, 0.18866655076249, 0.18213384377747, -0.04093924777045, -0.01932982558574, -0.00969647327805, 0.0378909446535, -0.0270228527191, 0.06012836469388, -0.20002444383134, 0.10860599250725, -0.03667797960012]
[0.17696220795959, -0.11446611140775, -0.03368111081652, 0.01276606322974, 0.0469712610063, -0.20513083075868, 0.10484644712091, -0.27512289608847, -0.0866162173208, -0.06731794729434, 0.01638981667318, 0.1620457657964, 0.07915392892737, 0.04633375316305, 0.0950271625146, 0.03409650708142, -0.01455377634356, 0.06358126239721, 0.2591362299182, 0.29074666746293, 0.28652683999873, 0.22859937732189, -0.23026280698457, -0.18484549592145, 0.20401698722682, -0.22235208475797, 0.15825697758966, -0.24798650149238, -0.23147155716075, 0.14124803493358, -0.24038265375519, 0.04850387492978]
[0.05887788212044, 0.11797074651959, -0.26332653019516, 0.26929811374791, 0.08768984817327, -0.12142862898961, 0.29034146642292, -0.16919876793318, -0.22606895410985, -0.13667814725938, 0.09166267659968, -0.10011549918803, 0.02050729491816, -0.09275002994115, 0.13051376596924, 0.04266525910717, 0.20811326639053, 0.20162594895424, -0.21563783701378, 0.09000881104208, 0.23044362262974, 0.01903832203402, 0.28111379939034, -0.03202653340436, -0.25921242792463, -0.16270026373727, -0.14061733484189, 0.11235507733781, -0.07808522610026, -0.28186224685791, 0.07451161749717, -0.01006421810972]
[0.23262162905569, 0.2162876623527, 0.13842206124489, -0.12022735473444, 0.2847308262324, -0.24261122255149, -0.02081446177736, 0.01726124838936, 0.17485456716789, 0.196390766347, 0.12348054565796, 0.21973386729226, 0.25793914822819, -0.16323071721785, -0.09985587254255, -0.26152286182546, -0.0406311941915, -0.15689269232088, 0.05983274039223, 0.08336969872712, 0.0119710631982, 0.18499906325941, 0.1638929969102, -0.12000029963577, 0.08431753811911, -0.28336378683182, 0.20307936715307, -0.07260774638873, 0.06415453028932, 0.28382967098233, 0.27658314910678, -0.07762251269501]
[0.20803586241021, -0.10469813257004, 0.27139849027749, -0.09360127043551, -0.05881354453039, -0.21775300096513, 0.01755780507606, 0.1696887360806, 0.08187323028144, -0.28214489067933, 0.14554438263589, -0.06068978613559, 0.23285678658203, -0.25643771907111, 0.14053534110234, 0.00914268582902, -0.05355738585312, 0.04668549381211, -0.07462709767878, -0.01334439057692, 0.26549780340228, -0.12859057281024, 0.155158842895, -0.03437745982414, -0.22397170156733, 0.15937955157619, 0.07949501753465, 0.08797911908374, 0.07302493152489, 0.0654450116094, 0.28819706780839, 0.15537165871722]
[0.22041491120503, 0.22056908581322, -0.25781235387424, 0.25661976214635, 0.01772374016338, 0.09284128579851, 0.08789329773621, 0.06916003801764, -0.18236612977727, 0.11667444455891, -0.20067056298404, -0.17795126042389, -0.08932020652727, 0.05964398185837, -0.23784310294894, -0.26718722163175, 0.22077945607288, 0.08223503622322, -0.23921022091208, -0.21275180672129, -0.01285970158346, -0.25697824705678, 0.10210144721947, 0.21752697180048, -0.2350187421867, -0.15972151087573, 0.02582503521859, -0.23328242174529, -0.2397365499035, -0.20534902593425, 0.1899828745341, 0.21767780285918]

[-0.22210043945463, -0.20095767056077, 0.11420662939084, -0.10840513530715, 0.21509932871434, -0.06489692265228, -0.03079058662695, 0.00713296403247, 0.26297287349908, 0.13804935204719, -0.16789051520387, -0.141088686269, 0.22802152886943, -0.13951148563329, 0.2898275457728, 0.1633657220203, 0.18910445290803, -0.17195444124501, 0.14811953280805, 0.04936859400943, -0.06236548678904, 0.26550545698624, -0.18022965352686, -0.12775521802581, 0.15087999505042, 0.30095807488053, 0.07314526827674, -0.21675289800325, -0.14736560281475, 0.10068939289994, -0.1174504471665, 0.15012259278997]
[0.04272935355648, -0.09984576285489, -0.17192033691754, -0.13446658037659, 0.0182137736145, 0.28844383832205, -0.0942672837198, -0.18516806606872, -0.13682230860591, 0.01564313673936, -0.24477877628263, -0.22832132534522, 0.1778921077421, 0.17632354385151, -0.0329777767907, 0.2526675733901, 0.20108320695702, -0.07559652380824, -0.08516988269462, 0.16685360670189, 0.0856421633907, -0.16405086166131, -0.20849949843654, 0.10638116640484, 0.23571691990633, -0.22068244453255, 0.01033525850294, -0.12878036213925, -0.01483677745803, 0.18207012582904, -0.1771869928301, -0.05815211772284]
[0.05342837828997, 0.08186282376185, -0.25028215334102, 0.24808276640505, -0.24767977628596, 0.22198519677971, -0.06811189893189, 0.10748994285949, 0.10216153769576, 0.09148816074679, 0.21322894027646, -0.282299444273, 0.11238143830158, 0.29111485393963, 0.10905264908298, 0.15659319168994, -0.26337305898952, 0.04763882833309, -0.21675528961247, -0.27599647727469, -0.17240188477065, -0.30108874849184, -0.15893433283297, -0.2229398752801, 0.01207633672618, -0.18154460972213, -0.26514662104213, -0.03553343325513, 0.15132588012004, -0.07452461322179, -0.17968410307802, 0.03322433240716]
[0.24258490324988, -0.23210373240003, 0.07823123482412, -0.08662742838862, 0.00581665491541, 0.01434142213164, -0.20950820481366, 0.0672893755838, -0.23598020164863, -0.18010069096583, 0.23853256975894, -0.12428949697795, -0.26497888330474, -0.18255964642358, -0.10013039473421, 0.2216325832015, -0.06518524705126, -0.02932330079961, 0.01476911574901, -0.16628588516746, 0.04409825448431, 0.08347286823025, 0.06127012185211, -0.19028553554118, -0.03340039710831, -0.27967370855816, -0.25522104381239, 0.00690183634272, 0.08186854070178, -0.26624340382139, -0.0426115152727, -0.11392160261521]
[-0.07300896078828, 0.04155111793463, -0.22279828695821, -0.04375274706045, 0.24164602818292, 0.21179065353006, 0.01867561097226, 0.26401832952974, -0.14112377255194, 0.2688663427638, -0.03675834975735, 0.0385809927715, -0.00438743875286, -0.23803280545988, -0.2261860468141, 0.06646423401252, -0.00171524774091, -0.15897284660946, 0.20711669862458, -0.08539796729237, 0.13857409246787, -0.26853715801493, -0.28850199745263, 0.20223416145664, -0.30179324267475, -0.05284447532672, 0.09139171801709, 0.0027241122317, 0.2517477699262, -0.16806083879855, 0.25601202707022, 0.23040038745829]
[-0.06605948962278, -0.04540540402814, -0.24502437683277, 0.10386444543912, -0.08296772752408, 0.11225665333896, 0.17240399412693, -0.30163805735733, -0.25047646382442, -0.26966463883417, 0.27793322432436, 0.16623018121112, -0.28121306913448, 0.24946352111276, -0.20615011257724, 0.00084689584151, 0.1547671772961, 0.1263577296065, 0.23870884503773, -0.08567845483714, -0.26986358173837, -0.10380062099561, 0.08547931829708, -0.17731687465549, -0.10870854086072, -0.0001373772144, 0.27638372841068, -0.03327546275212, 0.13244113824345, 0.27169510136152, 0.1725916361685, -0.16079211600056]
[0.0918575931116, -0.00725795408066, 0.00881601916529, 0.29716222850114, 0.07303905368832, -0.27106274754301, -0.13364933361453, -0.26457430206795, 0.01124207937323, -0.20611037126288, -0.14413515404388, -0.12117675997672, -0.16877386378679, 0.12691743539213, 0.22050009941279, 0.13164900234652, -0.07360740245582, 0.10813815445551, 0.30567196375015, -0.07010322431396, -0.05621693339515, 0.04910553442618, -0.24031073047177, 0.11343712086764, 0.2719702349025, 0.22450598484895, -0.09918817789492, -0.07542893042526, -0.03072944501691, -0.05788900094896, -0.22949563689646, -0.11502703735604]
[-0.20056561054947, -0.17211538173673, -0.26647987963406, -0.16179652340349, 0.0902704072789, -0.15825750486946, 0.09005725811402, 0.28373154510005, -0.13945919989738, -0.01428772991753, -0.06788687951149, 0.09595957280171, 0.16818791699942, 0.16181988708001, 0.23079774652454, 0.07953689938555, -0.17408105376872, 0.03868197011813, 0.2130369094076, 0.02050270437654, 0.07590798680123, 0.19227232938009, 0.18566595885196, -0.30335848435513, 0.1913242111752, 0.02738898680377, -0.11450129416165, -0.04842056633104, -0.00771778317285, 0.2143423175561, 0.20026322752779, 0.17900270447073]
[-0.06604620527207, -0.17231533206471, -0.11470918869481, 0.0243846780074, 0.12077551955456, 0.00809882047635, 0.14063100595031, -0.16280555405642, 0.0744707225246, -0.19372508469208, -0.14749635943033, -0.02843000469347, -0.19066153728072, 0.17067521345268, 0.0377487927354, 0.28703953465049, -0.02384920141252, -0.20222303214869, -0.03655076471812, -0.04974159020137, -0.05823007976286, -0.10381204207094, -0.30582454467058, 0.00587725121772, -0.08520499983556, -0.27765444935973, -0.15594094076505, -0.15783135590975, -0.21170600510558, 0.21992726601188, 0.01895468698366, 0.20936737595395]
[0.19049610920349, -0.11106837162417, -0.00045959350919, 0.30020172910767, -0.27918754307501, -0.22257435049151, -0.0895008626563, 0.12445554666696, -0.09700792027034, 0.2485462974361, -0.26736350640428, -0.1064003775898, -0.07705935179819, 0.07246386654717, -0.28531556079035, -0.23256500086586, -0.02824911350625, 0.03277707682703, 0.21762511139157, 0.05433656393166, 0.12045348980734, -0.12836005746531, -0.22569538132234, 0.12258675813671, -0.11990827886168, 0.04431007081249, -0.28626448496707, -0.14408046565176, -0.09970773860963, 0.2597279402827, -0.10800163349491, -0.15874713337267]
[-0.26024059931457, -0.1150256014668, -0.14657014954704, 0.14024800241646, -0.22818833678, 0.1399470095636, -0.10794847418018, -0.22170587866769, -0.03011864269932, -0.27488319086311, 0.24034413483645, 0.13833560130722, -0.17761663121205, 0.28993194215087, 0.23473415393039, -0.03429411460403, -0.00514324194396, -0.20692293377883, 0.08722987002196, 0.08109029553977, 0.14261227442046, 0.17370548026748, -0.21866152411466, -0.06870177645705, -0.24342192569008, 0.25151565752588, 0.15493064900916, 0.21619409166884, -0.29871528784669, 0.21333585111452, 0.25811385759481, 0.28172615167368]
[0.06164297111475, 0.18175174776318, -0.14849926908911, -0.29882864912492, -0.0571338601595, -0.20196151507865, -0.20703944275122, -0.07027590376903, -0.13169583842915, 0.18086229199924, 0.19181868069556, 0.05639666384815, 0.1603446799176, 0.09080431360333, -0.25139314291983, 0.21510496498125, 0.27835110921273, -0.11056379031625, 0.01618375974997, 0.14746043925267, 0.25590643318664, -0.06265677460734, 0.07470998915591, 0.18637211001783, -0.16642082592764, -0.06646500799119, 0.24111377759355, 0.06337488905654, -0.07304311107539, -0.20795374465089, 0.0699161544304, 0.20222165882811]
[0.07236411223662, 0.28355850737296, 0.20644840843481, 0.28988346308654, 0.30483049900514, 0.10948763213466, -0.04207706922504, 0.03034089309844, -0.15450758992473, 0.07962571346179, -0.11979895938607, -0.30288599821979, -0.20404747838059, 0.07991627023815, -0.19538566332335, -0.30323854228175, 0.21195082369239, -0.24888552750471, -0.28771294015583, 0.13823519332852, -0.03887573257329, -0.04576525405623, -0.26059656850129, 0.27497911653286, 0.25623896131738, -0.29145514546082, -0.08531522094108, 0.23879375085573, -0.13530800574306, 0.06485848455637, 0.28454497195661, 0.17219215873016]
[0.15126491242181, -0.00120909591617, 0.09288358449184, -0.26549027120044, 0.15084800765993, 0.07619267955372, 0.09052681567667, 0.05844804353262, -0.2656786746379, -0.25747883152301, -0.17423048190811, 0.00579166584933, 0.28374565289443, -0.00470398064969, -0.16894126523922, 0.15169639652822, 0.10076649762843, 0.00746628683933, 0.22409664426142, -0.17422616572611, -0.18044488474973, 0.23614277485906, -0.07644667715884, -0.17757980368447, 0.06849905198984, 0.1641366816831, -0.10159567625525, 0.2613484228253, 0.09243091449508, 0.11711241301425, -0.03328175702414, -0.13034958853432]
[-0.08166422419997, -0.14957737636418, -0.18136778845306, 0.14527599841567, 0.11835542817467, 0.04728188110297, -0.15944751700662, -0.16461955352103, 0.25764070369915, 0.08847458899219, -0.29739853884893, 0.1775423129376, 0.08932353187391, 0.28146957860117, -0.15449577156154, -0.20232977549682, 0.25189111042074, -0.2715915387004, -0.25423534527183, -0.18200300243481, 0.29610193148063, -0.21569482028657, 0.1893976261626, 0.04200841830729, 0.00941415377535, 0.02739956604255, -0.05832016041439, -0.06254808048713, 0.13184966179754, 0.09556607783819, -0.30202495517298, 0.0806036923507]
[-0.09733111110319, 0.25896201051897, 0.10102409548502, -0.09991023051249, 0.18272830911267, 0.23079002860187, -0.06256648531733, 0.08935461058139, 0.18733913582454, -0.09296499587223, 0.10780846379054, 0.00796333784796, -0.18534142570396, -0.05073680225464, -0.10830452635964, -0.13289169613248, -0.27273249307284, 0.1872633679987, 0.28636067088754, -0.13997344690454, -0.09166956920044, -0.28866933265417, 0.30350612631085, 0.20518062034768, -0.17034999020054, 0.16737697710655, -0.16128473138767, 0.2672319730788, 0.19659744815403, 0.1947475987692, -0.19214567857777, 0.24845509797214]
[0.09885537662551, 0.03846260073118, 0.18667169812847, -0.21868559065537, -0.00088106747158, -0.08776630365373, -0.2458858060998, -0.09156082745395, 0.03527827779639, 0.04298098898511, -0.16990627873656, -0.29186454950317, -0.23569379224794, -0.02644939550787, 0.16623588624188, -0.17147437788368, -0.05556296901633, -0.21009858550305, -0.09051886625676, 0.16015158078148, 0.00034899004722, 0.09794964613215, 0.00874963477976, -0.21339227278191, -0.11439850418806, -0.20786312636481, 0.10486252956492, -0.21114339623279, -0.09258817644798, -0.12276732676804, -0.10098475828901, 0.12514187563329]
[-0.06287105152166, 0.19987793731995, -0.15345494936792, -0.22608691035567, 0.09262847009781, 0.14863155151218, 0.22862092261946, -0.17614703108439, -0.22507439053449, 0.08141160641611, -0.19117367150816, 0.07028173488831, -0.11670840627183, -0.21350084150041, -0.19487870271235, -0.28872363018747, -0.15796671142847, 0.14669257204285, 0.02062728296092, 0.01159689812154, -0.21817194104564, -0.18967521322093, 0.26971290061025, 0.11357638868367, -0.10164526671692, -0.19443667141436, -0.10138596971491, -0.09850143228902, -0.16822449753624, -0.01415626162374, -0.25849634321086, -0.06370997377307]
[-0.14049062606695, 0.14138986593022, -0.04326534780377, 0.01413754374328, -0.0747224219738, -0.11292822969364, -0.02190331046812, 0.10638241020578, 0.2801565925987, 0.22882971063107, 0.23300360350323, -0.0942920931077, 0.18533440187254, -0.25403592368181, -0.22536777850818, -0.10446065270142, -0.08469214514818, 0.0533880913346, -0.07896129395099, 0.05533715282721, -0.0507537050226, -0.19998001250722, 0.06414688192188, 0.14988088400779, 0.24365501593465, 0.15810671088438, -0.10509187559708, 0.21113995709924, -0.07034071964466, 0.26556789203413, 0.14414912805391, 0.264787752862]
[-0.0658613680755, 0.01428050905146, 0.20857910213314, 0.13169853176379, -0.12520536359819, -0.28458332036172, -0.22501784700423, -0.1266546240122, -0.26152989457099, -0.0893755490637, 0.13811931096319, 0.10933449938958, -0.04497469917529, 0.1714337128927, -0.16392417142878, -0.05775033857216, 0.26086106247578, -0.17319698928968, 0.0489351955474, 0.06950220584819, 0.30260693926278, -0.22473350723227, 0.27294626123295, 0.26577262595947, 0.01831474914775, 0.14024880869547, -0.033791709487, -0.03695099572144, 0.13639369417559, 0.00315973749226, 0.20318160707462, 0.21814186001319]
[-0.28550752065156, 0.12542853802189, 0.13721887930031, -0.26211986651657, 0.22252815308761, -0.24150713567, 0.05138300425565, -0.07433073313311, 0.07439838640603, 0.12973372784753, -0.16903091018311, 0.06065045674629, -0.09932797370387, 0.2039053503837, -0.10878591959843, -0.29174192455752, -0.02220231797592, 0.08739085807941, -0.2545451385382, -0.23154521813682, 0.1707624400268, -0.18472995383558, -0.25947776035121, 0.24731341911904, -0.26749417297677, -0.02799367306693, -0.11577502893829, 0.26269728736703, 0.10572989882434, -0.07612950404354, 0.25763510407429, -0.20488706930597]
[0.12676393548808, -0.14645485414889, -0.25396257610948, -0.2796728899692, 0.0123447583583, 0.26500566187147, -0.13691772407646, 0.29174917514266, 0.05356212050591, 0.03926215560161, -0.079037593597, -0.28400821004805, -0.05664076595538, 0.27979991330548, 0.14788138640255, -0.17125699470561, -0.07620401187123, 0.25708903514028, 0.27256757628872, 0.21781966562919, -0.26854753266395, 0.08673712210647, -0.06033198281204, -0.2774084310696, 0.22477771815332, -0.07064880872466, -0.24078820846096, 0.21991966651693, -0.00452954398302, -0.2544792453714, 0.04924438976893, -0.24860251400617]
[0.11949475638065, 0.22798851983801, -0.24298670176096, -0.03846120719778, -0.21569244563782, -0.06532351568008, 0.22843851432605, -0.04990614586414, -0.15712106738132, -0.26290484798911, -0.20662842908166, 0.13981090522075, 0.12169454184012, -0.02317820627399, 0.29535338634778, 0.10709546017561, -0.12926318421148, 0.13150874907269, -0.04279093282799, 0.10516186229931, 0.10114528357301, 0.18785877543558, 0.02461431393704, -0.08542960330355, -0.04340777403427, -0.23262006849626, -0.13233311757239, 0.03239691782572, 0.12236606744123, 0.17663722648448, 0.27253267895493, -0.08879281529233]
[0.17855479777314, -0.04942082223377, -0.17244541840715, -0.09594976579832, -0.24072527259343, -0.11461197339605, -0.10604391904003, 0.04620605776066, 0.26985501821273, -0.15947610310558, -0.21020634960253, 0.08597401304531, -0.00436046649906, -0.17880495297317, 0.19423926955848, 0.14832633263754, -0.27666491367204, -0.1720421626129, 0.18182113816025, 0.08603699824029, -0.27013973463007, 0.21496588843623, -0.03623980559051, 0.25021187537364, -0.11229219931579, -0.28998569671, -0.27822586370366, -0.09785669810481, -0.16235887358009, 0.26323864150309, -0.26767748307675, -0.2686954354522]
[0.13788643091851, 0.02250926558941, 0.0347406363411, -0.28470765805431, 0.00796911782989, 0.19860816270836, -0.25789421614089, -0.232363768643, 0.03518013617916, 0.27732766083219, 0.00616066801488, 0.19531620904761, 0.04384952613834, 0.27235751058785, -0.23196883362994, -0.09089141522802, 0.23117096679514, 0.12632449768551, -0.04098161113214, 0.0745039658971, -0.22422104921526, -0.24224080356082, 0.0155713396844, -0.00309647485771, -0.07908848677859, 0.28147370060838, -0.19654815271074, 0.05732317053965, -0.21664760094188, 0.06291085311841, -0.24530283843468, -0.0108643989881]
[-0.13324307856413, 0.30167934407584, 0.08307200401562, 0.21544654447076, 0.28575512848652, 0.1273585340865, -0.12679021163838, -0.10081704444114, 0.08008747115896, 0.30071763475978, -0.17376969510262, 0.23883110730371, 0.3002924001328, -0.22419431025732, -0.29735659162584, -0.2740499926548, -0.29487675707751, -0.23144045380899, 0.28976797945524, 0.08014992213093, -0.2210914511143, 0.1757403621616, -0.25096299038945, -0.028766024388, 0.09808138007004, -0.01977113015219, 0.2003135264945, 0.01057224043056, -0.27839032548641, -0.21226648782001, -0.15891363254357, 0.10273013511591]
[0.1970021636305, -0.29431902320544, 0.13334903786123, 0.2575170225086, 0.07748206570689, 0.04716612353218, -0.23305967157143, -0.25318790994567, -0.19570781693803, -0.22264864916701, 0.09683496134513, -0.04785804754269, -0.06889868155655, 0.1394261928408, 0.06570872784873, 0.0721490348529, 0.01081030324341, -0.04533400478706, 0.27965012155885, 0.09214523632125, 0.13205548414243, 0.13879103809609, 0.08959517206561, 0.11103626884094, 0.28265964562177, 0.0517432689385, 0.06198812468805, 0.09316474557652, -0.12316578614261, 0.07446137697907, 0.19195753734297, -0.23508221926983]
[0.01546668503021, 0.27919823344627, -0.25982650230491, -0.02624264063913, -0.28203874097245, 0.29138237027985, -0.23926848862067, -0.03074691383925, 0.22611480271807, -0.24930323622696, -0.08613889201318, -0.20672918575382, -0.13566028763688, -0.16176028922643, 0.19583122229654, 0.09231301237333, -0.25382642951973, 0.14893761288876, -0.00538999792904, -0.2675520986649, 0.13564234601582, 0.15293057127712, 0.26137126870402, 0.06048104674708, 0.09422529789273, 0.15076523118861, -0.05254579814092, 0.20855640261885, -0.00114996267524, -0.16820607953927, -0.08079822351155, -0.19838112871844]
[-0.16297895802066, -0.29154826336741, 0.23686709271321, -0.13243185147547, -0.01560872770091, -0.03620120750439, -0.26556451783585, 0.06503654213474, 0.198701693925, 0.05635929116318, 0.11379519253413, 0.15172942168701, 0.21617467186064, 0.3013258517095, -0.27269760775656, 0.27585342584272, -0.02288172002993, 0.23689462538289, -0.18926724385528, 0.26803754440578, 0.1450839585234, -0.27234267895351, 0.00067254724466, -0.29478864093311, 0.15725246791184, -0.08667995446163, -0.22484612035529, -0.15920852629098, 0.25056156654326, 0.20581773592482, 0.02062395411867, -0.00678080791706]
[-0.05603864363828, -0.01147692143799, -0.08966045842484, -0.21886641775118, -0.30052089906401, -0.19659564323306, -0.06619373685806, 0.29737887694899, 0.22899619005469, 0.2588031658861, -0.11711091254167, -0.29554140388483, 0.01452007909748, 0.1773914425859, -0.21579707197057, -0.08745798781941, -0.3042317732366, 0.21967087666427, -0.03866809330003, 0.19184397847402, -0.15033448665035, -0.18985949405512, 0.12159793770046, -0.2892543301876, -0.24314485358834, 0.07982719211384, 0.03771017160182, 0.21270526299324, -0.18370701374001, -0.20821439049877, -0.03819078729602, -0.0488009589169]
[-0.24897451608557, 0.10696100439614, -0.24835366792263, 0.12748361139542, -0.01999383728854, -0.08247233870662, -0.26370477024772, -0.19716053098104, -0.07756428439628, 0.01869009470103, -0.15121132285189, 0.20128808379123, 0.17946564372504, 0.11113043137717, 0.2168043298805, 0.11081806446752, -0.1016931767858, 0.2646154368672, -0.03907608870334, 0.12355506209221, -0.03594030697721, 0.2684127579171, 0.02477643865036, -0.00689295398126, 0.26515604149276, -0.26944340438709, 0.29684160297632, -0.074256283277, 0.14145790526052, 0.09356620167058, -0.11828488689897, -0.27178098802986]
[-0.1620114165767, -0.28263706777235, -0.26520682203087, -0.23339358795166, -0.00300571944186, -0.04539026730931, 0.02518015625188, -0.1132634147741, 0.30310797622691, 0.05876620594852, -0.16574907353061, -0.19549427439343, -0.11445920665203, 0.25753464089656, 0.15955380206211, -0.24168365065073, 0.00472742588159, 0.25062091266864, 0.13398831026009, 0.2893120904802, -0.00962966793151, -0.18106865431843, 0.14525216040103, 0.10711227120101, -0.1533038203392, -0.09097152340966, 0.23231440091708, -0.22938809356135, -0.28668318578653, -0.03696541717861, 0.29622226280154, 0.00845436074753]

[-0.17142086334116, -0.35982667603046, 0.24190335132759, 0.20386250173185, 0.27402475041966]
[0.12010216352558, 0.04657057965568, 0.27776231302452, 0.00268747970221, 0.20806402783009]
[0.29386443670785, -0.20530074624733, -0.39933964074501, 0.22465196323608, -0.20672276189498]
[0.12780549881681, -0.31991153036046, 0.21910482175016, -0.36177054613988, -0.31997750245758]
[0.07448521059812, -0.13842249716575, 0.10379179576364, 0.09603975597713, -0.02570527719944]
[-0.18209590484888, 0.2790994746608, -0.11696782090962, -0.3558384171239, 0.27735970182846]
[0.32786963390159, -0.1001044940288, 0.37874386829628, -0.0639325105476, -0.18444961285718]
[0.31622328579504, 0.26678511329799, 0.27437995538616, 0.37189679063786, 0.00037258857702]
[-0.17992653736261, 0.11056757455948, 0.10141691414675, 0.14951102884705, -0.19226517163227]
[-0.31126365725276, -0.19507991904969, 0.00846854616246, 0.12992275054333, 0.33485830455657]
[0.11329761208346, 0.02737943433409, -0.22040324935906, 0.05648821130733, -0.09595845145761]
[-0.06140254837935, 0.08357260953179, 0.29626309849985, -0.07466147130987, 0.08562125134644]
[0.38629631863037, 0.05276508173045, -0.07215971691178, 0.32738361514581, -0.38883014527254]
[0.37376708331452, 0.27259835944486, -0.28354794463836, -0.08886780320551, 0.1610748453895]
[0.17819656055465, -0.3779887819075, -0.16341029745205, -0.04137736862145, -0.0393074539936]
[-0.13313407129063, -0.19731749217165, 0.31499169759985, 0.14154497207572, -0.37755684969976]
[-0.11106792834405, -0.21700361736521, -0.31265815542467, -0.20492543507006, 0.05252618945022]
[-0.03784190202245, -0.27004329555067, -0.13502349817017, 0.2251179827069, -0.22313700341773]
[0.3008633144442, -0.39129879630998, -0.37413757398736, -0.04756706114738, -0.06806489801724]
[0.020561987289, -0.34632702058796, -0.40162278899521, -0.14477529897072, -0.31449588375283]
[0.2423268133884, -0.34265582339792, 0.01964960263789, -0.03026805040279, -0.05898649425921]
[0.12602219464292, 0.11471605160494, -0.40028014881364, -0.13480133629777, 0.34479960540483]
[0.23629995451799, -0.19352421380203, 0.14273640803138, -0.077344081142, -0.11242094121616]
[-0.36155157594191, 0.23130703193056, 0.33056041655606, -0.04506687854904, 0.11178125944516]
[-0.31468182995152, -0.01540570296833, 0.22661295278132, 0.26977330615184, -0.27049415582881]
[-0.33837501228051, -0.30175526785601, 0.23628290051346, 0.12175131564787, 0.00781989597997]
[-0.19331647930685, -0.30659211722429, 0.30786093933393, -0.29466983079712, -0.34100289280807]
[-0.05549383005914, 0.04650723284288, -0.31003066822735, -0.12984931222228, 0.08543157546166]
[0.06477456160066, -0.10374006879793, -0.04835560098693, -0.34234531772038, -0.29535718961699]
[0.13374071648601, 0.03943740315405, 0.03719051003645, 0.2441923781701, -0.29787234806992]
[0.34295222242165, -0.34193539184317, 0.23782645463833, 0.07233789259978, -0.04122210269738]
[-0.02427740295929, 0.07336499658894, 0.00330055980646, 0.13465935156431, 0.0444094257715]


Best Model in generation 1, with a score of -0.130000 
[0.22185951503994, -0.0079843443966, -0.08440091475105, 0.18334852232577, -0.21418772239506, 0.23153390017286, -0.0851333563485, 0.11821312908954, 0.24215390631434, 0.22797951031782, -0.16387787206445, -0.04332563460766, -0.24958670454225, -0.03557192854141, 0.22905778966365, -0.04281502425097, -0.18457758221928, -0.27416277314103, -0.07925380938333, -0.29471342490311, -0.14335629934645, 0.22966406906219, -0.00136705669487, -0.09331691273643, 0.28150490349141, -0.21963459765418, -0.20183748801329, 0.21029987335453, -0.07336732100741, -0.01109880000573, 0.088454896898, -0.14170930227976]
[0.17183840366424, -0.06084404915438, -0.2159397775809, 0.26033182183063, 0.17169887782482, 0.20205924335437, -0.20346610646732, 0.07418155674905, -0.01198184050374, -0.00234250378859, -0.14431990477781, 0.19322856625813, -0.23281773923556, 0.2622723276224, 0.15670753404425, -0.19367173031317, -0.19450151557422, -0.233419942924, -0.28128727308465, -0.26707932454771, 0.08227355025021, 0.25712849939427, 0.07396086271921, -0.1092594193717, -0.22064856049079, -0.09656097712583, 0.04935702874875, 0.25980387630773, 0.22479608945579, 0.04885886658887, 0.16753991046656, 0.02188876163649]
[0.19461418620191, -0.1513181661039, -0.19031671616908, -0.10525927607245, -0.23867020681764, -0.024108176481, -0.14678622356707, 0.14061638231639, 0.01080764729923, -0.26942395557592, -0.26765974119913, -0.18562494558641, 0.23802550491825, 0.22062974864049, 0.14496520466571, -0.23661426064063, -0.00702474857717, 0.10012734197103, 0.12265428207502, -0.15303826490922, 0.09956620537163, 0.06168805909199, 0.11657333989141, -0.21781088716868, 0.15644090458366, -0.01449470905528, 0.12595071128385, -0.2925396487518, 0.2330669856364, 0.08035239548956, -0.24998828742553, 0.26744580547707]
[0.27994509635845, -0.12947981425223, -0.19060385813507, 0.06762476704206, -0.04783900236894, 0.20100483352202, 0.29509464662177, 0.29235320107228, 0.28298139314472, 0.28583702750796, 0.2435836614607, 0.11773923170767, -0.20844794964945, 0.16578205818873, -0.02654768349388, -0.12951045733324, -0.26558870705192, -0.05080706662474, 0.18461608631992, 0.00249583296852, -0.03354012065371, 0.1861223654125, -0.23899895642371, -0.24327514435866, 0.16496070608503, 0.29468553494672, 0.04130836876709, 0.0897847242508, -0.19387310095884, 0.20229850140277, -0.23357321109014, 0.11438642398382]
[-0.26957771830625, 0.034246897245, -0.12069168813067, 0.06310005287057, 0.12491573974198, -0.19765904463577, 0.10308041022148, -0.09741007954017, 0.24407364456651, 0.11630816038583, -0.22222939313072, 0.1858805708479, -0.12935255798495, 0.11328062331253, -0.18964469398866, 0.19072738572824, -0.02461025500585, -0.2070228528017, 0.07534253453073, -0.1866652167594, -0.20540807551503, -0.2509849209491, 0.11698610834805, -0.13791775373431, 0.07053679643381, -0.0921457289292, 0.26390133735868, -0.00785662987615, 0.27670138523497, -0.26937471542812, 0.07739491472558, 0.14400886341303]
[0.04692133858613, -0.10282879063389, -0.21274564404479, 0.07244711758676, 0.11291634072915, 0.13444702404018, 0.19785586363037, -0.01904691190877, -0.25840741152609, -0.16370145596433, 0.09772098481625, -0.06306024680598, 0.06622684462893, -0.10262491724741, -0.07734657691391, 0.27594706289141, -0.19506482029542, -0.21353222322702, 0.26995149745578, 0.22216857532219, 0.21766077976839, 0.1964511158923, -0.16429869933886, 0.10438780371802, -0.26679309969893, 0.1937912324713, -0.15637580296003, -0.08773199825239, -0.03655355578749, 0.01715060627068, -0.21912210412864, -0.21476178435337]
[0.25291964835047, 0.0983456260984, 0.2429861326122, -0.17251212389201, -0.02154442449482, -0.19520983280155, -0.2127477559778, -0.19750332130558, 0.09057992799493, 0.04740633558773, 0.19757888024126, 0.28994676217137, -0.28174412120633, -0.07425162867112, 0.10402232084466, 0.19521046933728, -0.03750544175427, 0.02527238295395, -0.25634977153828, 0.05475232126542, -0.06195884857676, -0.28181316194095, -0.06031517985018, -0.17991775296546, -0.12249760392011, 0.24297023032307, 0.21000337567967, 0.12503980063381, -0.00228910407232, 0.14151572638733, -0.06397668268957, -0.03069037667341]
[-0.25145359312551, 0.04761285942599, -0.20319862453983, -0.23483457224987, 0.20980079881382, -0.00674575128414, -0.10914968756451, -0.19382198051492, 0.22056314032208, -0.17349231259929, 0.16346581608195, 0.02565093393262, 0.02683365167437, -0.11732364201391, 0.11412184118654, -0.26752085092932, 0.18902238989797, 0.18582528926609, 0.24727233254144, 0.16276049386795, -0.24319076917023, -0.26256432126749, 0.27433826247141, 0.09325723462964, 0.01624611402608, -0.2117756277982, -0.15331488219429, 0.13558506705953, -0.22953621137071, 0.17434576360545, -0.16365833191115, -0.19126607662439]
[-0.09968987589692, -0.06196058708566, -0.05701421381637, 0.13048580661387, 0.00742647630546, -0.06493036570348, -0.10447432006872, 0.1950714874995, -0.23447764303093, 0.25820802766655, -0.03603662085441, 0.24731446320324, 0.26499850731488, 0.26318600311282, -0.0321621653319, 0.24378100021934, 0.18317854215548, 0.04665982852494, 0.25182170411245, -0.11809112855828, -0.27210625598723, 0.24716553453315, -0.16023929643362, 0.19651961683682, 0.06461440305729, -0.28373150714493, 0.22874601801149, -0.21094610270178, -0.28374033949605, -0.2190025573164, -0.13414703071011, -0.01075333926968]
[-0.03428606950276, 0.1239125479638, -0.23903770867849, -0.27786078769375, -0.23398036049624, 0.23708876796361, 0.10348454133117, 0.13143624307415, -0.26679276603845, -0.04982237506572, -0.1984066425304, 0.12269760698423, 0.17225371431273, -0.05787984256757, -0.07187366373002, 0.15701270486696, 0.14559749230235, -0.29731878477792, 0.00733420332943, -0.13539271390666, 0.14798919605245, 0.20794102382939, 0.2155913575575, -0.26266395349741, 0.23433517529241, -0.07370640153294, 0.06617205697088, -0.11234762614736, -0.120125968255, -0.23787651739112, -0.09531908966554, -0.08117121483052]
[0.00862605366276, -0.18843182748201, -0.01561514072321, -0.19540763240101, -0.18655861062461, -0.26470591085296, -0.17114878008516, 0.1061235294569, 0.28948765272842, -0.05059278602284, 0.1623327678175, 0.0530368229106, -0.24846387382411, 0.25940598240591, -0.21992906301355, 0.25811552311886, -0.26170709179235, 0.17957360074269, 0.15912004536584, 0.17649200800155, 0.14030161335028, -0.12546981246702, 0.01817549754164, 0.17712958627694, 0.04562730021635, -0.11134278595621, 0.19965574723752, 0.1608479705413, 0.17464422888451, -0.18735667281199, -0.14068449630652, -0.26048532431341]
[0.22853657678603, -0.0810800638285, -0.16595624893551, -0.16468210503405, 0.02157433284528, 0.16830672456299, -0.22070035764167, -0.2574565124998, -0.12100875991969, -0.11113207446733, 0.07703969537193, 0.03652050357784, -0.02175070795566, 0.12512508904182, -0.0835658678859, 0.00379606969741, -0.27300616132681, -0.21180520997636, -0.29153075889706, 0.02071381511837, -0.02390145016964, -0.07210622022953, -0.01723390249518, -0.13817188997907, -0.02752185525681, 0.13046921169302, -0.10076914705129, -0.03380480088103, 0.10407099846959, -0.01988707160569, 0.13461529945724, 0.11627120547504]
[-0.28308777225042, -0.21009471766126, -0.00582896791466, -0.22032917986826, 0.2600737763348, -0.01162856104656, 0.05009148838319, 0.08574621650461, -0.0715525010262, 0.12349620391897, 0.05446717634458, -0.06619359181737, -0.11846861613362, -0.27702380760246, 0.06434946620503, 0.02072927083065, -0.23960927865968, -0.16627365397383, 0.13086458484055, 0.26465419056298, -0.22319391232658, -0.27998528161909, -0.04010735626526, -0.22873828272164, 0.22567476226045, -0.15187369780108, -0.19599572028508, -0.0306669995036, -0.13824787179195, 0.03232397944388, 0.20643504537407, -0.19685523835958]
[-0.1494050410686, 0.27288425347632, 0.23934315884669, 0.00554018190596, -0.28041064118823, 0.0981004165397, -0.26831607110802, -0.02585064120984, -0.1173185312013, 0.28306386779953, 0.17696605007201, -0.24134129825154, 0.22940413245672, -0.05052804501612, -0.12130105395978, 0.23092605481125, 0.1226864754224, 0.04605954906969, -0.08317280735716, 0.23666523821586, 0.09329292261084, -0.06297164377541, 0.0747306031134, -0.11786304126387, 0.03197184930406, -0.23633277288964, -0.29330049649714, 0.10818345017558, 0.22028065639434, 0.15825006618262, -0.02873786275897, -0.19937067972029]
[-0.00041615207234, 0.10058511634367, -0.28601935962699, -0.21672019887974, -0.04592568581434, 0.04628054760656, -0.14292692826525, -0.20165987647967, 0.11845426383731, 0.28485792303382, -0.24459547359254, 0.10440061008519, -0.24321027153186, -0.13710095065415, 0.15543923780872, -0.22951464919755, 0.23206620842775, 0.02908214060785, -0.11006127593536, 0.29432382002298, 0.03901070626674, 0.04096446305607, -0.20282177615515, -0.09915737032024, -0.07226159942219, 0.09095154395417, -0.09088867439616, -0.08043278587566, 0.03075874865107, 0.26931175567514, 0.15816417667951, -0.14432196349769]
[0.24950402169551, -0.299792684622, -0.08759645096036, -0.148282108795, -0.22520148197874, 0.08240416645869, 0.27579791077552, 0.01097831518265, 0.19460894548672, -0.05794217827, -0.16632507446536, 0.27500310216719, 0.288167975409, -0.23419340846624, 0.04385640035924, -0.28928392734171, 0.16094798897337, 0.1861937562497, 0.28321861049211, 0.13638342744521, 0.18754606891459, 0.02792714216112, -0.16145632017001, -0.27375771748018, -0.2668498145949, -0.02621299675117, -0.1348805409872, 0.17909766491523, 0.12682846095992, -0.2670402017609, 0.07085672779175, 0.2491905440861]
[0.29455281780905, -0.27502307545666, 0.27398047799886, 0.15315640862259, 0.01154169904267, 0.06743368299915, -0.18399553690276, -0.04485302051147, 0.25514507252558, 0.20374047555867, 0.16302538368957, -0.24797975765402, -0.25095133334242, -0.01882975294076, -0.14317455802566, 0.04714297846134, -0.31809425284523, 0.06723232285061, -0.25935198578246, -0.10865654193441, -0.05997197449942, -0.28873647208828, 0.03364765807138, 0.03651278145877, 0.10236615116783, -0.01146302820198, 0.26111481270214, 0.16345236747978, -0.05859381237633, -0.06228553893467, 0.25670745092986, 0.01138560577075]
[0.13326132900307, -0.24597929466345, 0.04700631759411, 0.02059741612035, 0.0574371703165, -0.23687886692871, -0.24147472565518, 0.02571413952414, -0.06625027492998, 0.07489630149612, 0.11297941005783, -0.28377144871437, 0.09821960346045, 0.10388073738682, 0.03052910921738, -0.05932218786612, 0.18736251338312, -0.27961384000748, 0.26863112446372, -0.03661100410305, 0.01709373723251, 0.17750253041682, 0.06193556043441, -0.18577518042187, 0.22293127888299, 0.1977183457655, 0.10683640194544, -0.16355129958148, 0.00682571849273, 0.15627017989927, 0.04446686351304, -0.2230675458195]
[0.22052611951169, -0.29201059142098, -0.25475271490101, -0.04384083958875, 0.19945489777965, -0.01715832088911, 0.05557497944013, -0.03273116081227, -0.0857800301073, -0.25330742749136, -0.23923196937938, -0.24598890564337, -0.08588309115393, 0.22057245623612, 0.00482157256604, -0.00115140310803, 0.0860852448204, 0.15638181248012, -0.11819463682806, -0.23278680780144, -0.07510834106815, -0.15848237271172, 0.27021029326861, -0.27489447210396, 0.18440500406799, -0.26928325496682, 0.00438810559604, 0.01834805613944, -0.26759144944693, -0.0249196608855, -0.10747488112408, -0.1803730050659]
[-0.05839811601601, -0.0051333162335, -0.24946098644615, -0.29427080791193, -0.05056316880277, -0.20445128614701, 0.11503477246483, -0.17240189004887, 0.05030070444654, -0.27493411234153, -0.17719574730122, -0.0478539045059, 0.0933475240007, 0.27730174737114, -0.06056187451496, 0.11212599226327, -0.04159704878869, -0.13475443768835, -0.27477043639686, 0.0893747886681, 0.16556949026535, 0.13808431171607, -0.14272409481045, -0.25359937399933, -0.27077952428997, -0.20054347518997, -0.15404334125444, -0.27055110599739, -0.13107456702257, -0.20711240482161, -0.23106613304065, -0.09595738761141]
[-0.25119469828384, -0.02036846481156, 0.16075713425682, 0.27070428837863, 0.25245830517964, 0.00238911028961, -0.18859471636879, -0.26535828874235, -0.15672048235114, -0.204483647674, 0.07784297482786, -0.01276208842925, 0.21027857287012, 0.22861176347936, -0.19216089616285, -0.2370589023891, -0.19133033580474, -0.25403634581449, 0.05955901910262, 0.07225645975195, 0.2113410581836, 0.21291279846395, 0.13987043758525, -0.0503873252513, 0.01636453927668, 0.23752086048673, -0.14012401238652, -0.06569727476149, -0.01701700454335, -0.28148055922381, -0.22331933504686, -0.01286182619368]
[-0.1360356685392, 0.16942965870583, 0.21034735034708, -0.067154429214, 0.24914105515131, -0.15410362243712, 0.0005941031909, 0.21171635080457, -0.00306419729207, -0.05666265354217, 0.11357759519817, 0.13542016461213, -0.01829448567839, 0.20643610141057, 0.08144482484606, -0.16008574578827, 0.11173295935262, 0.18045190924226, -0.02275949605254, 0.0945585311364, 0.28482522941798, 0.17157278981334, -0.11661680661832, -0.26747299965568, 0.04795486775385, 0.22388672444063, 0.21797296099511, 0.24584518563998, 0.24454382204803, -0.18730421298071, -0.22720475239354, -0.16836200735782]
[0.04384679331061, 0.15884457521822, -0.17107474603177, 0.03491819456689, 0.08193089554579, 0.0674324278461, -0.22764654527363, -0.20654651320808, 0.21548965872087, -0.15682858523799, 0.14190413640834, -0.20910680152831, 0.11961597530705, -0.04876739292081, 0.23554553313283, -0.02817415345529, -0.15868561406918, -0.29030193862151, 0.16706286483679, 0.03238093523286, -0.16825577834402, -0.04283733983917, 0.23752638854983, 0.02587179877513, 0.10736081360973, 0.25567278775306, -0.01062493265056, 0.19095083845878, -0.09023337543615, -0.25202408005119, -0.24651362530208, 0.17261777384753]
[0.20596058168917, 0.24441837890283, -0.06283889396714, -0.04998358612781, 0.03748236288204, -0.21452225237332, -0.07534372502713, 0.09285296031456, -0.20119581659996, 0.12767419744983, -0.18252220092334, 0.19529566456149, 0.13428546973979, -0.28520767811182, 0.123540899223, 0.09260472201385, -0.04147923586508, 0.13100001873313, -0.27459467244664, -0.23834959616457, 0.01543344241674, 0.09639753034653, -0.069457363555, -0.20919072011584, -0.13834063314382, -0.01600792258851, 0.04131097310497, 0.17636966474742, 0.16661308898435, -0.01584010613643, 0.09199480477201, 0.02308162762221]
[0.13075969271312, 0.1195838920848, -0.10711718494974, 0.00327604499165, 0.28418769825474, 0.20305100768441, 0.17784582306183, -0.01518879546348, -0.28902838624555, 0.19108552854087, 0.12553675436856, -0.16988134435525, -0.29387465297715, 0.16776431055673, -0.26971970055441, 0.07834243372539, -0.08258382162127, -0.0587746641142, -0.18489284027756, 0.0712855148582, -0.07002066184076, -0.25312049916784, 0.04741206380044, 0.20707509081398, -0.18184134816918, 0.11646266296631, -0.19223118631315, 0.19169109200123, -0.12497931094308, -0.02016232044206, -0.12920935250359, 0.2071707664454]
[-0.04764084837807, -0.14064165221424, -0.1063298430487, 0.12235168804367, -0.22407125240451, -0.24719636629245, 0.20482131804493, 0.13783582014855, -0.06695102369331, -0.19887046758653, 0.18977022025974, -0.26526035923564, -0.02425792523358, -0.12251972692058, -0.03738768685625, 0.18835695518086, 0.15121243650399, 0.28367033877194, 0.15967634793459, 0.28235383084207, -0.09636736687571, -0.17990953182091, -0.23109686093154, 0.08929660089839, 0.12512989796029, -0.08287065991027, 0.26266439387127, -0.25430214731505, 0.11291604988478, -0.07314762863874, 0.03269791484211, -0.01238340216019]
[0.015701779051, 0.08692473372458, 0.27013405161892, 0.23000782001639, -0.19084657203563, 0.05292930569156, -0.05961071942286, -0.10801608826368, -0.21502634847255, -0.24138850231485, -0.06583495216501, -0.24439059426701, -0.22864300785906, -0.12811073766351, -0.2469912869905, 0.25307944204372, 0.01353930344175, 0.24086723764654, -0.20267268910501, 0.04178910475328, -0.03756506191361, 0.18971234141457, -0.05375054150921, -0.26652795499668, 0.1951648483416, -0.02176617864541, 0.28176575559637, -0.22601252510169, 0.29283379654153, 0.09142931707674, 0.15120900341943, -0.01073261819024]
[-0.03940413880104, -0.23937486150048, 0.01459478522329, 0.25377118824297, -0.25102321939448, 0.01201241161753, -0.10420032324154, -0.27949888911265, 0.265421064437, -0.00410802954878, -0.16565193304756, 0.06684782423867, -0.14499272449144, 0.07554079104788, 0.19285983121961, -0.08276415927047, -0.28507322418686, 0.29011751676834, -0.13872930309736, 0.02888416866396, -0.05033216733686, -0.0151177082618, -0.01612172360645, 0.14044655543327, 0.07430323886216, -0.04263888224133, 0.08381970538537, -0.19862561736979, 0.11206801052581, 0.03363840527861, -0.22992825991279, 0.1854043959785]
[0.18104388825535, 0.09696433951644, 0.00477234403503, 0.17865948819301, 0.22629318120235, 0.04250018727042, 0.08437622761219, -0.20765390818463, 0.0882162007774, -0.17488851730743, -0.04426531559622, 0.01756300922235, 0.26434288906119, 0.21776690341084, 0.03942531156183, -0.19891880881129, -0.23748900828641, 0.04495527287924, -0.07247857325611, 0.2695390698304, 0.15612912748715, 0.13918677743792, -0.123706647057, 0.10063375779047, -0.17530361104629, -0.26389064900098, 0.19305360845242, -0.03529717918488, 0.21963372452384, -0.17989747793279, 0.27353936397973, 0.18533436222305]
[-0.23688228676617, 0.13484435310501, 0.23558742200462, 0.1464656487498, 0.23225357026789, -0.09100184648467, -0.24667038019848, 0.09836523282496, -0.23226793881963, -0.21814230611903, 0.02153115718921, 0.20633204580889, 0.13597270941824, -0.17116781107395, 0.22047852858556, 0.29391502927733, 0.2686010119972, 0.17823995335781, 0.12670775917425, -0.06673757210265, 0.2694688477493, 0.11032812403617, 0.17467400739752, -0.20757659717282, -0.2018480401365, 0.01069399702339, -0.24411199326632, 0.24799172693306, 0.00185640030931, 0.19162325953707, -0.22942139763201, -0.16355188950851]
[0.0461658573175, -0.07288156805858, 0.19358268147279, 0.12078780126845, -0.26906069773101, 0.05445718510901, 0.23142171350805, -0.06733596886512, 0.20369328630719, 0.0775690155179, -0.12167697485973, 0.19484734250906, -0.22960580520904, -0.28368784044412, -0.14677935790718, -0.08350318194737, -0.11050260084748, -0.18885875915542, -0.04457198353811, 0.05774526149542, -0.04882022499193, -0.06164244725395, 0.15696855171555, 0.17798237242663, -0.22854757584484, -0.12202076678987, -0.2130768009505, 0.08882207124136, -0.09189424409285, 0.0062190236042, -0.09343815438583, -0.26737449134833]
[0.04256448723967, -0.10852025264893, -0.17454588544627, -0.04298250671861, 0.09543750772255, 0.23792476683304, -0.14371112542153, 0.12553355888339, 0.16388810907793, 0.18746788233445, 0.0958861149138, 0.1874142926938, 0.20360983632432, 0.27470924029556, -0.1112515482958, -0.05690047455902, -0.06237543448705, -0.06019361207942, 0.28794632318027, 0.02418812747779, 0.14337374891108, -0.1218586889705, 0.13811294513486, 0.03759754728607, -0.20768144270265, 0.10124579739801, 0.21856563665647, -0.01070426195831, -0.07656465184126, 0.24791480946252, -0.0741105251315, 0.0629854172724]
[0.26263463964993, 0.07198912502997, -0.12439304207689, 0.04688325158558, 0.04866189999761, -0.23985984400268, 0.06642084629025, 0.1539492619865, -0.00145646895937, 0.2444206015447, -0.01877613583308, -0.29032205587286, -0.07234591229644, -0.06370175011398, 0.19580432878746, -0.1443939054262, 0.19703781290416, -0.18081658867606, -0.18605167054935, -0.19652347156897, -0.09033653428333, 0.11076644669151, -0.1662290291642, 0.13914217461818, 0.21903340821086, -0.11335941997445, -0.10203090695052, -0.06973549237446, 0.16781980961612, 0.15596119068753, -0.0361978514525, 0.03665796199308]
[-0.2034436137334, 0.00359048587518, -0.12139712204292, -0.23313051922808, -0.27546933581126, -0.15799721218672, 0.17938521506255, 0.23410417160667, -0.14434537795101, 0.29098004116232, 0.04361759781512, -0.27141750443042, 0.17072182883302, 0.03644518457887, -0.02879545593468, -0.25999002799889, -0.29066304949582, -0.19338102196676, 0.11662456034765, -0.11101778184308, 0.11976439500865, 0.0062993652543, -0.01635743064465, -0.00171357170278, -0.13445150312316, 0.14603399302034, 0.24066425684376, -0.28277310863705, -0.07180288367472, -0.22488176941504, -0.06781788970016, 0.20127541965829]
[0.21605143982882, -0.27783099565007, 0.24921201926304, -0.0656054472942, 0.15465651355312, 0.27456237290969, 0.06603172443833, -0.08469983004221, -0.12759375427747, -0.04986371123935, -0.2558470776611, 0.05163615038253, 0.22580089677041, -0.2249036973116, 0.0403580702668, -0.29018079840588, -0.07947319143838, -0.00604336796953, 0.13101910085422, 0.11006757564087, 0.01673055493576, -0.08209173661908, 0.14865165650357, -0.10869028335757, -0.01862214490037, -0.03471540744713, -0.16914634017553, 0.19983897197704, -0.10976795204115, 0.08859946999128, 0.05786275114748, 0.03848388712168]
[0.20999092384275, -0.1510111359414, -0.27971142560447, 0.14688246440797, 0.1614450944567, 0.00445792096107, 0.11712806091794, 0.11437473804176, 0.03117793046088, 0.1001623654711, -0.08741345349315, 0.18104677518528, 0.06978960829937, -0.22433448354629, -0.1575523506563, 0.11896738514083, 0.13270041444037, -0.24984632068256, 0.02376446690743, 0.23001725061501, -0.1345737036211, 0.21233750719541, -0.01761157972423, -0.20200732966207, -0.07091478732, -0.19757098851372, 0.0055130521535, -0.12725942366938, 0.17881599110664, -0.03714473467327, -0.26605895627604, -0.26851558346852]
[-0.14484693704273, -0.28476704498116, 0.09749407981277, -0.22622513636214, 0.15059265994311, -0.13353610211406, 0.08133800286998, 0.05541691574143, 0.07886068606554, -0.06586996039327, 0.07794580632538, -0.21633252048199, -0.00149806508697, -0.29409814985634, -0.28945548655557, -0.24662184616794, 0.15395019556525, 0.03790443178585, 0.2897275084034, -0.00100738298005, -0.02136534009256, 0.20028112035731, -0.14210193954479, 0.24365077456113, -0.14468863133664, -0.21702096923088, 0.01177480149478, 0.04431736292002, 0.17222543396902, -0.00216195370578, 0.05776000280545, -0.28743555658568]

[0.10346083576164, -0.09689000314621, -0.16078861560411, -0.25218566413997, 0.09889145456697, -0.16503840323657, 0.15573698277442, 0.10551265713518, 0.21953367692412, -0.28279419819852, 0.08536704236311, 0.30422434860134, 0.02627749695931, 0.10166953241355, -0.21038661487981, 0.20996331377207, -0.01112941887735, -0.28158046156613, 0.1323725172645, -0.0994083722739, -0.15024529104823, -0.17389001770493, -0.10585253968774, -0.12435309623375, 0.03912824169444, -0.10837373600789, 0.11214584575922, -0.19931513233666, -0.00211012084487, -0.20658995505553, -0.2066125038275, 0.0525684548398]
[0.27174237933544, 0.01462824803812, 0.24199358266232, -0.15616477564877, -0.03780540896713, -0.24362956007787, -0.30575771369756, -0.23581268590588, -0.04750473883789, -0.22100419800307, -0.05156186321381, -0.02324517900466, -0.13563450724549, 0.03741175864873, -0.29218036040318, 0.00645743124209, -0.14742880587418, 0.20301350867936, -0.01602747796198, 0.05958303899636, -0.24477079964231, -0.03912786727998, -0.15849525319811, 0.07916429066248, 0.11155076794305, -0.21364290207192, -0.0420864962659, -0.1057450963033, -0.10170741044701, 0.1227010445677, 0.10748592537988, 0.27955129914358]
[-0.06359397000396, 0.0233466625756, 0.29571509369103, 0.07557394184147, 0.27830980093702, -0.15506017950234, 0.23806745067604, -0.15531845753183, -0.00944473017576, -0.26496919852349, 0.19453479140959, 0.16398733663698, 0.25920233387875, -0.1707080034703, 0.29022209142602, 0.23268233925675, -0.1740830343944, -0.08124171938641, -0.28553731020966, -0.04624156333645, -0.00656586217268, -0.23578669804545, -0.18884689084992, 0.21101849051919, -0.02849826234223, -0.18527500080169, -0.05268033559298, 0.10984061846736, 0.13171440053438, 0.16535987249593, -0.02602674575674, -0.03262390200958]
[-0.30289891581151, -0.16914335907106, -0.28380747427376, -0.12739835182004, 0.13471581009586, 0.26363618938326, 0.26324433093581, 0.09008885639624, -0.16955841194411, -0.22763964623645, -0.28376636917446, 0.10786417996184, -0.25990206538734, 0.22675756773062, 0.23558122806836, 0.00474793136536, -0.0546891662137, -0.16524301369122, 0.2897440804641, 0.138502650153, -0.12055116908236, -0.09586268130712, -0.03993060741777, -0.15932250897687, -0.1777733692664, -0.08440322396583, 0.09655303256016, -0.22871575223336, 0.20409613749542, -0.20643003008681, 0.1408265834939, 0.15132010506073]
[-0.21133256204359, -0.25569367774606, 0.13023154822829, 0.12371242862702, 0.29896907298433, -0.24679496128214, 0.26033231448233, 0.0576023198074, -0.09138264248647, 0.03639021243585, -0.13505584998893, -0.13445489339979, -0.27384423334875, 0.22845181469199, 0.19785003093659, 0.3032580774628, -0.01263478389543, -0.21959588969414, 0.29029497742618, -0.29223744442735, 0.29489420079538, 0.15673829186363, -0.05630289958511, -0.04383921295246, -0.27024279724416, -0.07930153583158, -0.25562895646337, 0.04814234346352, 0.29769294377613, -0.06340121259484, -0.06461929377305, 0.22308068848129]
[0.00771800705876, -0.10190460410261, -0.21135626927925, -0.16357154374641, -0.20704250000978, -0.18744446918888, 0.2316467327451, 0.11186897721743, 0.08250035971726, -0.04994545980453, 0.0173435891772, 0.12255582690817, 0.2180298273946, -0.14248995372676, 0.00647754534617, 0.01513279745727, 0.1719918152789, 0.24130789268462, 0.11442411573449, -0.17458028905036, 0.02417072175561, -0.0034008051785, -0.25719090339647, -0.04695464054748, -0.25638642807896, 0.25951617828369, 0.07646623992415, -0.0947694996202, 0.30162682170813, 0.21534571647278, -0.01522512442726, -0.21514992292619]
[-0.2571872348547, -0.04444991291162, 0.20587546546959, 0.30722856856275, -0.01267927131891, 0.12610086198537, -0.30046706322775, -0.14262053216338, 0.30215569372699, -0.24644570096042, -0.09195356478783, -0.1014209204636, 0.03412116087777, 0.16511070602498, -0.19967790586795, 0.1536448281556, 0.11782752105928, 0.10986689041973, 0.06170024847105, -0.19816601574561, -0.11493140365269, -0.26201015506066, -0.26677646438698, 0.07377416002876, -0.08300925154147, 0.18673960244903, -0.15901699263069, 0.12415397768591, -0.32764155235548, -0.0024933350918, 0.23826389049567, -0.10249364652757]
[0.04448472700041, -0.07927009215056, 0.13849289944699, -0.11294597206226, 0.06080848098636, 0.17512893803346, 0.24149655476812, 0.10420485100663, 0.13854451980061, 0.09323183022296, -0.14331387704291, -0.14725356707655, 0.28339538658647, 0.0052893178191, 0.27357657657631, -0.26410475813474, 0.00264076859955, -0.21336843238125, -0.09474093432117, 0.15034432462713, -0.19727583114512, 0.12644254868983, -0.02504895406513, 0.24574133270112, 0.11964499765795, 0.13252035851372, 0.2081304090815, -0.2066156744731, -0.12881762613627, -0.24566966069327, -0.28335365095515, 0.24020214239396]
[0.17338922423024, -0.14818406682341, 0.11213608333578, 0.03098255832686, -0.26086013245976, 0.10552506296314, -0.20547427815162, -0.08045533490074, -0.18480585288832, 0.15136079497587, -0.2429935981713, 0.2691170646796, -0.0899377331558, -0.14322382064641, -0.16871933052056, -0.29190213670882, -0.15793535375303, 0.18084419335926, 0.10096921466558, 0.25085541283552, -0.25890164730035, -0.02165377809684, -0.26696683403878, 0.11278898182268, -0.25105816193645, 0.21362166934949, -0.30538539522507, -0.23040662959432, 0.09932662086863, -0.09862124677511, -0.13061760902842, 0.22008984191742]
[-0.2927299451946, -0.06067882908243, 0.21697183237834, 0.21222450612894, -0.21361339116031, -0.00766040943664, 0.1922599064942, 0.04924353504491, -0.18910920812764, -0.02487052830051, 0.22341039007228, -0.28435390469878, 0.16826889635078, 0.22494955335959, -0.02481123477806, -0.22835277786407, -0.23305742740346, -0.22038823509251, 0.22934768946163, -0.29072758141885, 0.18480825334778, 0.21154562878621, -0.03188510526473, 0.25673811753206, -0.19366328366898, 0.07646880785621, 0.08915816427796, -0.30334663919032, 0.01247378934752, 0.16424594056774, -0.22103174404864, -0.03112854106729]
[0.10162936906409, 0.0539415725717, -0.06201243341068, 0.09046954658323, -0.21027222280816, 0.10317222326499, 0.26069280768147, 0.27861307438845, 0.04606162960642, 0.03605025054914, -0.03294773970619, -0.23891726420674, -0.04738750065489, 0.23992209328698, 0.12053315269466, -0.30611673167133, -0.28427392334725, 0.16320029436807, 0.01660977888574, -0.29600104181203, 0.08402951768009, -0.28798443206148, -0.29560207763219, 0.29104819292387, -0.18632376639443, 0.26673195876073, 0.01170971042991, 0.22484930718928, -0.11503016874129, 0.03111145210454, 0.06701636982162, -0.24064545785376]
[0.00465097857111, -0.03641599317054, 0.28805872194609, 0.0769787394892, 0.21398198077127, 0.20050132585414, -0.21032095565941, 0.30230239133965, 0.07002584723401, 0.14917655130404, 0.18382587053339, -0.22851689433822, -0.25629676592283, -0.27971371694432, -0.15762756155709, -0.02676881861017, -0.2010978092773, -0.17021457627137, 0.10163615096052, 0.11661744781486, 0.12781398126634, -0.01071375635483, 0.15962505124088, -0.27275482075711, -0.16169987784003, 0.14067380440735, 0.15123746410123, -0.01056405781332, -0.01905141513003, -0.00344537533311, 0.15231631288497, -0.00065248649504]
[0.30214954775251, -0.11494403221941, 0.30204882509498, 0.05457878085396, -0.06646413026749, 0.27945729681584, -0.18690339278268, -0.29253553537572, 0.05003064799798, -0.01437124907211, 0.2622697392591, 0.02970644361201, 0.02792691600523, 0.19117079598549, -0.19801213848279, -0.29403916462219, -0.08843743822621, -0.17033349632922, -0.16029549019851, 0.25830588739078, -0.11597515409353, 0.24846539639999, -0.22288746438983, 0.06594737718032, 0.11987931086044, 0.17385427320333, 0.05806984510381, -0.23980203881673, -0.06948988685378, -0.21345074146097, -0.10140712335997, 0.2396734187259]
[0.02510635604602, 0.24443094556224, -0.27563170780751, 0.09206612376117, 0.27790047777553, -0.2000081839027, 0.05880892474248, 0.00970802641791, 0.14542272473274, -0.05246343297415, 0.22310462061107, -0.01415920971939, 0.25716040234512, 0.06319947499018, 0.2960566453169, 0.15640990503953, -0.12134424093853, 0.138099312296, 0.26504070628526, -0.23369456938221, 0.14593678942532, 0.17756193026179, 0.02016632349666, 0.07491399337117, 0.24667104548461, 0.11181540040898, 0.17956434006788, 0.01680769605929, -0.151452277208, 0.227472498178, -0.03062708598321, -0.23511570269957]
[0.06763225056675, -0.14552984046745, 0.12149908344613, 0.02207799153066, -0.15864082356457, 0.16866243463875, 0.07637677795443, 0.25609271292182, 0.12081843230545, -0.00454082284343, -0.2573923529503, -0.22473620916392, -0.04112329514721, -0.25895214463962, 0.12796840984292, 0.0634170256693, 0.0907999595348, 0.21807062917635, -0.26063897097405, 0.19973812729901, -0.1962501146132, 0.06288534194953, -0.08648548378553, 0.03112901083688, -0.05368823747775, 0.13938248674845, -0.16957497162532, -0.22578458685467, -0.23033565224887, -0.13773748095444, -0.06450261562661, -0.14724567448779]
[0.19125749606959, 0.30249374707435, -0.24631110282606, -0.02060359233007, 0.02543055863368, -0.19355560028641, 0.03657835904962, 0.09077006394259, -0.04531545911036, 0.04724910928961, -0.05604785303838, -0.03524549908445, 0.28191193450173, -0.05930832635569, -0.22119502474361, -0.06555704218608, -0.07591890227224, 0.20404363621227, 0.17518853922437, -0.08076941114177, -0.21463917817051, -0.25598389333995, 0.25584392246532, -0.08823227243046, 0.16214769672804, 0.08809988873587, 0.19954694720506, -0.23841199173074, -0.13920385022795, -0.12531711394517, -0.21253273533443, 0.35356221858072]
[-0.05237962175932, -0.29322783717952, 0.1402724302077, 0.22345612669356, -0.13321309666841, -0.19629861896177, -0.09410266332558, -0.10874464163167, -0.28285985745561, -0.25707297726969, 0.1240113597216, 0.18067074602046, 0.07782732262032, -0.19471234571735, 0.07657807883363, 0.21919059895898, 0.19899236877838, 0.24909628432563, 0.24675197422106, -0.13501977210487, -0.30493360713657, -0.02417794347062, 0.26254344264975, 0.16983268368215, 0.17241884422032, 0.02693499254401, -0.16797773520865, -0.26939811430173, -0.22055699202639, 0.24748871301178, 0.15026029415854, 0.18678078530731]
[0.29626451795171, -0.21959022303655, -0.09326786383154, 0.07289084939559, 0.08328095294961, 0.24491970417203, -0.2911050021036, 0.19122251228927, 0.26170639622077, -0.29981727287236, -0.20131462483279, -0.14089635693227, -0.26807715261871, -0.24119020050708, -0.01167486471171, -0.06685097999716, 0.07814740811114, 0.26118891753677, 0.20834007074848, 0.18501575463424, 0.13761029896131, -0.18240616424691, -0.16045718168964, -0.07487628988177, 0.0560837660538, -0.29371523147226, -0.28756283261657, 0.17504075391489, -0.23311051374085, 0.25744560224765, -0.04944269008437, -0.1792270051648]
[-0.22603008943469, -0.18244738920396, 0.07841405577369, -0.24510865335558, 0.05915513295352, -0.15226367460637, 0.10351869971738, 0.04504144470956, 0.08332993790828, -0.26137207490607, 0.10465587859435, -0.15807615956712, 0.24003422664149, -0.28415803055888, 0.21996829908984, 0.16274598879352, 0.27880402502269, -0.21719318005497, 0.03653174004417, 0.21505301021912, 0.1475239804164, -0.09927993323561, -0.08615378913586, 0.13843037190043, -0.0440110579297, 0.18053898035587, 0.04350543407619, 0.01189467610753, 0.22717156856384, -0.08452569215466, 0.22174870984107, -0.12010279509302]
[0.12658314411847, -0.11867696899577, 0.09362132295181, -0.13372956224099, -0.07294309295792, 0.05384488154141, -0.29909043887226, -0.14991337407894, -0.08247484646131, -0.29878162650266, -0.0465905084855, 0.15281320814826, 0.20625927193714, 0.28091724071806, 0.05683272575961, 0.21684683485089, -0.27453213521977, -0.06045755818349, -0.03437842540174, -0.01351981888106, -0.23073687059912, -0.05634126609961, 0.18861670338541, -0.10381248777791, -0.02745295305566, -0.045018918608, 0.12169263534114, 0.03412733367021, 0.24155482401717, -0.11261404662005, 0.02440782112848, -0.07216987030518]
[0.05090801121554, -0.25350320762541, 0.17671985122699, 0.14914931405062, 0.30546792466069, -0.18985296409427, 0.20470419480318, 0.0778357820277, 0.20391007120544, -0.2868077310065, -0.15358058391106, 0.26136992265998, 0.28083190126271, 0.06580599526434, 0.00660935759416, 0.16340338494881, 0.07407349913775, 0.14593056790005, 0.13530983899066, -0.22414511019566, 0.09387911852779, 0.21006626020772, 0.01034226424607, -0.17637988996838, 0.20155463717004, 0.09053235890041, 0.03169607103028, 0.04164135815258, -0.25013843871306, -0.16132924403368, 0.27328237169821, -0.26577944351046]
[0.25868040458287, -0.05358446629511, 0.18526868474475, -0.01400299276999, 0.2112835331821, -0.27278066465362, -0.15732281095187, 0.20302996367624, -0.27769883587193, 0.12420965110505, -0.02742816519077, -0.24301793995262, -0.21973592286427, 0.13458925272734, -0.0937959460662, 0.26838747944984, 0.15201961257538, 0.01819846586197, 0.14491485231744, 0.18533857064883, 0.05834548174869, -0.08745539449502, 0.09829466234621, 0.20756740293499, 0.294709858428, -0.02314426016483, -0.28124800971443, -0.00691062957444, 0.15555265219232, -0.28662967358952, 0.1843477104718, -0.19537728602232]
[-0.01999048190053, 0.21977178552598, -0.13748026120658, 0.11983583426759, 0.25703039162733, -0.23433414656445, -0.06982358528682, 0.06901207293435, -0.29841274338867, 0.09437516823851, -0.26732864830959, 0.08432862169748, 0.19194301879491, 0.14805991821466, -0.27736776019636, -0.20412706347448, -0.21818492149185, -0.24730708273369, -0.21682426762155, -0.03068974643094, 0.12578932993171, 0.07552501420301, 0.18449416843941, -0.28374809581197, -0.05676121415412, 0.16250781913504, 0.22538163803284, -0.02119885032048, 0.15066179165689, 0.24428319163748, -0.25811451657442, 0.11415275962773]
[0.24124254970156, -0.182759714609, 0.03172792518753, -0.11346772852604, -0.17275992863091, -0.20054179258104, -0.17922477109525, 0.04056161451468, 0.18022204925943, -0.08211664515964, 0.20628773598133, 0.19593042933251, -0.13023935211311, -0.00319695385823, 0.04313658779165, 0.07667550421072, -0.19792023436187, -0.25073860022651, -0.14371258231538, -0.05212898031443, -0.11487014269554, 0.2246043041999, 0.32638999384716, -0.00613459215726, -0.14721149879762, -0.29390385586722, 0.24993167132733, -0.0141626528092, 0.15762690761334, 0.2398958037107, -0.27707579560736, 0.29378795208044]
[0.1537407919006, 0.13507919111797, -0.00903168417371, -0.09574207021254, -0.14736714232983, 0.08711877028726, 0.05154772578709, 0.23145127993026, 0.22280792474863, 0.08332653809171, -0.20083559997496, 0.09956056867879, 0.08938026772116, 0.29920414371746, 0.21775388236637, 0.10041109594301, -0.26518852516335, -0.21305176959931, -0.00324308336315, -0.20916880704577, 0.17597033464672, -0.1251838762665, -0.26090164226318, -0.11414170280081, -0.05976358771508, -0.07689963215357, -0.17206830287009, -0.2346154078947, -0.00790405413567, -0.25985931444269, 0.16815647643571, -0.29996471152264]
[-0.06004843888563, -0.25996677207139, 0.21696802025767, -0.03832068534457, 0.29042628471479, -0.18502106855247, 0.09236248293798, 0.18776789702762, -0.20165149980749, 0.17394782051706, 0.01595064752263, -0.20694002433684, 0.13888122884841, -0.21735695118249, -0.01291647896395, 0.02861993347278, -0.0782788654497, 0.29791513309106, 0.29462054337717, 0.22390365742865, 0.18741399664928, 0.14997024423044, -0.11473324738279, -0.06159706333999, 0.17587063465397, 0.00151466893267, 0.25119800829442, 0.19898949972897, -0.07686299878505, -0.10030376503799, -0.26912278213436, -0.19921369011112]
[0.12108427818328, 0.04653378239643, -0.2306037627683, -0.21975655736736, 0.17511919249106, -0.00575200290097, -0.25006730891378, 0.27827580074804, 0.27437278073624, -0.30326579932768, -0.25293978238573, 0.21243113657181, 0.26669704724578, 0.22584027656031, -0.01848833023007, 0.19990021623768, -0.27827390052965, 0.22464507165816, 0.28815652017874, 0.27886581277098, -0.2214458030766, -0.05974883369342, -0.16275650372125, 0.21089777860394, -0.18531735909556, 0.19132172042548, -0.12252433312479, -0.18502941032051, 0.00498726809917, -0.11093795309815, -0.02351326833702, -0.14605345635953]
[-0.07137076225541, 0.2539956739356, -0.21272929891439, 0.13993420346808, -0.3593905638253, 0.2498254117014, 0.20827056705779, 0.03153887570672, -0.14932408103945, -0.14518429686675, -0.16811137978193, 0.11455511906116, -0.0498208039033, -0.12375249118111, 0.21137979894652, 0.14462298792823, 0.06605431606907, -0.21047886553876, 0.17318614418965, -0.10305181962562, -0.02343444033171, -0.10804704720463, 0.12674417230963, -0.30555887811106, 0.01469646485602, -0.05758968484678, 0.19647193768391, 0.15639704215719, -0.05510548047938, -0.13823125696111, 0.01425052332528, -0.18746776193306]
[-0.30145834121766, -0.2631261374026, -0.23722564063168, 0.18539762186493, 0.01612007935002, -0.17650432126059, -0.25324286802366, 0.17607845174805, -0.00833498404347, -0.18868759562968, 0.0511428679521, 0.10772975598187, -0.00784652470876, 0.22896502213484, 0.06204757410302, -0.06263150705135, 0.17872854385214, 0.28271087761056, -0.09040134151652, 0.09428214957848, 0.23858803266151, -0.18469365005911, -0.21844629610026, 0.07451558515838, 0.24366450119815, -0.05876688151974, -0.10233504800026, -0.24235233463692, -0.07646623078674, -0.02813567448732, -0.29160954748376, -0.0121736339406]
[-0.17012489040217, 0.19263834889488, -0.27434171670507, 0.25263176074002, -0.0643703575299, 0.2920442470882, -0.13660844881754, -0.05762252185192, 0.2808179842009, 0.1827400621107, 0.09115785635512, 0.1786782584031, -0.09708022208568, 0.2046564725437, -0.24732370281001, 0.25194094564948, -0.27358203240382, 0.22388243384694, 0.29107500247939, -0.29544419658941, 0.21678410603696, -0.04696526247318, 0.2936473344964, 0.24331352244432, -0.11517511383766, -0.29591979625454, -0.0705454325577, 0.0743882976364, -0.12598968543058, 0.02174758118923, -0.25882623185683, -0.1027548913494]
[-0.15845793173391, -0.01363397548135, -0.1190199911454, -0.02224885369156, 0.12584638102554, -0.04152891507823, 0.04956620121888, -0.10966380960401, -0.204166657241, 0.01932381493163, -0.20099750453125, 0.03214699774725, 0.1160652949494, -0.13155694039591, -0.14815136326783, -0.08704190935746, -0.00160167739773, 0.09136655993911, -0.08078300790971, 0.13889796257533, -0.13245301256318, 0.13080088858978, 0.01598563079651, 0.08621101416062, 0.0992971836355, -0.0142863041347, -0.04294216959669, -0.25856798679988, -0.11387431890429, 0.13373485948955, -0.17129021277416, -0.02003277681572]
[0.13168494432841, 0.24465212679794, 0.20766624197659, 0.19693125190064, -0.09866124137998, 0.02478824818705, -0.10532087531408, 0.16125578233408, 0.10237176197282, 0.1130080807723, 0.09218375665582, 0.25180112781169, 0.01076185555863, -0.15353660964999, -0.14983365459043, 0.14704991708053, -0.25483300601184, -0.10300340551876, 0.11578034970177, 0.03644313226012, -0.04711041746355, 0.21649783510946, 0.05826975705265, 0.23344138495122, -0.13880679050387, 0.28768231019882, 0.23794473553114, 0.16202300723019, 0.10968241336659, 0.00702057058042, -0.24205595455213, 0.18932534996603]

[-0.35210550613711, 0.0285228154105, 0.31317416522532, -0.05840999364167, -0.03399402967236]
[0.04824752675931, 0.22384438937389, -0.15394835252115, -0.40031552994115, -0.03393492339099]
[-0.12751917345556, 0.37633186361791, -0.27175964884276, -0.08009858969346, 0.20710794868362]
[0.41422249210311, -0.0589791258174, -0.38363494495454, 0.15273926215955, 0.34165077968278]
[0.36097700170138, 0.05268607790819, -0.19742271703677, -0.13544563409086, 0.11422774590691]
[0.18572044905911, -0.11700390364768, 0.33112609838573, 0.16071697698751, 0.0990267884409]
[-0.26177035364809, -0.230726915421, 0.3005511438917, 0.11073122189513, -0.02830803584951]
[-0.05708642141818, -0.16683432615321, -0.2021095996131, 0.28187867687648, 0.09781360877555]
[-0.16925368508283, 0.31453500594537, -0.27628260012938, 0.03615102872931, -0.25503128151079]
[0.28807330901351, -0.17998741004861, -0.1125758524971, -0.39166261613469, 0.27978508972713]
[-0.00775507093092, 0.28573816063306, -0.37801911841419, 0.12493728003591, -0.30306080625945]
[0.01572365138703, -0.23735338947446, 0.1876376247242, 0.0286920789156, -0.04428680349928]
[0.20087537819775, 0.00521572450382, -0.11064151046332, 0.28268914458861, 0.12794691759469]
[0.09152846225819, -0.39969896497185, -0.1040222540893, 0.32301424214023, 0.15846337197764]
[-0.1498342668886, -0.03092821794502, 0.38983304380061, 0.01315511051451, -0.1090270878324]
[-0.32176410575305, 0.30491313263606, 0.37106334836628, 0.2307669099291, 0.20813453146645]
[0.02442149533671, -0.06696465928658, 0.37050163548003, -0.34669220424355, -0.362810820716]
[0.38125127027081, -0.2725047821954, 0.21894803010139, -0.24465200955607, -0.04446427765726]
[0.18822721141315, 0.11979677399756, -0.30282012500428, 0.09337761178789, 0.24394225465271]
[-0.08655884706676, 0.02881545129745, 0.04229591695989, -0.17457379602091, -0.40761743758252]
[0.19878515482421, -0.26363342021526, -0.10190427972156, 0.20677698734989, -0.19429428349489]
[-0.35754919353583, 0.23338216323546, 0.04753762739483, -0.2971624592443, -0.10998709062968]
[0.02795241842046, -0.12864499276337, -0.36809712693414, -0.38079353402372, -0.05996198384317]
[-0.31153804511539, -0.10936071429812, -0.17587353019783, 0.18273329243744, 0.18535191288091]
[-0.38644455544726, 0.21190670558673, -0.22421482991888, -0.314074909521, -0.28080715981165]
[0.10369416355674, -0.22241114286275, -0.16178366181939, -0.31082518249662, -0.29158107141868]
[0.11804196569969, 0.13255809264288, 0.25286701747229, -0.35843079079493, -0.14377526532032]
[-0.37675396038784, 0.39991709811241, -0.00422354510346, 0.14712434133951, 0.17128976190869]
[0.19073050481291, -0.21147643592753, -0.0531922029944, 0.29024789385303, 0.22127869463731]
[-0.37156214983996, -0.34357238372853, 0.23418852192297, 0.10931987361043, -0.34329909242403]
[-0.08264975123982, -0.00519489425023, -0.05413197934437, -0.15428159893185, 0.36018172342372]
[0.26236810539678, 0.25523282521308, 0.38644990197605, 0.09931855258075, 0.28318474475303]


Best Model in generation 2, with a score of 0.690000 
[0.22185951503994, -0.0079843443966, -0.08440091475105, 0.18334852232577, -0.21418772239506, 0.23153390017286, -0.0851333563485, 0.11821312908954, 0.24215390631434, 0.22797951031782, -0.16387787206445, -0.04332563460766, -0.24958670454225, -0.03557192854141, 0.22905778966365, -0.04281502425097, -0.18457758221928, -0.27416277314103, -0.07925380938333, -0.29471342490311, -0.14335629934645, 0.22966406906219, -0.00136705669487, -0.09331691273643, 0.28150490349141, -0.21963459765418, -0.20183748801329, 0.21029987335453, -0.07336732100741, -0.01109880000573, 0.088454896898, -0.14170930227976]
[0.17183840366424, -0.06084404915438, -0.2159397775809, 0.26033182183063, 0.17169887782482, 0.20205924335437, -0.20346610646732, 0.07418155674905, -0.01198184050374, -0.00234250378859, -0.14431990477781, 0.19322856625813, -0.23281773923556, 0.2622723276224, 0.15670753404425, -0.19367173031317, -0.19450151557422, -0.233419942924, -0.28128727308465, -0.26707932454771, 0.08227355025021, 0.25712849939427, 0.07396086271921, -0.1092594193717, -0.22064856049079, -0.09656097712583, 0.04935702874875, 0.25980387630773, 0.22479608945579, 0.04885886658887, 0.16753991046656, 0.02188876163649]
[0.19461418620191, -0.1513181661039, -0.19031671616908, -0.10525927607245, -0.23867020681764, -0.024108176481, -0.14678622356707, 0.14061638231639, 0.01080764729923, -0.26942395557592, -0.26765974119913, -0.18562494558641, 0.23802550491825, 0.22062974864049, 0.14496520466571, -0.23661426064063, -0.00702474857717, 0.10012734197103, 0.12265428207502, -0.15303826490922, 0.09956620537163, 0.06168805909199, 0.11657333989141, -0.21781088716868, 0.15644090458366, -0.01449470905528, 0.12595071128385, -0.2925396487518, 0.2330669856364, 0.08035239548956, -0.24998828742553, 0.26744580547707]
[0.27994509635845, -0.12947981425223, -0.19060385813507, 0.06762476704206, -0.04783900236894, 0.20100483352202, 0.29509464662177, 0.29235320107228, 0.28298139314472, 0.28583702750796, 0.2435836614607, 0.11773923170767, -0.20844794964945, 0.16578205818873, -0.02654768349388, -0.12951045733324, -0.26558870705192, -0.05080706662474, 0.18461608631992, 0.00249583296852, -0.03354012065371, 0.1861223654125, -0.23899895642371, -0.24327514435866, 0.16496070608503, 0.29468553494672, 0.04130836876709, 0.0897847242508, -0.19387310095884, 0.20229850140277, -0.23357321109014, 0.11438642398382]
[-0.26957771830625, 0.034246897245, -0.12069168813067, 0.06310005287057, 0.12491573974198, -0.19765904463577, 0.10308041022148, -0.09741007954017, 0.24407364456651, 0.11630816038583, -0.22222939313072, 0.1858805708479, -0.12935255798495, 0.11328062331253, -0.18964469398866, 0.19072738572824, -0.02461025500585, -0.2070228528017, 0.07534253453073, -0.1866652167594, -0.20540807551503, -0.2509849209491, 0.11698610834805, -0.13791775373431, 0.07053679643381, -0.0921457289292, 0.26390133735868, -0.00785662987615, 0.27670138523497, -0.26937471542812, 0.07739491472558, 0.14400886341303]
[0.04692133858613, -0.10282879063389, -0.21274564404479, 0.07244711758676, 0.11291634072915, 0.13444702404018, 0.19785586363037, -0.01904691190877, -0.25840741152609, -0.16370145596433, 0.09772098481625, -0.06306024680598, 0.06622684462893, -0.10262491724741, -0.07734657691391, 0.27594706289141, -0.19506482029542, -0.21353222322702, 0.26995149745578, 0.22216857532219, 0.21766077976839, 0.1964511158923, -0.16429869933886, 0.10438780371802, -0.26679309969893, 0.1937912324713, -0.15637580296003, -0.08773199825239, -0.03655355578749, 0.01715060627068, -0.21912210412864, -0.21476178435337]
[0.25291964835047, 0.0983456260984, 0.2429861326122, -0.17251212389201, -0.02154442449482, -0.19520983280155, -0.2127477559778, -0.19750332130558, 0.09057992799493, 0.04740633558773, 0.19757888024126, 0.28994676217137, -0.28174412120633, -0.07425162867112, 0.10402232084466, 0.19521046933728, -0.03750544175427, 0.02527238295395, -0.25634977153828, 0.05475232126542, -0.06195884857676, -0.28181316194095, -0.06031517985018, -0.17991775296546, -0.12249760392011, 0.24297023032307, 0.21000337567967, 0.12503980063381, -0.00228910407232, 0.14151572638733, -0.06397668268957, -0.03069037667341]
[-0.25145359312551, 0.04761285942599, -0.20319862453983, -0.23483457224987, 0.20980079881382, -0.00674575128414, -0.10914968756451, -0.19382198051492, 0.22056314032208, -0.17349231259929, 0.16346581608195, 0.02565093393262, 0.02683365167437, -0.11732364201391, 0.11412184118654, -0.26752085092932, 0.18902238989797, 0.18582528926609, 0.24727233254144, 0.16276049386795, -0.24319076917023, -0.26256432126749, 0.27433826247141, 0.09325723462964, 0.01624611402608, -0.2117756277982, -0.15331488219429, 0.13558506705953, -0.22953621137071, 0.17434576360545, -0.16365833191115, -0.19126607662439]
[-0.09968987589692, -0.06196058708566, -0.05701421381637, 0.13048580661387, 0.00742647630546, -0.06493036570348, -0.10447432006872, 0.1950714874995, -0.23447764303093, 0.25820802766655, -0.03603662085441, 0.24731446320324, 0.26499850731488, 0.26318600311282, -0.0321621653319, 0.24378100021934, 0.18317854215548, 0.04665982852494, 0.25182170411245, -0.11809112855828, -0.27210625598723, 0.24716553453315, -0.16023929643362, 0.19651961683682, 0.06461440305729, -0.28373150714493, 0.22874601801149, -0.21094610270178, -0.28374033949605, -0.2190025573164, -0.13414703071011, -0.01075333926968]
[-0.03428606950276, 0.1239125479638, -0.23903770867849, -0.27786078769375, -0.23398036049624, 0.23708876796361, 0.10348454133117, 0.13143624307415, -0.26679276603845, -0.04982237506572, -0.1984066425304, 0.12269760698423, 0.17225371431273, -0.05787984256757, -0.07187366373002, 0.15701270486696, 0.14559749230235, -0.29731878477792, 0.00733420332943, -0.13539271390666, 0.14798919605245, 0.20794102382939, 0.2155913575575, -0.26266395349741, 0.23433517529241, -0.07370640153294, 0.06617205697088, -0.11234762614736, -0.120125968255, -0.23787651739112, -0.09531908966554, -0.08117121483052]
[0.00862605366276, -0.18843182748201, -0.01561514072321, -0.19540763240101, -0.18655861062461, -0.26470591085296, -0.17114878008516, 0.1061235294569, 0.28948765272842, -0.05059278602284, 0.1623327678175, 0.0530368229106, -0.24846387382411, 0.25940598240591, -0.21992906301355, 0.25811552311886, -0.26170709179235, 0.17957360074269, 0.15912004536584, 0.17649200800155, 0.14030161335028, -0.12546981246702, 0.01817549754164, 0.17712958627694, 0.04562730021635, -0.11134278595621, 0.19965574723752, 0.1608479705413, 0.17464422888451, -0.18735667281199, -0.14068449630652, -0.26048532431341]
[0.22853657678603, -0.0810800638285, -0.16595624893551, -0.16468210503405, 0.02157433284528, 0.16830672456299, -0.22070035764167, -0.2574565124998, -0.12100875991969, -0.11113207446733, 0.07703969537193, 0.03652050357784, -0.02175070795566, 0.12512508904182, -0.0835658678859, 0.00379606969741, -0.27300616132681, -0.21180520997636, -0.29153075889706, 0.02071381511837, -0.02390145016964, -0.07210622022953, -0.01723390249518, -0.13817188997907, -0.02752185525681, 0.13046921169302, -0.10076914705129, -0.03380480088103, 0.10407099846959, -0.01988707160569, 0.13461529945724, 0.11627120547504]
[-0.28308777225042, -0.21009471766126, -0.00582896791466, -0.22032917986826, 0.2600737763348, -0.01162856104656, 0.05009148838319, 0.08574621650461, -0.0715525010262, 0.12349620391897, 0.05446717634458, -0.06619359181737, -0.11846861613362, -0.27702380760246, 0.06434946620503, 0.02072927083065, -0.23960927865968, -0.16627365397383, 0.13086458484055, 0.26465419056298, -0.22319391232658, -0.27998528161909, -0.04010735626526, -0.22873828272164, 0.22567476226045, -0.15187369780108, -0.19599572028508, -0.0306669995036, -0.13824787179195, 0.03232397944388, 0.20643504537407, -0.19685523835958]
[-0.1494050410686, 0.27288425347632, 0.23934315884669, 0.00554018190596, -0.28041064118823, 0.0981004165397, -0.26831607110802, -0.02585064120984, -0.1173185312013, 0.28306386779953, 0.17696605007201, -0.24134129825154, 0.22940413245672, -0.05052804501612, -0.12130105395978, 0.23092605481125, 0.1226864754224, 0.04605954906969, -0.08317280735716, 0.23666523821586, 0.09329292261084, -0.06297164377541, 0.0747306031134, -0.11786304126387, 0.03197184930406, -0.23633277288964, -0.29330049649714, 0.10818345017558, 0.22028065639434, 0.15825006618262, -0.02873786275897, -0.19937067972029]
[-0.00041615207234, 0.10058511634367, -0.28601935962699, -0.21672019887974, -0.04592568581434, 0.04628054760656, -0.14292692826525, -0.20165987647967, 0.11845426383731, 0.28485792303382, -0.24459547359254, 0.10440061008519, -0.24321027153186, -0.13710095065415, 0.15543923780872, -0.22951464919755, 0.23206620842775, 0.02908214060785, -0.11006127593536, 0.29432382002298, 0.03901070626674, 0.04096446305607, -0.20282177615515, -0.09915737032024, -0.07226159942219, 0.09095154395417, -0.09088867439616, -0.08043278587566, 0.03075874865107, 0.26931175567514, 0.15816417667951, -0.14432196349769]
[0.24950402169551, -0.299792684622, -0.08759645096036, -0.148282108795, -0.22520148197874, 0.08240416645869, 0.27579791077552, 0.01097831518265, 0.19460894548672, -0.05794217827, -0.16632507446536, 0.27500310216719, 0.288167975409, -0.23419340846624, 0.04385640035924, -0.28928392734171, 0.16094798897337, 0.1861937562497, 0.28321861049211, 0.13638342744521, 0.18754606891459, 0.02792714216112, -0.16145632017001, -0.27375771748018, -0.2668498145949, -0.02621299675117, -0.1348805409872, 0.17909766491523, 0.12682846095992, -0.2670402017609, 0.07085672779175, 0.2491905440861]
[0.29455281780905, -0.27502307545666, 0.27398047799886, 0.15315640862259, 0.01154169904267, 0.06743368299915, -0.18399553690276, -0.04485302051147, 0.25514507252558, 0.20374047555867, 0.16302538368957, -0.24797975765402, -0.25095133334242, -0.01882975294076, -0.14317455802566, 0.04714297846134, -0.31809425284523, 0.06723232285061, -0.25935198578246, -0.10865654193441, -0.05997197449942, -0.28873647208828, 0.03364765807138, 0.03651278145877, 0.10236615116783, -0.01146302820198, 0.26111481270214, 0.16345236747978, -0.05859381237633, -0.06228553893467, 0.25670745092986, 0.01138560577075]
[0.13326132900307, -0.24597929466345, 0.04700631759411, 0.02059741612035, 0.0574371703165, -0.23687886692871, -0.24147472565518, 0.02571413952414, -0.06625027492998, 0.07489630149612, 0.11297941005783, -0.28377144871437, 0.09821960346045, 0.10388073738682, 0.03052910921738, -0.05932218786612, 0.18736251338312, -0.27961384000748, 0.26863112446372, -0.03661100410305, 0.01709373723251, 0.17750253041682, 0.06193556043441, -0.18577518042187, 0.22293127888299, 0.1977183457655, 0.10683640194544, -0.16355129958148, 0.00682571849273, 0.15627017989927, 0.04446686351304, -0.2230675458195]
[0.22052611951169, -0.29201059142098, -0.25475271490101, -0.04384083958875, 0.19945489777965, -0.01715832088911, 0.05557497944013, -0.03273116081227, -0.0857800301073, -0.25330742749136, -0.23923196937938, -0.24598890564337, -0.08588309115393, 0.22057245623612, 0.00482157256604, -0.00115140310803, 0.0860852448204, 0.15638181248012, -0.11819463682806, -0.23278680780144, -0.07510834106815, -0.15848237271172, 0.27021029326861, -0.27489447210396, 0.18440500406799, -0.26928325496682, 0.00438810559604, 0.01834805613944, -0.26759144944693, -0.0249196608855, -0.10747488112408, -0.1803730050659]
[-0.05839811601601, -0.0051333162335, -0.24946098644615, -0.29427080791193, -0.05056316880277, -0.20445128614701, 0.11503477246483, -0.17240189004887, 0.05030070444654, -0.27493411234153, -0.17719574730122, -0.0478539045059, 0.0933475240007, 0.27730174737114, -0.06056187451496, 0.11212599226327, -0.04159704878869, -0.13475443768835, -0.27477043639686, 0.0893747886681, 0.16556949026535, 0.13808431171607, -0.14272409481045, -0.25359937399933, -0.27077952428997, -0.20054347518997, -0.15404334125444, -0.27055110599739, -0.13107456702257, -0.20711240482161, -0.23106613304065, -0.09595738761141]
[-0.25119469828384, -0.02036846481156, 0.16075713425682, 0.27070428837863, 0.25245830517964, 0.00238911028961, -0.18859471636879, -0.26535828874235, -0.15672048235114, -0.204483647674, 0.07784297482786, -0.01276208842925, 0.21027857287012, 0.22861176347936, -0.19216089616285, -0.2370589023891, -0.19133033580474, -0.25403634581449, 0.05955901910262, 0.07225645975195, 0.2113410581836, 0.21291279846395, 0.13987043758525, -0.0503873252513, 0.01636453927668, 0.23752086048673, -0.14012401238652, -0.06569727476149, -0.01701700454335, -0.28148055922381, -0.22331933504686, -0.01286182619368]
