Best Model in generation 0, with a score of 0.480000 
[-0.21428406172785, 0.25534060851843, -0.24747992595195, -0.16122917876491, -0.15266725981761, -0.28009920320883, 0.10009779444435, 0.29237870009891, -0.17352865063601, -0.05027862884597, -0.07073037228332, -0.17318562078445, -0.21600668941976, 0.22845294509651, -0.16395193476487, 0.00368115788087, -0.27979875846285, -0.20967130547034, -0.26944881764229, -0.1752692862726, -0.19455376471899, -0.26667857528876, -0.07030908206504, 0.07378182066702, -0.17669748672469, 0.0861229480755, 0.12736522963143, 0.16037108544539, 0.26522484925636, -0.00962606768369, -0.2236504672422, -0.28438861071896]
[-0.26766545719068, -0.03411409824959, -0.17255847222371, -0.1283322567439, 0.13413909377492, 0.22976120344177, 0.07172500500597, -0.27797338460559, 0.13463045339065, -0.03518637335551, -0.120118656975, -0.27047313448161, -0.21858708939993, -0.08499867791001, 0.00607931482574, -0.2395193004699, -0.04574248609155, 0.19651704346398, 0.00178861971112, 0.20670933781793, 0.05850191318905, 0.13451246136518, 0.10040200519527, 0.23561843105502, 0.28968219681423, -0.18366454223292, -0.10478826653792, 0.15180139187813, -0.25522158464853, 0.15089374097216, -0.28924889127904, 0.15925638882981]
[0.08825404438151, 0.22788582455322, -0.19522895686671, -0.05813908005742, 0.04135665110709, 0.08836076566398, -0.07223670447577, -0.07211684661344, 0.02868320013654, 0.0882614142733, -0.19516023295187, -0.15022959527474, 0.25969014705312, 0.10176242616916, 0.00567698546648, 0.06233506920493, -0.16615657335878, -0.26805860918088, -0.01381041099901, -0.23215789009287, -0.21182296167825, -0.17780045214834, 0.17110612807341, -0.11040445911049, 0.0949232734474, 0.14884252591485, 0.15616088352829, -0.00842066973539, 0.01293804530359, -0.21580522512532, -0.12889343963829, 0.22465712596771]
[-0.02834467283389, -0.07706572112286, 0.19144830875322, 0.15518828838514, -0.28021815636919, -0.04048007950017, -0.06553700140333, 0.03652927751413, 0.2097435884001, -0.06131499743297, 0.14438858238931, -0.03361547924758, 0.07269711697373, -0.22345302260563, 0.23082453371354, -0.02382077817832, 0.13786307154537, 0.0046691413312, -0.27742850118423, -0.18824893712125, -0.18957802097717, -0.14322038178413, 0.00665043520071, 0.1422497317288, 0.28014052798583, 0.04312535850416, 0.06606472270473, 0.12026608150867, -0.17886835898993, -0.12050864858058, -0.16717928549916, -0.25200366109227]
[-0.26081012680857, -0.14747731519046, -0.10347217095485, -0.25180799075921, 0.10502392511249, -0.09362673182328, -0.27027192463641, 0.24360812856781, -0.28255833158917, 0.06334909033648, -0.11784692306233, 0.12416040101637, 0.02524429089123, 0.13061521269703, 0.24013363969478, 0.03890082868966, -0.19556008336348, -0.06029299073899, -0.22091799935576, 0.09544806183566, -0.21657790729802, -0.01327594046557, -0.17849481260015, 0.24126549487805, -0.29109781261593, 0.05184924886708, 0.2717991964148, -0.0227962695838, 0.29030743705038, -0.28740172921248, 0.16009255857341, -0.20083527780105]
[-0.26328708208185, 0.19826666889667, -0.18615616265267, -0.03409744193048, -0.22391602828674, 0.10493764468315, -0.00476080474548, -0.08930619742869, 0.19136959994508, 0.15052151522287, 0.20942125580357, -0.06212173561602, 0.25486555409474, 0.25436564809205, -0.1664967497548, 0.13831511965339, 0.23975355456106, -0.26739794124778, -0.24124947255454, 0.04738864840676, 0.21978953073626, 0.27308301589878, 0.01217036377312, 0.2090294552932, 0.25738381378942, -0.27102619666552, 0.2230444423552, 0.14181576092101, -0.20222209573151, 0.11448854144451, 0.22953122414339, 0.0787283261925]
[-0.05214789574202, -0.20762358462533, 0.04479851575848, 0.16355043132038, 0.22932507839667, -0.13334941902935, -0.04041335323051, -0.25801150067273, -0.09401851649837, 0.11280755802773, 0.01835379506151, -0.11083474990137, -0.2573778980933, -0.18032386807079, 0.01518373605652, -0.05788720539684, 0.23891133497704, -0.04401637574758, -0.18315555212649, -0.14372955820586, -0.16856436129661, 0.18783678740653, 0.07722740508793, -0.28138044466182, 0.05224089477141, 0.14904921614505, -0.08556170276825, 0.12897446803354, 0.13297234061553, 0.2632628114786, -0.24526297756598, -0.14647515407286]
[0.11081156205768, -0.20151972588981, -0.25541833432941, 0.27055243957936, 0.01704193184222, -0.29211642495382, 0.12586861434155, -0.1155721116952, -0.08905008158225, -0.28180120411794, -0.01258752171535, -0.14056152702072, -0.14947463956494, 0.24094075711003, -0.11898210406871, 0.19968586853863, 0.11033701985134, 0.00486899388589, 0.07991478265809, 0.19145406174334, 0.01457783712102, -0.00687103364027, 0.23643769105225, -0.16656569805899, -0.27527851373815, 0.22836889922289, -0.1870306118726, 0.25432560100923, 0.10762124800858, -0.01133686148571, -0.19264142986003, -0.28467911049454]
[-0.12796398600862, 0.10782738004339, -0.21261099645094, 0.27701051075983, -0.08477879770506, 0.24076793630393, 0.20943181427431, 0.06334588953432, 0.1762514531381, 0.16882054063708, -0.00653043299396, 0.02963906035899, -0.04499619826156, 0.15084319301253, 0.23131406784199, -0.29455605111555, -0.03605575769814, -0.2446903574759, -0.07448729185412, -0.0029607567154, 0.06496445222567, 0.06974000829508, -0.15852511984596, -0.26761698254067, 0.16438872285066, -0.17689114706817, -0.20083665006763, -0.04442850094428, 0.28434629949938, 0.2028069273888, 0.18491558757102, -0.18915615097784]
[-0.05187374145137, 0.0842377741722, 0.11320840909888, 0.10803962820361, 0.05729527479291, -0.04089217843496, 0.09356907679125, 0.0281075139266, -0.03936783494176, -0.01803266482873, -0.14574020551722, 0.05142181343648, 0.07023695805754, -0.21604665689408, -0.07642356990214, 0.26604705729892, -0.28710166702841, 0.23129823245456, -0.19981281299886, 0.1988815475598, 0.27100767132349, 0.13501251857958, 0.2796970994086, -0.00512114025619, -0.24433413651575, -0.25913727473833, -0.01690877531284, -0.21101585420339, -0.21357649580384, -0.21598964668446, 0.05753697739538, 0.08169013225413]
[-0.19247637087869, -0.23665023962892, 0.02802742111951, 0.25987447952044, 0.21051842047647, 0.19865811225877, -0.08076746948835, -0.17651132417996, -0.00281401431618, 0.0828333034372, -0.05959196839182, 0.04546176702478, -0.05041403919346, 0.19051647067047, 0.25615939439389, -0.26201898619973, -0.16394127665367, 0.17669144859355, 0.25363418664886, 0.14364711981451, -0.24660388691027, 0.18556446319909, 0.16910297909012, -0.2619605268404, -0.18771721708211, -0.21502292671912, -0.09083825663786, 0.02990414870666, 0.10624146082161, 0.08827834863371, -0.14842133322131, 0.15497667633581]
[-0.00852535516455, 0.25086531078985, -0.21098274176362, 0.18149297216376, -0.03069059947147, 0.10932423275083, 0.18960035516017, 0.01770463544335, 0.29149338220567, -0.06525481838845, 0.08222174730095, 0.01603247864941, -0.21167158360178, 0.26615715105489, 0.215405974136, -0.09489688868382, -0.02205146606719, 0.27519585890222, -0.128737382999, 0.01853401781181, 0.05589302857143, -0.17309533172979, 0.1581203628515, -0.06825114098547, -0.05129597514698, 0.05681067799903, -0.0956334772939, 0.28285787631428, 0.07769365098763, 0.25925915278268, -0.2703288814468, -0.0435890196532]
[-0.07177449261936, -0.24799728522033, 0.06654285847821, -0.18274493947796, -0.26219081351777, -0.04975571020737, -0.14538161220659, -0.06136049666798, -0.11327136912033, 0.06689722305105, 0.21867904052919, 0.15730266587434, 0.02342906880212, 0.2302082067884, -0.27120622961838, -0.09283257997875, -0.17754299350281, 0.17137827611086, 0.1635970354734, 0.28655932236603, -0.21893328938931, -0.21887091159691, -0.0334538903535, 0.10539144441957, 0.0181316190696, -0.16741952018743, -0.07484655081643, -0.12369058274372, -0.22035465831325, -0.01651132018904, 0.14431937836731, 0.12347077789298]
[0.10807341218212, 0.02982885429429, -0.19990392176346, -0.18472842881307, 0.12219813297154, 0.10629214540545, 0.22356527305571, 0.01274111753878, -0.08678297493267, -0.06883996577205, -0.23162176578294, -0.15515741266105, -0.19378312494068, -0.17234610893192, -0.26991822036845, -0.17197446585121, 0.22141744598086, -0.2192077372203, 0.02588051302704, 0.14100177379508, -0.01388482115038, -0.11631806256475, 0.23202195428081, -0.0987242421777, 0.22569119314899, 0.11721234639243, -0.15390810538791, -0.05553470868131, 0.01754191941192, 0.19159487980564, 0.12223143118115, -0.08973526707384]
[-0.0908504866352, 0.14317162464408, 0.17606869962917, -0.1431509071657, 0.15024319039553, -0.02899658391886, 0.0563727020318, -0.18171287228625, 0.28472530198229, -0.16187607366114, -0.02102503660376, 0.16232377202447, -0.05418050586414, 0.28261571881306, 0.27688026907005, -0.29118611834799, -0.21834556822987, 0.1606322887009, 0.15532935144243, 0.12082158507302, -0.17613645565123, 0.04847955487852, 0.20677744326491, 0.14854636410985, 0.21148150108055, 0.27466190952466, -0.03930910612023, 0.06329580721902, -0.10752444481983, -0.2215182943859, 0.2394618291023, 0.0693598846422]
[-0.06195091916229, 0.04186043455948, 0.19204393093774, -0.01068545590807, -0.07168522760963, 0.00970828725657, 0.01220836849121, -0.11688515607095, 0.08841587861307, -0.09427984354025, -0.20651940317735, 0.14446025687247, 0.06585968235061, -0.14252159510576, 0.24753026764791, -0.21734349805308, 0.20916561593502, 0.22221572076097, 0.12254840579997, -0.18693557235174, -0.02295278434184, 0.18062425485588, 0.19230525000731, 0.27206177033923, 0.09104931881039, 0.12643656456232, 0.26297902682133, 0.13940606392875, 0.10026681849378, 0.20243710991417, 0.09759190708456, -0.13399808515704]
[0.07035852963902, -0.11911665944126, 0.11734634456599, 0.19381252488755, -0.2209301734241, -0.21005803641654, 0.12935912987826, -0.22069508957737, -0.11192201464899, 0.13269243415675, -0.04889217403368, -0.22247676197208, 0.28690812377678, 0.15086095642968, -0.21814454283731, -0.2677492356164, 0.29477268466339, 0.20969608354486, -0.0991842627661, -0.25600534131562, -0.02353511129798, -0.19748726645255, 0.24105197148051, -0.17097065088615, 0.17953367174056, 0.05545639188283, -0.07372285511223, -0.05407014149721, -0.10066166592633, -0.24484837918896, -0.16896672600822, 0.17254042606374]
[0.24040122044198, 0.18178522640028, -0.12601771235996, 0.12276494758344, -0.25623927769207, -0.23458755506296, -0.183619966011, -0.19249885670016, -0.08095745569936, 0.14613304252417, -0.02779052724686, -0.21624581754506, -0.21039119735138, 0.04059020210804, -0.22115290324941, 0.07331769565609, -0.19107711671811, -0.27298219805684, 0.10619799445842, 0.24465334333722, 0.27861675732453, 0.11198987947313, 0.18831559191517, 0.17027425288585, 0.07581365577864, 0.250268107991, 0.04395828912448, -0.20800563411632, -0.28567093499227, -0.16598168678791, 0.22746846961202, 0.27358721502266]
[-0.14722409306267, -0.02065884121882, -0.02482222663296, 0.05270094395069, 0.16585695543656, -0.19069721774851, 0.084723210301, 0.1334361586569, 0.1861020993183, -0.03392009445179, 0.02714301311077, 0.02128497580374, -0.16353436073597, 0.05461854996421, 0.14229942417526, 0.08091941620273, -0.24316365823255, -0.09707070969619, 0.22256125948367, 0.03155412750393, -0.19444047440142, -0.11517113610553, 0.1022714904281, -0.23620099414575, -0.03463276183174, 0.23906431571282, 0.22115225735006, 0.1865545949094, -0.28550314861604, -0.18833957982578, -0.00891223103782, -0.22465244525527]
[0.03912181926433, -0.03930501000984, -0.13586652285194, -0.21577567529236, -0.23886623752105, -0.0024682380435, -0.27575208399115, 0.12997988029615, 0.0419561493592, 0.23440618878907, 0.0121432321853, -0.06273342619847, -0.03966674163671, 0.09310246674249, -0.23431843725541, 0.17260707302758, -0.13784495381891, 0.17289698781163, -0.19951690339896, -0.07704889015604, 0.23435974563542, -0.2762575879787, 0.25549811704638, -0.20571263668757, -0.0890650330952, -0.13136396519148, 0.16559533091475, 0.17887236715715, 0.02575051563342, 0.16358965324318, -0.05067673381877, -0.27600317100996]
[0.14671109656623, 0.23667414940227, 0.09841592063492, -0.29045504630463, -0.17193819715967, -0.15125448062274, 0.23942808064734, -0.24141308068262, -0.20436529665846, -0.22088050386249, -0.10570539310748, -0.02089887021187, -0.27371152104456, 0.19501654139209, 0.05733318966531, 0.0715255473066, 0.13615330484246, -0.11330043153826, -0.15212067351103, 0.20867650168303, -0.2391327213796, 0.08013043778904, -0.01556008482832, -0.1902053732079, -0.19269496833845, -0.15946811306063, 0.25627434369042, 0.19185084497364, -0.12397932982126, -0.14377295805184, -0.23134551958392, 0.00816628341236]
[0.09436998809673, 0.0515631011998, 0.07153745679309, 0.24162702536363, -0.04736389368219, 0.24522818439259, -0.15371933768641, -0.12972679101968, -0.05125187386986, -0.23685300431376, 0.1467574607554, 0.29376770077688, 0.22738528053558, -0.25045402444368, 0.22984971838876, -0.08129595819199, -0.13621489723424, -0.10026864936568, -0.2723452180667, 0.0991725280158, 0.24972949082092, -0.12661297596766, -0.06667143967349, 0.25855779869233, -0.02822725507882, -0.04835060987727, -0.05268605933916, 0.22355879429635, 0.0949711264697, -0.25502111270871, -0.02003883803215, -0.06923684194373]
[-0.27506483212255, 0.04835793441538, -0.27861513070082, 0.27160256090789, 0.14744253048177, -0.09257526493538, -0.06883700785345, -0.22851520338483, 0.09850968438651, -0.1113812060618, 0.16375455889893, 0.05877244385195, -0.01344650505103, 0.04604481410458, -0.11439677051203, 0.20172881074453, 0.22561201152828, 0.08705470080911, -0.15439511733946, 0.22498981545529, 0.25508746872383, 0.28360009937833, -0.1509926961719, -0.2034213747756, 0.20599879203171, -0.18429607273613, -0.10483685965586, -0.10669839796673, 0.04850285535957, -0.16236024184893, -0.15296534971023, 0.12751219263075]
[-0.07393244093119, -0.28805230695057, 0.21278186833231, 0.03098006408009, -0.11613675966226, -0.10211718408424, -0.01780835467934, 0.20656337022532, 0.05231640915733, -0.14630242885253, 0.17850492443959, -0.0456417579878, -0.18043149330364, -0.0352759075166, -0.01738727485109, -0.09359282274474, -0.06647718115412, -0.16366836746729, 0.02164202287136, 0.08680734638502, -0.02774612218011, 0.12071347034516, 0.18424717896935, -0.06399985803, -0.19367340779213, -0.18028483748067, -0.13010946656447, -0.08594746528134, 0.06604917799411, -0.16638385089922, -0.20735424485242, -0.20226257137656]
[-0.0218603597508, -0.13926908806043, 0.02981659238934, 0.13721525728184, 0.14072160089602, 0.28484936833453, -0.15266166882406, 0.06089998495185, 0.16118419399022, -0.15475802559817, 0.07252826922666, 0.12359176282599, 0.25542680831582, -0.00926834160812, -0.09703218867055, -0.13441192364705, 0.0848225193002, 0.05031731767466, 0.24551630261779, 0.23125226197433, -0.18288908429273, 0.01764658659904, 0.23316910061264, -0.18792824647585, -0.00456445286159, 0.23006701308859, 0.08078193946344, 0.20738724028767, -0.27165805623597, 0.19839326107313, -0.23230829414324, -0.14161458101867]
[-0.10336740834638, 0.13543311195468, 0.05599398458075, 0.08997280243204, -0.23217323046586, 0.18668072811938, 0.12023137271244, -0.03056119579564, -0.26493565490375, 0.22169211847222, -0.0304072550677, -0.29428920939358, 0.08368359126882, 0.22394207761345, 0.08007152224621, -0.03664581579028, 0.28210781975356, 0.16008250479678, 0.25634334670811, 0.11122607963053, -0.2440004130447, -0.23264181204142, -0.2072603002944, 0.07352856879812, 0.19333385507876, -0.1573426358738, 0.24417103229969, -0.25159479561162, -0.20551351179582, -0.11150604826568, -0.01758652156381, 0.10202351524757]
[-0.08644068082611, 0.17204116244677, -0.25686540098039, -0.27071967950182, 0.2887537951312, -0.19265845928104, 0.26628972155197, 0.26896245156603, -0.06715722697421, -0.26432456484249, -0.257131136613, 0.16978281320586, 0.23171611482968, 0.25875175194613, -0.20347363112142, -0.25072684590273, -0.09767087371178, -0.13098507541609, 0.05886569846538, -0.05564110663205, -0.03114066975159, -0.09376495799731, -0.11836621862553, 0.25995711813236, 0.08056661206522, -0.03152290774013, -0.117903403253, 0.13895973635222, 0.14787032487594, 0.2797653772805, -0.11458296317775, -0.13476147732736]
[0.17245422875028, -0.08939560179578, -0.25972401676941, 0.19694885841193, -0.161973397601, -0.15077244801956, -0.02021916174909, -0.14301345945926, 0.23300309197764, 0.19137127271105, -0.07430689843126, -0.28978289838183, -0.09092326038357, 0.10299796383109, -0.03923762010246, 0.03797596611878, 0.06905842473563, -0.22054351096381, 0.21937674457139, -0.03546062417328, 0.20407010479881, -0.08474797899544, 0.29003205573259, -0.18100668142432, -0.22767829595247, -0.25893542229665, -0.01561960024719, 0.00401692537034, 0.05537407920567, 0.05993249606729, 0.17253165110522, 0.02479885943456]
[0.25215325427352, 0.0364538801697, -0.28331474310173, -0.00192144849356, -0.25258149036853, -0.119485970099, -0.16351750058213, 0.24786367129238, 0.06797982981514, -0.24150958584805, 0.1599864931698, -0.21742972107567, -0.24928459929212, 0.23556822898429, 0.19320573188608, -0.22007314974106, 0.24586955909553, 0.26188069895707, -0.01745681303327, 0.00831917230967, 0.16532108427181, -0.21613419027776, -0.02433487942783, 0.27062355871544, 0.17536092550938, -0.22541863430397, 0.131618736069, -0.03006297637633, -0.0278044099975, 0.11684417196029, 0.19492491887412, 0.26080946493885]
[0.05365402485717, -0.21378865235262, 0.22871363944881, 0.19823525156253, 0.02483790687617, 0.13682943019964, -0.27256510430448, -0.04953363092981, 0.17882585576988, 0.02645705596845, 0.16902246010864, 0.17878251332109, -0.27541421607161, 0.01341640264151, -0.07830365515582, -0.14944076093559, -0.00312144726323, 0.04592733321973, 0.27821750272489, 0.24937997830112, -0.13310878415061, 0.01554669011851, 0.00218129339223, 0.05371439170789, -0.16206279728853, -0.2769269062715, -0.28222508772636, -0.17449955224793, -0.19187649686616, 0.2736220710917, 0.00358237188034, 0.15274781446029]
[0.02836831517208, -0.23181330196392, 0.06149309222084, -0.07461425520776, -0.1900482264382, 0.27095476036624, -0.27681827160101, 0.02585569765713, 0.25494434959674, -0.06285170940785, 0.20952675393293, -0.28375159186327, -0.20717571769214, 0.00420497876114, 0.12093006215144, -0.27311131744848, -0.1998312579513, 0.19811125690686, 0.24261234330241, 0.22762888809728, -0.13241263811346, -0.19309721330459, 0.18273978006952, -0.19547254513996, -0.00001714672301, 0.28687114773046, 0.23468148053617, 0.12789606541578, -0.17079788382179, -0.08872529738661, -0.23387018004629, 0.14871993044777]
[0.1310016666095, 0.15014600806677, 0.11373425480681, -0.00116170724184, 0.09117058459219, 0.28201927821257, -0.18010098189176, -0.2340834188837, 0.10002440718749, -0.10672393999146, 0.0374288325545, 0.2758921005783, 0.0676399282715, -0.1105448801098, 0.22987179989137, 0.03130921720396, 0.02092845098489, 0.27899670553662, 0.02006080540452, -0.24580939112133, 0.02071638892288, 0.1821746417778, 0.07335598118957, 0.10725856790642, 0.12819911910757, -0.02772819464389, 0.24026139029338, 0.04566284603696, 0.2611236486896, 0.11093833688455, 0.20631166681693, -0.09737322099198]
[-0.17784092268679, 0.25903426661947, -0.25785412183359, 0.08137591752638, -0.1594886595778, -0.14389995340868, -0.19719225155588, -0.14361292767282, -0.27155585819383, 0.26066858195069, 0.04987981286802, 0.03499393144951, -0.27009346535256, 0.07332000925133, -0.14771169490222, -0.01989325653702, 0.09728768915743, -0.0868153525891, -0.2774833952918, -0.25860480085478, 0.13241835792165, -0.266655973604, -0.22490447494034, -0.28835823509475, -0.14397298327052, -0.16893482859755, 0.0658418723481, -0.05647332136265, 0.0102702439417, 0.02122260664235, 0.01972366660919, 0.09373942844802]
[0.11351244981566, 0.27445939284236, -0.18096770065827, -0.26604482621461, 0.15988142733373, 0.07586898438274, -0.22895202800379, 0.02762074627701, -0.05444192280604, 0.17396007991098, -0.0317896508734, 0.18725554109982, 0.15922741209934, 0.0136607880232, 0.09298469144221, 0.09968113443673, -0.22954869344245, -0.11649571378942, 0.10775103524914, -0.22495624778622, -0.28944256939801, 0.17563868965166, -0.14322178815014, -0.26882266215566, -0.06829552400753, -0.09123226600242, 0.09929414489147, 0.12902465261531, -0.01564559313368, 0.14606525966056, 0.15941077877693, 0.16141959114173]
[0.04483997634433, -0.04189003675609, 0.17208200628171, 0.02216995693461, 0.15331011287798, 0.09177114181034, -0.15424941701286, 0.00112478412164, -0.11811799901215, -0.10996306070232, 0.20042197482351, 0.12991241762839, 0.13268721401395, 0.20487431279086, 0.14536167551491, 0.01974705658457, -0.10953767976169, 0.07112727251483, 0.0298157725775, 0.22782433607849, -0.06780985178425, -0.0484546339881, -0.26871484296012, -0.25968084743085, -0.2381969637664, 0.12350210365026, 0.09498340227818, 0.11131627317941, 0.08237050940277, 0.14157536622141, -0.04212490155786, 0.11931988464616]
[0.08240951652373, 0.08796195255371, -0.05027195555418, -0.2430584920532, -0.10615127745239, -0.27778657929545, 0.24800342792291, 0.06521837195569, -0.25811285614522, 0.21875563362285, 0.17711529394031, 0.14893861421582, -0.23981291447139, -0.21892506100044, -0.19337396942766, -0.03874615988593, 0.26511714327416, -0.11613371011671, 0.21274873974673, -0.1467779099897, 0.16178715588917, -0.12266617420779, 0.02102310139707, -0.18885077394716, 0.08145609131869, 0.09998840216572, 0.05779502268241, -0.13790038679939, -0.26483887083057, -0.13684192025924, 0.10007722165611, -0.02329777231911]
[-0.20085957534096, -0.14552798365847, -0.13205175330667, -0.10980896785041, 0.108958683978, -0.03017463787934, 0.20048157916748, 0.15440832997827, 0.09233182465519, 0.13802937216272, -0.00521991155545, 0.07469521898238, 0.20981255278855, 0.18763748755777, 0.09464156343156, 0.01086854207286, 0.28500871587687, -0.2714299904167, -0.21415601206468, -0.25892074530641, -0.15032884436526, 0.21658873552799, -0.22063393138169, -0.17432139119367, 0.13078547135912, 0.02517282245555, 0.06368053009254, 0.05081483033837, -0.20735047852001, -0.04874156540147, -0.1720609661769, -0.26254096366699]

[0.12233728784875, -0.2298110989635, -0.28105927100788, 0.25807008067698, -0.30354589018414, -0.1446752880863, 0.08920692125632, -0.08523062409315, -0.02496214034736, -0.16933216364974, 0.1254590326279, -0.13809969690129, -0.12478696809052, 0.09031365678189, 0.28679814361941, 0.29738897321151, 0.11061325960709, 0.09740346779808, -0.19454155461099, -0.13657572163913, 0.19810164452896, 0.27074136161386, -0.10283669786673, -0.28134375549293, -0.06627844074233, -0.27985271616363, -0.19453697668498, 0.0521582926008, 0.22863007541182, 0.20922535922847, 0.08273970097808, 0.06987122307337]
[0.21392779918738, 0.22396576046322, -0.0553157002764, 0.05950652839849, 0.21514193554363, -0.06266925155515, -0.031413183429, -0.17155259754096, -0.23150693069827, 0.10868631117225, -0.08673397937805, 0.13283718901368, 0.07460521718787, -0.1338072790958, 0.06101290949214, 0.20871517928225, -0.15616303999337, -0.25814396176335, -0.01554040368184, -0.10676810411874, 0.12242246174393, -0.23655410163707, -0.2767462020825, -0.27130725542357, -0.09697898299733, -0.05763865304323, 0.21559482298253, -0.24119072305967, 0.03410641958599, -0.22785028218618, 0.28026170600415, -0.16087518565709]
[0.13875152494037, -0.18539057716984, -0.30071706491112, -0.12645871048755, -0.19227823765874, 0.13170264044394, -0.12863879587548, -0.07953963746371, -0.12049762677344, 0.00900296919894, 0.23876062333482, 0.27604148042332, 0.04135656117698, 0.04274413246626, 0.13203833717573, -0.01105943740679, -0.27105610282106, 0.01859557512562, -0.10077611656385, -0.11662012779295, -0.11501851709843, -0.03456503843461, -0.1479795313008, 0.21980428059816, -0.15177295140623, 0.21751692459868, 0.17361691782938, -0.29626401261059, 0.0045589164201, -0.04992783850184, 0.25415402177729, 0.17427906905525]
[0.04659863674117, 0.09250418411097, 0.03760485001227, -0.22081546745431, -0.294497168465, -0.04579726848742, 0.16677318247422, 0.23232874291919, 0.25736673558144, -0.13928572904324, 0.20906316946361, 0.065166320132, -0.18400317678804, -0.06718478925847, -0.30528624421996, -0.01165727453644, -0.11202335050748, 0.10423509725646, 0.1779108753915, 0.15794280183225, -0.02942127930936, -0.28997600523911, -0.1936560484544, -0.01972601331878, 0.10392206167529, 0.18661328092149, 0.22133024100417, 0.27059335538721, 0.16033466534805, 0.22741557012567, 0.25284786575565, -0.23953792480125]
[0.26274334275187, -0.22772547020658, 0.04213202484176, -0.03815959082683, -0.03645118251779, -0.30270974890186, 0.1504931061732, -0.26453353512112, 0.09015126221115, 0.00230293473133, -0.22127195153292, -0.00551310442316, 0.22078755265352, 0.28230164025282, -0.23012866245433, 0.11044534715554, 0.24403360368457, 0.25078488514299, -0.18701288170986, -0.28244654116231, 0.02937223694523, -0.27164889657884, 0.30365884034153, -0.03605599673059, -0.26571578719894, -0.08917715949353, -0.20717717163379, 0.01747915868075, -0.14229099683686, -0.2880745557958, 0.1684473084929, 0.09916402418498]
[0.09818975755232, 0.20910170462153, -0.29178026504865, 0.21029873591284, -0.10028397005123, -0.26060376380764, -0.17115390692049, -0.20084045264953, 0.1830291761686, -0.27486264614941, 0.19595211763577, -0.00605992050415, 0.26157396151292, -0.1635341771084, -0.03144075087522, 0.24915229104262, 0.28504305179528, -0.1658778554001, -0.03582067375402, -0.08553467636552, 0.23876259545875, 0.29664006442497, -0.24198153566212, 0.12266249480121, -0.00535415657883, -0.23722110587822, 0.07026474648142, -0.06676815049601, 0.01704740328933, -0.08852854773802, -0.24495764358999, -0.13433432822362]
[-0.12123542791037, 0.0135104836401, 0.28255793995087, 0.27582237844384, -0.19970936440373, 0.1106590198817, 0.02175689899589, 0.00286300304928, 0.09594828464197, -0.11762123064548, -0.06684100845557, 0.05930870588683, 0.04173284279989, -0.06736111724047, -0.28438069777724, 0.14358192051156, -0.02350813390032, 0.16085017454398, 0.10424424633573, 0.19406085375101, 0.076336788459, 0.00421031769549, 0.27916607245465, 0.26817289396256, -0.18348809709257, -0.20765842451536, 0.01603229873313, -0.15287260900159, 0.22410250721162, -0.11076671267907, -0.26841788135182, -0.12192961672699]
[0.27393336600213, 0.26770826261834, 0.15405156539706, 0.15791456054696, 0.17648506755909, -0.22858434790995, -0.01550866152466, 0.07988632625979, 0.18764413378629, 0.00595731004267, 0.23772573476821, -0.11831765235982, 0.25582715023952, -0.13167524587428, 0.06923590912336, -0.16573620346115, 0.07816298233124, -0.18426098628782, -0.02886874182515, -0.1655409352332, 0.19699701630818, -0.09256088000582, -0.1931829716926, 0.18835928708235, 0.22820986707433, 0.1519005009781, -0.07203884936447, 0.01773405573648, -0.03948688392461, -0.10921703289765, -0.03384031702348, -0.27287225939428]
[-0.12017564224781, -0.12950162865599, -0.22618483883303, 0.20679145286226, -0.05647514520846, -0.04613517950868, -0.13420083020124, -0.2787103326326, 0.10303125967648, 0.24478795527204, -0.20548201989993, 0.05846691518476, 0.26956673141744, 0.24741299729448, -0.13418364343104, -0.16681612229372, 0.19042217191188, -0.18502408477237, -0.23786817332294, -0.00789968386724, -0.09645986079059, 0.01337081732626, 0.06584053181989, 0.2649543756628, -0.09596817774029, -0.01909554503943, 0.02457235034258, -0.27647172566431, -0.04288141641625, 0.28440853007504, -0.18842960748339, -0.10948295271672]
[-0.16773446911424, -0.05507005029756, -0.13271477985885, 0.13796386468294, 0.05969252568952, 0.09794128881675, 0.07621098846916, 0.24405514281479, 0.19892713589811, -0.09868017085211, -0.17524155120851, 0.06613078772657, -0.06798925837682, -0.14861100298855, 0.24147019056282, -0.23483385948757, 0.20617920860528, -0.26745397997816, 0.11872729232486, 0.24411047729341, 0.21513297142154, -0.06411755496877, 0.23615463230112, -0.26950882137831, 0.29232762203916, -0.19429272607536, 0.068212851422, -0.16337598861144, 0.25677716414213, 0.14434597986501, 0.25469922139075, 0.12541594401668]
[-0.12130437939514, -0.1919602238377, -0.04616982090097, -0.23809480900313, -0.16870756990022, -0.08329514363599, -0.06657790226148, 0.13651668845262, 0.02275030900079, 0.15128562673733, 0.04543849994907, 0.03415140140706, -0.03728808535733, 0.05584658572617, 0.28583345917888, 0.22275775050671, -0.26732109654984, -0.25934334430031, 0.09916499461705, -0.27421021705103, 0.27807837506995, 0.0330662899038, 0.26998222473874, 0.19160790838671, 0.26840887748035, 0.16500170552488, -0.21495017777359, 0.11940303835309, 0.15469834770101, -0.16591030895569, 0.1973872946507, -0.19882289908339]
[0.21441708109838, 0.07496628364542, 0.15021110800223, 0.20161031388345, -0.01096807295963, -0.07350673164089, -0.28321151630433, 0.26318325091105, 0.01457945077253, -0.01183584408727, 0.15834496991397, 0.27947221545587, 0.14529816255075, -0.09480726618071, -0.04221558978993, -0.0906221356333, -0.18860206172833, 0.06468033731644, -0.08626617179406, -0.1237908362686, -0.01685793192272, -0.24667069984168, -0.22477790501154, -0.01082008156931, 0.03284542441902, -0.17050018342874, -0.11696253655337, 0.20602372711614, -0.24161164371539, 0.09840133307937, 0.13211457717686, -0.04275012966119]
[0.09313969876595, -0.00875465389721, 0.08526719210596, -0.27472224634628, 0.05356647285584, 0.17342472391441, 0.16575509431412, 0.24585215496349, 0.30332177671898, -0.08475305982963, -0.06250646214746, 0.1478916279552, 0.09233377488836, 0.22140560397581, -0.1243478371003, 0.05218130861225, 0.25142506179968, 0.07863243569732, -0.11636422345106, -0.18939324808135, -0.00359739055946, -0.03496307792098, -0.21995320250431, 0.08955164185107, 0.22037798471063, 0.11158680268115, -0.22897111415083, 0.11191187895152, -0.17842600597501, 0.2905113867154, 0.06598916826194, -0.16828231406719]
[-0.14484833117245, 0.17694481405916, -0.14395332599649, 0.30296663280898, -0.12937775275433, -0.1793451932267, -0.29809929409018, -0.24637780120203, 0.00254159650372, -0.21285351915092, 0.06318755380144, -0.12438186599141, 0.29103192304144, 0.19702152102807, 0.06419664354754, 0.09505611997962, -0.07528413813056, 0.13611613157787, -0.28498594816465, 0.18731934463209, 0.06079894946199, -0.04141578775733, -0.11987262241905, 0.14631228962857, 0.26845402719503, -0.07669235365756, 0.24212580045346, 0.25759489809069, 0.21103566272917, -0.25749347985327, 0.28104251626785, -0.19838453290668]
[-0.17111724263637, -0.01058688548664, 0.25744867900983, 0.28680632513553, 0.186149556955, 0.24225092812212, -0.15942518086578, 0.22694703012566, -0.19675068714147, -0.04507314520903, -0.07073462685018, 0.11762147093059, 0.24924413280159, 0.18818720957392, -0.15945913456851, -0.19608548986712, 0.0749395047362, -0.23631420754398, -0.08933637542633, 0.03527326948638, 0.11819319431431, 0.12460886784572, -0.10916461542431, -0.22103288785732, 0.24990363912507, -0.09797729892814, 0.07095917816402, -0.11917052475483, -0.01307259623452, -0.25156796124028, 0.00884721295249, -0.18953450991571]
[0.19477123736793, -0.28962317343702, 0.04293305455622, 0.15867084586606, 0.13733588868024, -0.06388691891121, 0.04703388726815, 0.13060524760949, -0.13253455551412, 0.2993781206478, 0.14272003643468, -0.03489880756884, 0.19109669136581, -0.20873677596085, 0.29038096648301, 0.07050985490085, -0.26806703657413, -0.11608037125712, 0.12072233213733, 0.05601335911335, -0.19645803760883, 0.29072304463746, 0.12498192913222, 0.20827298073965, -0.29265376117478, -0.29728190593385, 0.1080322512357, 0.20627345468924, -0.10646854725464, 0.25240893859499, -0.22661145116855, 0.00404550642036]
[0.21101622649735, 0.20925982846205, -0.03183209733121, 0.29363748157948, 0.14440051302041, -0.1173710299168, 0.14502856751555, 0.02035535929402, -0.05041567321264, 0.00620180298839, -0.01935373622541, -0.22967424724783, -0.03651345381024, 0.22234337658896, 0.1040429085464, 0.20438179386249, 0.05605250780363, 0.13424244763053, -0.24037597267695, -0.134563782931, 0.22364879311361, 0.2853114144177, -0.17438826004624, -0.0820239538302, -0.28662316420111, -0.27215013864889, -0.30484066609399, -0.06185548929606, 0.12841014014044, -0.21868653770316, -0.19251727216676, 0.23242963084536]
[-0.28363645363902, -0.0325841237166, 0.04173076158527, -0.14045631247099, 0.22946172561203, 0.30349700113006, 0.25904768319821, -0.26798953883893, -0.1475247963062, 0.17786667522718, 0.05665736367746, -0.0768048568708, 0.24895777403599, 0.11543068464756, -0.03395107621199, -0.12163320758708, -0.26312584343276, 0.11892902823698, -0.04228460509034, -0.2288811049372, -0.23299120914339, -0.28736326227146, -0.03699175705802, -0.05514355522909, -0.10752057581975, -0.25180867477643, 0.14206714402069, -0.25719697510872, -0.25413676533472, 0.11007461723653, -0.15582656580042, 0.2766626885877]
[0.18748291047682, 0.26488925971274, -0.13445221933307, -0.013072742013, 0.18953390769306, -0.1223607977282, -0.06637956287873, 0.13708717089627, -0.07883840327879, -0.16817066892561, 0.14544116962912, 0.18340884457592, -0.08440850216029, -0.18435873501629, -0.08548755214245, -0.29438522670485, 0.14348803414841, 0.03752093924579, -0.13395818477211, -0.24360866917965, 0.2585855794165, -0.09649316457757, 0.15932217093201, -0.01170025034906, -0.10077755566435, 0.19411255904161, 0.12052286542549, -0.21871789225371, 0.26198913944622, 0.03011540877127, -0.04444382821573, 0.1700996888337]
[0.20670959418309, 0.2095506347918, 0.26669318845544, -0.27105340155298, -0.22241390892619, 0.24846001412484, 0.21374558946378, -0.24966943360774, -0.08940760355131, 0.24381247130477, -0.25531615781535, -0.08544315002885, 0.25262533627185, -0.2748071772697, 0.19995352025956, 0.30028216861813, -0.15725858719236, -0.00921481535206, 0.16360971895211, -0.26442276267419, 0.03477937060042, -0.12526905721439, -0.23905645433156, 0.1087713994012, -0.23531266901071, 0.12883244804714, 0.19685266746987, -0.18437113888013, 0.13032662617171, 0.02635016669798, -0.2651730193364, -0.04923069008881]
[-0.30347949944411, 0.24347632973071, 0.03150342556704, -0.19416538846476, 0.21813219221476, -0.24692049926441, 0.17365543408779, -0.04454404246522, -0.04376874410655, 0.06004304317034, 0.27592498709655, -0.21225575500151, 0.09892032307815, -0.01946514767146, -0.26380423935361, -0.15983833179067, -0.0287426776635, 0.21067978303193, -0.29295084906241, -0.02074933558928, 0.20920759128865, -0.21717705416672, 0.03009163081949, 0.18666792429624, -0.03410028477478, 0.02253715701741, -0.04523297701074, 0.17427969197532, 0.2060898791697, -0.24341085228498, -0.20500466285534, -0.02175997842094]
[0.21276133652579, 0.08699350216979, 0.19884978751563, -0.05249598240011, 0.13989249716297, -0.26566337360927, 0.03670584663125, 0.05394828241293, 0.175796375897, 0.17832826828688, -0.12249259097869, -0.04865179704686, -0.04109568011121, -0.0674030497634, -0.11458532188985, 0.08584236367569, -0.11796563140352, 0.06760460389896, -0.24034530600522, 0.06892005479294, -0.10482780480307, -0.1721617368944, -0.17089974123336, -0.0536116351183, -0.00358131291113, 0.00515046179958, 0.18224619306987, -0.11722950165395, -0.15225298341409, -0.11224090135513, -0.11973027701212, -0.19505499388467]
[0.24899358040997, -0.11325400727211, 0.07520962698043, 0.08292460377914, -0.2192034321915, -0.11792866659474, 0.22235929432197, 0.10975826653275, 0.28107604984412, -0.22878951006788, -0.13601180776778, 0.25094530825957, -0.23106233390579, -0.15486104961196, 0.27874162083931, 0.1665694003616, -0.0930937657241, -0.2870951213856, -0.15416412398084, -0.01074607263822, 0.18781057100061, 0.12593103416823, -0.03794824713345, -0.2646698118444, -0.02865180625125, -0.16357361366229, -0.09406558017059, 0.01012451301038, -0.17818913752707, -0.300078642408, -0.09889239803031, -0.04677454627952]
[-0.17658633646411, -0.138571043508, -0.06182518571103, -0.29803416382227, -0.01536070415259, 0.15680344338167, -0.29788193018914, -0.30092299313516, 0.1313017996406, -0.11485621868294, -0.17328368356484, -0.02645867667194, -0.00342827622016, -0.07315469403735, 0.21895061195647, -0.14694375551813, -0.21118370532667, 0.05009045888905, -0.0321560218293, 0.02087062292459, 0.11749745080295, -0.30144896771918, -0.08668851987499, -0.01943296603296, -0.29252152884679, -0.22108978278952, 0.29477026710039, 0.00021756993454, -0.19476787474341, -0.15662638652995, -0.15936195173382, -0.21337667826333]
[0.04963255578858, -0.25638789561662, 0.04438963509443, -0.08091850144498, -0.10538664831009, 0.09337090014478, 0.2998223554582, 0.1937668413791, -0.08641285253176, -0.2483123538573, 0.21260972351229, -0.04597512407223, -0.21373668483611, 0.1919127026171, 0.15120923968852, 0.19324024072171, 0.05212274067435, 0.14212839179864, 0.03664600068392, 0.13241365398181, -0.17934386082955, -0.09065777714251, -0.23791184160324, -0.02391381425363, 0.26442800711388, 0.04276192924384, -0.22918345934852, -0.28520251719173, -0.13736316533513, 0.04278321858577, -0.24975535020875, 0.22060117224057]
[-0.28477803819422, -0.10383174403207, 0.02300584964854, -0.14225708800338, -0.25953971543658, -0.04252474761672, -0.22333803617631, -0.18191548117335, 0.06087930202815, 0.24030202292538, -0.1381525650302, -0.00542282729571, -0.12423156812414, 0.23329679141582, -0.20312776077342, 0.26164370074741, 0.27402459879098, -0.00905562239529, 0.26258264622321, -0.18719520701603, 0.05874656991197, -0.23424580960265, -0.18840235072713, -0.29658529090491, 0.29647137760701, -0.01748505341882, 0.100879248308, -0.10974567198524, 0.14546121117689, -0.19442435065952, -0.02856482642153, 0.05444339508308]
[0.22885742728974, -0.0975821782691, -0.16949395107201, 0.30078001430362, -0.30460209666952, -0.15639686484068, 0.15654718657478, 0.29880095848052, 0.09915533190699, -0.0502278946835, -0.13784637826346, 0.24246615852769, -0.06072738058428, 0.17571804069655, -0.13859778830742, -0.28061246668064, -0.1912604128782, -0.28637129845144, 0.10189974920905, -0.10912068313386, 0.06407421859198, 0.09852694676057, 0.00381616074133, 0.00644792912475, -0.09529712939909, -0.09769633282434, 0.22885502683734, -0.26966261856405, -0.1699733408888, -0.24773054502518, -0.17747498595621, -0.29151665326249]
[0.00078256006333, -0.22328304212992, 0.05233688392628, 0.08932407545139, 0.16809926650324, 0.03635602753076, 0.27941826243313, 0.20174127053225, 0.26477508101745, -0.1003050018112, -0.18362052899291, 0.16428423642952, 0.22428810739285, -0.29984380561759, 0.0971322002946, -0.02693748813804, -0.18350065214915, -0.15315017374537, 0.28806543821914, 0.20508263443966, 0.07247286362553, 0.02394022545081, -0.14145015481651, -0.26748607291377, 0.14639949871762, -0.05883819490936, 0.29563578657451, 0.15239378660801, -0.23994922526126, 0.23475485579853, -0.15385916049079, -0.0181973703663]
[-0.03349421201546, 0.03180432781128, -0.00137202996497, -0.19444031832536, 0.13049066572719, -0.08649543434566, 0.30271987295753, -0.11581637161987, 0.05004715213966, -0.11047781256073, 0.22149343973705, -0.12626802169716, 0.13223615952223, -0.13060688377597, 0.25883368863937, -0.19586328421843, 0.29733759639615, 0.11750183633269, 0.19926341749741, -0.03020750335296, 0.2599204207839, -0.25900411318817, -0.17752146408538, -0.00936920314212, -0.02920351864475, 0.25230028965037, -0.20058527929602, 0.13857004566787, 0.16514019180712, 0.029600863188, 0.12411923858804, 0.07487555647252]
[0.20215839039484, -0.23191167209053, -0.02517728745107, -0.16919848015093, -0.23311071320515, 0.14326678505031, -0.24746710381408, -0.12521602529342, -0.25160357798673, -0.20926755228257, -0.00362158177205, 0.24922185015859, -0.28936137041009, -0.21478087256207, -0.12686370671017, -0.15507092320064, 0.28870382269484, 0.153460117471, 0.06173652973728, -0.30042219993554, -0.15510236047019, 0.10878537531792, -0.07017983541698, 0.01234810946563, -0.2836061679633, -0.23367799743947, 0.03830651166445, -0.25084896994496, 0.27131190800619, 0.18991438183637, 0.03661197482175, 0.03210425668082]
[-0.09393107507041, 0.2303294869167, -0.17692777676257, 0.14004053573519, -0.24070759244795, -0.22952075690849, -0.02626619552945, 0.01919515153534, 0.27015478740112, -0.14981605170113, 0.29925501865354, 0.17439249945789, -0.20844964878982, -0.2715370070812, -0.29502249418981, 0.1078200871741, -0.30200774754901, -0.0109883202402, 0.0375339927495, 0.29734907068769, -0.19715248515653, -0.10521957176683, -0.28679865061011, 0.12837354958044, -0.18948344463796, -0.2885050082412, 0.2965570026114, 0.3039403493152, 0.04984112548451, -0.00503119632604, -0.10490659278828, 0.06560912633591]
[0.01839270247173, 0.00245953619334, 0.00853397636879, 0.22046240570015, 0.22435872365533, -0.06875385386413, -0.27104168181535, 0.05383201727807, -0.16475587970069, -0.15045761874936, -0.14715357855985, 0.15962739305299, 0.25799955285649, -0.16473607532405, -0.23525326878983, 0.18270171750314, 0.17001578736664, -0.18804837523019, 0.15397510226216, 0.30428859344421, 0.15211788650721, -0.20083436538171, 0.14292888879047, -0.0285518720778, 0.09105423303498, -0.01487239805474, 0.12950392676579, 0.25922243583118, -0.2482512535411, -0.11322532493314, -0.00899460309522, 0.2063988566675]

[0.16541845143797, 0.0452442614762, 0.05983777181498, -0.28502813692126, -0.34456439181839]
[-0.07467393469858, 0.27285594475226, 0.10170401642986, -0.35136236721197, 0.0364849813382]
[0.07366313419057, 0.1488751320481, -0.10521493367139, -0.17901934304292, -0.02427294797924]
[-0.05284224929084, -0.36959047025298, 0.29409627109554, 0.31540891002976, 0.19795340850079]
[-0.27318931141337, -0.2428087396344, -0.0147326815047, 0.32912765036094, -0.33896385886839]
[-0.16443594255293, -0.16560144950678, 0.0720271716292, 0.28533468603652, -0.09423515203618]
[0.35647260275637, 0.26286052908535, 0.37644517914236, -0.28589245868599, 0.0929044717865]
[0.22419371318868, -0.15634468716611, -0.3577632104531, 0.02068284202828, 0.23465097461652]
[-0.17839941978688, 0.194410655334, 0.01183700774698, -0.20141295443462, -0.0123036560979]
[-0.36381706875124, 0.15153441375441, 0.19913780742772, -0.22651355073042, 0.10719972509677]
[0.17154659024513, 0.1212864170235, 0.37028017795816, -0.06737393688388, -0.02273985008382]
[0.09108535237738, 0.29861764877032, -0.07463089647291, 0.07516933111853, 0.21337152375279]
[0.02576221913763, -0.24100072471989, -0.15888122089411, 0.37216372492283, -0.33544195091691]
[0.28290843216064, 0.27269222554915, 0.32853987301528, -0.29765966829166, 0.02982861564798]
[0.04160515203707, 0.16261215809058, -0.23849433497784, 0.01614222543923, -0.27558540806766]
[0.18188829855287, 0.24941346118872, 0.16918567794615, -0.23521881332911, -0.02066931771]
[-0.1997259605001, 0.00215205145756, 0.27323188784407, 0.04117011035103, -0.0588737765869]
[-0.20361423499745, -0.11525365242188, -0.10054955555497, 0.06555533156202, 0.22209206337534]
[-0.25564329100711, -0.1334515359217, 0.13747552198246, 0.25792872051112, 0.29565627097598]
[-0.23801723388449, 0.14357590015003, 0.02951033737514, -0.00292250731349, -0.13718389634402]
[-0.35522556952704, -0.32335049722894, 0.15866646048274, 0.25491010696133, -0.24251879557723]
[-0.03466703036001, 0.37426464984614, 0.35923718073656, 0.20998343891277, -0.27121822792574]
[0.12562964568587, -0.21648340213255, 0.1177250067257, 0.34891708511809, 0.26035133360342]
[0.10159566974556, -0.14226754921321, -0.19574732897834, 0.31857101505555, -0.11731945445836]
[-0.04970772813084, -0.00704904786247, -0.37668898045093, 0.07118344908661, -0.0332440122408]
[-0.16000986062171, -0.33704893675378, 0.21808139169457, 0.04243790898111, 0.33537155756203]
[0.0792716719545, -0.09525568393598, -0.28637517161217, 0.3481246432781, 0.28253366094109]
[-0.14873099565205, 0.18092921542123, -0.15304297454418, -0.32431754792295, -0.09021534561137]
[0.26051240400082, 0.0382680761579, -0.32313762262681, 0.245463865067, 0.2328324387843]
[-0.09896262893877, -0.25427747338285, -0.11455645494199, -0.01344136187701, -0.16181406887844]
[-0.18404644498493, -0.0944870144708, -0.32538553642457, 0.38837343690438, 0.00299710416832]
[0.04715724511274, -0.20015483108181, 0.15467009495633, -0.21026747722961, 0.14602263681135]


Best Model in generation 1, with a score of 6.000000 
[-0.1050346301697, -0.26291156482379, -0.06131354918033, -0.10575658258099, -0.26385567725049, 0.14626555151373, 0.23737273828922, 0.279476340719, 0.282266813547, 0.15122469730991, -0.03814351049884, 0.25887616987235, -0.13112690604004, 0.19872574843884, 0.17198492600232, -0.14402943205414, 0.21239976429421, 0.00559798482665, 0.00619642386894, -0.23784787274471, -0.19941202608047, 0.25680467310902, 0.04269926152571, -0.13772472391719, 0.10224636417579, 0.09069828144687, 0.20560504427697, -0.21480941603605, -0.22260679357712, -0.19344285738736, -0.06667992337596, -0.21203032248191]
[-0.1033267399818, -0.12485414414374, 0.2036513989107, 0.01755771769542, 0.28113772651934, -0.0272998074852, -0.02740532703909, -0.03711883121704, -0.04498840898426, 0.005741041002, 0.28916497920364, -0.14089715806791, 0.0217955763536, 0.23935076660545, 0.14838964010209, 0.01319910378583, -0.11529414756417, -0.28423244779638, 0.26279744748224, -0.04289733092344, -0.18301679538993, 0.0487904500999, -0.25464350381576, -0.1734812311653, -0.17061537050067, -0.00132452776277, 0.25241405690043, -0.25794938765657, 0.28768538204771, -0.14317254324169, -0.17700035194004, 0.10997130277929]
[-0.07298618902531, -0.11855013520172, 0.10982570043047, 0.23131754698117, 0.26978451713579, 0.19594757657453, 0.2126428207918, 0.0848981529346, -0.26625752981916, 0.21354718207831, -0.15910457064683, -0.15122214063902, -0.2277182575445, -0.07878350892533, 0.05837989476949, 0.06155247486138, -0.27886964465003, 0.06003852164985, 0.1938483165692, 0.12410365763553, -0.21130604567168, -0.03605210483227, -0.17398073079756, 0.06986068494614, -0.23293246377468, -0.22596566861119, -0.1735479870067, -0.0033071731127, -0.25192814983557, 0.0499077174835, -0.20735640892345, 0.15893182351277]
[0.08401135472465, -0.2889777251289, -0.04197578134632, 0.1155614701276, -0.15760212414067, 0.1715481469145, -0.07958152752154, -0.01767285988905, -0.28801726171755, 0.1539814765993, 0.33501072574527, 0.06904694388505, -0.13288248571792, 0.2432193238575, -0.11810619302606, -0.2920173181125, 0.2766186256371, 0.04077924257004, -0.18296335714764, -0.02881430599757, 0.00462341610062, -0.16709586336445, 0.07872727801098, 0.21096345880944, -0.11283699547839, 0.17535907563483, -0.1127414576388, -0.0388405041905, 0.26567722588176, -0.04032033961324, -0.10997320056452, 0.16309404702703]
[0.20599751054825, -0.22317975563537, 0.22798040408294, -0.04460992657245, -0.17584173337373, 0.05595641671126, -0.14270553824067, 0.17606546860797, -0.09546005834431, 0.22371989595389, 0.05047363499618, 0.2777035295191, 0.13294234662725, 0.2095244954379, 0.19437180707509, 0.08774457654098, -0.11750846724978, -0.20753873737794, 0.04016726420777, 0.16836841807034, 0.05976078592088, 0.26049355754145, 0.177034257258, -0.09466979855763, -0.25922974956178, 0.17884391895247, -0.16074407443486, -0.1940691599123, 0.16876073567073, 0.03284713407014, -0.02795007834084, -0.14204634926966]
[0.06208492997178, -0.05137987772872, 0.10152905920299, 0.2686712279927, 0.24330762278497, -0.01796440729994, 0.27744249479434, 0.17938029383679, -0.02852672331349, -0.19123080915589, 0.1366067358195, -0.26379321552467, -0.05558940478507, -0.00032106584417, -0.13318480416715, -0.23012374920026, -0.04825967380584, 0.2810174025729, -0.02438090347126, -0.0737482564489, 0.11647241764326, 0.0400644736395, -0.16152536524891, 0.26705969374207, -0.0774123719214, -0.28592520193915, 0.28038105763073, -0.18000047234391, -0.06432916205738, -0.01012972087251, 0.08246384802966, -0.27822527019621]
[-0.21459681879493, -0.11017953067825, -0.06378512501909, -0.07960037333035, -0.17697722537296, 0.19584601000688, 0.02525105325074, 0.03533752422719, -0.0374544603136, -0.23335455768633, -0.15645815109339, 0.09173676628356, 0.25559301083549, 0.18731760023533, -0.00937414805711, 0.15172861982243, 0.16473359813931, -0.09801446882276, -0.21880101606111, -0.01849159263027, 0.16133515412433, 0.04797735685211, 0.23719690222508, -0.19110039573473, 0.20278400281958, -0.28492847094613, -0.20572574533728, 0.1616865292996, 0.00607143803351, -0.04097712047135, -0.07394388209153, 0.03736469673788]
[0.23317467967873, 0.25130327547946, -0.07937647603592, 0.29334168006051, -0.20702652756216, -0.03459480787725, -0.2992178229686, -0.04175521154894, 0.08457027990562, 0.27702532282379, -0.23809905926552, -0.07117246435516, 0.2796186835499, -0.1132917817102, 0.01730156064374, -0.07497562274186, 0.14087602637363, -0.26442873697739, 0.03702372326916, 0.19971673998119, -0.23034442339652, 0.08460204971861, 0.09347321069258, 0.24742004032716, 0.11344959065723, -0.16794123890231, 0.05416287263106, 0.16379439116359, 0.28910677757839, 0.13876554322796, -0.00492420125712, -0.20483868221957]
[0.07230965230414, -0.16018783457632, -0.25633984513914, 0.12628472138653, -0.15036173822297, -0.28875615844292, 0.24936611779286, 0.25753465541024, -0.10262527549597, -0.28415292454861, 0.24739122584382, -0.23030416043975, 0.08706878892938, 0.09699972017443, 0.13612625891958, -0.13657319887784, 0.07933626975566, 0.2440340157614, 0.06624898612207, -0.13183226314296, 0.2567315791835, 0.14874094018065, -0.20642744234597, -0.16671794721297, 0.16424699797703, 0.13825034337675, 0.12017475626318, -0.25067632683395, -0.2017302196803, 0.05365953892639, 0.276143666282, -0.082771587986]
[-0.10439009749601, 0.13882578580629, 0.25757384343785, -0.04637917109256, -0.14032173449125, -0.2224779375328, -0.22160492159604, -0.03594029825948, -0.09778002728293, -0.20677839678232, -0.18698909719256, 0.20162941338337, 0.27097744229995, 0.13954783222643, 0.13358029932408, 0.24574365736758, 0.13013902527519, -0.2322541519032, 0.26014075093339, 0.19898943599555, 0.24484618661119, -0.25502290575114, -0.03444411954038, -0.28741665268621, -0.08097156981789, -0.05173610273789, 0.21022187815718, 0.23346583592643, 0.01455911274284, 0.22639053316974, 0.04324619970242, -0.18460197902527]
[-0.04895831740471, -0.02149660421392, -0.14480131810349, -0.16806199589903, -0.16195018810771, -0.19359137172567, -0.11770800252499, 0.26088511944915, -0.11498106357163, 0.25341601589518, -0.0718516989178, 0.28833226748569, 0.18553122908109, 0.29397700524354, 0.16534983873895, -0.19345437179645, -0.17919823499364, -0.10830715768796, 0.02012601023493, 0.05055398018399, 0.27148426509893, 0.0639336356151, -0.27280087158837, -0.14606617055031, 0.26817835823422, 0.22472529961456, 0.23228891433965, 0.11590695219893, 0.12216795661168, -0.01911296435917, -0.08948403178223, 0.13843198757731]
[0.10162844469108, -0.06516093785297, 0.10364361432725, -0.21389915483285, 0.23922121985056, 0.08938313239833, -0.17945278609601, 0.13047746848473, 0.02093626086212, -0.1009815270616, 0.19389693568354, -0.05561753688803, -0.25958709951832, -0.12288231540948, -0.16502210428264, -0.0345121721072, -0.10349098173048, -0.03770585993987, 0.06823988578559, 0.0337839133778, -0.19065059026542, -0.02415932389958, 0.01350926583839, -0.06391007155029, 0.13909275822463, 0.18739823493604, 0.12381685056866, 0.27008335934279, -0.13083717929645, -0.06152087496056, -0.14566565786891, -0.05419224635989]
[0.2637059797115, -0.18302117485072, -0.12238674945277, 0.15992116748409, -0.28271054660461, 0.13195356569179, -0.23411918349856, -0.21557960977475, -0.01698331078588, -0.12638353185179, -0.00264388766449, -0.28741450364261, -0.09577847127353, 0.16712775049097, -0.05469051010689, 0.17838258677154, 0.23437615994088, 0.1675998288138, 0.19814311108515, 0.26110204787723, 0.11017578962698, -0.0515476943417, -0.26567331607602, 0.19018455338286, 0.0156311584057, -0.13415790895773, 0.21021320208915, -0.07220476718879, -0.12659037510067, 0.03082546650392, -0.01139055644255, -0.25916710831332]
[-0.19136515876337, 0.28756576968223, -0.17417627206854, 0.2653821758275, -0.22892026558954, -0.18488425769446, 0.27407121672553, 0.17267807824095, -0.23625390241168, 0.01931642854734, -0.15891900317865, -0.25878642576372, -0.05477727241144, -0.03083070358943, -0.15720932172366, 0.26091300192158, 0.14932981577943, -0.21464945804784, 0.21086072946063, 0.19445945050227, 0.05487128943687, 0.27276357021267, -0.24189038599366, 0.01599583646857, 0.10458527133297, 0.19090728217344, 0.24157921153073, -0.04349251798031, -0.15876212650626, 0.16372810232668, -0.04617442706054, 0.00836331015934]
[-0.29147243249801, -0.11049509633621, -0.02596181207116, -0.07513054109861, 0.11630647785889, 0.10479429898251, 0.09342006351745, -0.05666272937354, 0.04989748497329, 0.04467236746936, -0.14283301180335, -0.08292256116757, -0.20761568936507, 0.09468401960212, -0.05976649157003, 0.27264745805301, 0.20663185238417, -0.1943350507964, -0.14558745644379, -0.07404108107422, 0.15433214973261, 0.09068081460275, 0.19518497100956, -0.07386704584485, -0.10231057549858, 0.2388059228146, 0.08118559196603, -0.06457944142236, 0.27129132284727, -0.21350865186863, 0.11079881695739, -0.08962066158283]
[0.25018818564011, 0.1087220906821, 0.2095016913196, -0.17890204730417, -0.12396329543465, 0.03927424381943, -0.27320606239217, 0.03267423131812, 0.10915547324932, 0.13506309608856, 0.25679653427202, -0.02549151362655, -0.23907184665962, -0.18218893442254, -0.03678555261864, 0.2064983757533, 0.27852252662178, -0.18341176482594, -0.29586959884292, -0.24203313872911, 0.06044116395126, 0.20296944658989, 0.1873451048146, 0.19753249661235, -0.14057507729793, -0.08753272893433, 0.12246144316106, 0.2649871759843, 0.095655063645, -0.14026680706979, 0.09828127251213, 0.20313365403567]
[0.17515505442252, -0.2913435929164, 0.02911249255644, 0.22815769442996, -0.21523297080576, -0.13026825810669, -0.25642505831527, -0.11538475483671, 0.11794906115853, 0.15107893853649, 0.17770268359184, 0.23369865533726, -0.26559910768346, -0.16156446092975, -0.15047788938299, 0.27854441287365, -0.20593281477765, 0.23403406934982, -0.23770531531583, 0.2812619466083, 0.08805090465715, 0.18313377718745, -0.25563773669423, 0.05863557189394, 0.29050457854855, -0.29535827960789, -0.05586954441064, -0.07283406533027, -0.11936501356181, 0.02838157968112, -0.21845580785636, 0.25705811731102]
[-0.19499163588727, -0.16429490344611, 0.17265025201773, 0.15030715938755, -0.01049494664717, -0.04868173127437, -0.15260434273487, 0.26901594300691, -0.22913794826569, -0.0715162064678, -0.12726853781922, -0.01811841690839, 0.05408181722923, 0.12834407047825, -0.11065744059237, 0.21463859568773, -0.2942176521471, -0.26556977456313, 0.04420180841299, -0.08796826970401, 0.28863572525338, 0.02576315866359, -0.06858306722799, -0.27883208676841, -0.01161160961391, 0.25644087153004, -0.08636316602714, -0.11128046084583, -0.23567916804995, -0.26227077267929, 0.12004349336097, -0.0703424873946]
[0.05205416338456, 0.17856658105321, -0.24838646215276, 0.05003406632272, 0.28703670827038, 0.12910390428611, 0.11749653619629, -0.25772677339439, 0.29465871335068, 0.16295533634981, -0.05782242035369, -0.12155024725687, -0.00192198708995, -0.0545992146821, -0.136377155028, -0.00573243994866, 0.05609327018067, -0.25143677153794, -0.25490864434524, -0.21676347506554, -0.07442344879892, -0.00406056627888, -0.25830468077707, 0.28925051565802, -0.13081811396317, -0.23247894804527, -0.17055923789587, 0.15427963073051, -0.01647297467838, 0.00452711177992, 0.28627031434058, 0.09026504087197]
[0.10857738517457, 0.28348319440275, -0.11261335822245, -0.11228497212289, 0.2757894078743, 0.03901787992745, 0.15301864981542, 0.15856552867294, 0.06332890873839, 0.27758428315153, 0.07086647300113, -0.12742369872752, -0.09594378891715, -0.15391938284033, 0.02988281559596, -0.09342729105564, 0.10500914305674, -0.18682288683324, -0.14623533398004, 0.06866767261921, 0.0016290108425, -0.160067201204, 0.0049562690312, 0.18497556348897, -0.22539012918602, -0.19387427707467, 0.01074801958312, 0.15572996399847, -0.05399213303629, -0.29364672411576, 0.22915443846037, -0.14780312631653]
[0.18392120345686, 0.02520792360543, -0.16377270762776, 0.03923467099241, 0.15224525742028, 0.07208387998941, 0.15008936276, 0.05607028956067, -0.19696863957477, -0.20917728056372, 0.20868879403807, 0.03513924146767, -0.23555308141501, 0.16710082809923, 0.14186087865028, -0.29246713562136, 0.12586437862801, -0.04095166503477, 0.13629089144312, -0.04882273760682, -0.21770512610069, -0.11326387872167, -0.2077195598907, 0.23669661089952, 0.15801622550971, -0.01720720416715, 0.20350678437976, -0.25477133869485, 0.2390759178553, -0.17198965816335, 0.10274828249812, 0.25460548674226]
[0.11761163474292, -0.03502086333055, -0.18215724338993, 0.09175927555227, 0.23130280679139, -0.08278118669938, 0.09749668512057, 0.23097916172939, -0.07746322306707, 0.14794028683716, 0.14383827353859, -0.254133888878, 0.02732414653088, 0.13387449852177, -0.13677676844226, -0.22869825374208, -0.18112466373485, 0.22179446388412, -0.11887176720493, -0.25402825517916, -0.27782985766289, -0.0801502578321, 0.13845019510923, -0.17798628765363, 0.12850841668518, 0.02986419360324, 0.05258624813779, -0.03015700252068, 0.26553516128099, -0.02483511777637, -0.10315921611711, -0.12500381812555]
[-0.24725371174746, 0.19133308490253, 0.05403280352406, -0.03313182448031, 0.10783253508198, -0.07711830176203, -0.03668249237753, -0.08120997107339, -0.03534802135563, -0.16600505316781, 0.22834110871505, 0.05669704653698, 0.13406497674458, -0.03594985573121, 0.10096666761926, -0.19303495418977, 0.08753703827769, -0.0134009681201, -0.04832867650818, -0.11348647927986, -0.22778043756213, 0.0054558797805, 0.10119859881343, 0.14605635019675, 0.09963749846717, 0.05537029520851, -0.07154497179888, 0.26621771470012, -0.27666922691767, 0.16304103926329, 0.13757890688795, -0.11441188120721]
[0.23048378150478, 0.01886222314211, 0.13416899846966, -0.26596644070363, -0.18526812923741, 0.00269683494091, 0.26376955780232, 0.2280452404995, -0.07408272518275, 0.02157728083751, 0.01474308668552, 0.21442596199387, -0.01042244003209, -0.02006693111941, -0.21871896653876, -0.22025213272035, 0.22600939946182, 0.09195649658585, -0.00956169884213, 0.25088657305518, -0.21533716434723, -0.09665804481255, -0.13888868935977, 0.15682901025088, -0.25652077141589, -0.02384826855327, 0.01785252771055, -0.27085895841838, 0.00641857532114, 0.03021160031411, -0.27008328350301, -0.06146727820628]
[0.09645387095884, 0.03189626884477, -0.16604276399772, -0.21854707007043, 0.02003122232578, 0.07635977379063, 0.20517284630181, 0.15594853320256, -0.26417164148548, 0.17676509569744, -0.18242871790777, -0.26597200959753, 0.0948110248622, 0.06125785757651, 0.20463233593161, 0.12074018852363, 0.1290227073619, 0.07096952557252, -0.29002528966401, -0.21945932801463, -0.17467146259364, -0.01567127910878, 0.06444462706932, 0.03887219671899, 0.01653228161641, 0.13501961398885, 0.07089249211319, -0.036890802865, 0.05432650849906, -0.01179530688718, -0.1272706087502, -0.28866573782299]
[-0.28822467855455, -0.113579178142, -0.21365246259483, -0.13941930226522, 0.18814250889961, 0.06189936707904, 0.10588946886947, 0.06671107026649, -0.1085991664482, -0.17359653925305, 0.01528536584301, -0.06169880201658, -0.01135054126641, 0.01297059897795, -0.08882270703397, 0.1823302620902, -0.08260540748237, 0.23748301279238, -0.15944156052543, 0.06315976792681, -0.07320715785427, -0.01421830632114, 0.15486556290068, 0.21109118865539, -0.20832249363863, 0.00483365934047, -0.19005161020813, -0.24085266752142, 0.24088995461319, 0.02154611508435, 0.22166936431028, 0.20963676942804]
[0.27147646563409, -0.0790394195496, 0.15933214989754, 0.10319180968611, 0.28341109357132, -0.01031472985176, 0.16410550090159, 0.27352622421771, -0.15356988132477, -0.20658790505566, -0.26134592401566, 0.24466194397979, 0.03604465309944, -0.15106233262042, -0.18641759607039, -0.17495230571431, 0.27916994596329, -0.25856585964524, -0.23655114931631, -0.01705292196812, 0.28248573031054, -0.04103050515204, -0.05860903089109, -0.14437633481417, -0.28182196538312, 0.01146231948879, -0.21432007159028, -0.1768147989536, -0.22923363896291, -0.03414562901298, 0.26765618677655, -0.16932698291256]
[0.16168581093921, -0.22582794759101, -0.08632030675406, -0.05894581717292, -0.06461261434182, -0.27226301704652, 0.25895371380063, -0.06014642207273, -0.23663830636666, 0.26566891189404, 0.08913901230316, -0.28017608907476, 0.05013614447768, -0.08723103490351, -0.1848852786998, -0.17983748284494, 0.25758394299952, 0.29031234465357, -0.2361577143233, -0.05552341259125, -0.05131303663275, -0.00953105570093, -0.22687115351593, 0.25541933572104, 0.16551597312077, -0.14622052183449, -0.06813971439802, -0.18008767483915, -0.1085631757971, 0.08338871846649, 0.06964602099451, 0.25187841686722]
[0.22718164017693, 0.07131122427855, -0.06219260277187, -0.20408943102532, 0.29126236806434, -0.06963509203533, -0.2900277905814, -0.05991907026738, 0.2137976417331, -0.22173753331233, -0.20972433409569, -0.01688787573433, 0.09637052511165, 0.08169051005654, 0.10041980309259, 0.15763152857856, 0.0896440257144, -0.13343127982978, 0.01576206624198, 0.24270843754146, 0.29033521212877, -0.27623316741721, 0.13744391447855, -0.0486355137103, 0.22300166686106, 0.01915369800785, 0.27423600671898, 0.0702913944036, 0.01840161185734, 0.17313344054243, 0.19761957937338, 0.14534523844576]
[-0.26533690879508, -0.21905488309792, 0.02210396111414, -0.18618033466238, -0.24573228936879, -0.20930408900248, 0.03515274809012, -0.0604813456523, 0.0165725931535, 0.21694199439099, -0.04840585968375, -0.22454467768089, -0.13212461852051, -0.29287239205417, -0.04011565612653, -0.09151076065848, 0.02203045580077, -0.24577819510146, 0.28760158390962, 0.24383922388307, -0.14479103947508, -0.18687624056886, 0.23142598895609, 0.27762518261786, 0.04783748735363, -0.21182660989133, -0.15152213083501, -0.22305899748878, 0.20227544511216, -0.28079622366202, -0.21642904201897, 0.24073106942108]
[-0.05677461390389, 0.20700449717915, -0.02538236849206, 0.15556182650827, -0.04385004897218, 0.1898326297148, 0.1287933170248, -0.19602143109593, 0.15933916823562, 0.01827888513742, -0.19108052847164, -0.16816757810291, -0.14535326644838, -0.21060159910873, 0.07653753847492, 0.03247765577489, -0.22948473470745, 0.17317126194682, 0.074377582328, -0.14303738734292, 0.04199130187455, 0.2641918935341, -0.08191369290138, 0.08390322971446, 0.02988638039196, 0.18248762419327, -0.1343733345253, 0.29114444916145, -0.18397595030276, -0.28037200313605, -0.17408736667449, 0.18267784126746]
[-0.28908557402214, -0.20851787501552, 0.07009460008506, 0.2260660891652, -0.00745107482887, 0.20613687525063, 0.00992233709564, 0.10039106610851, 0.28415893275414, 0.16558531349959, 0.22799819524088, 0.13958143422732, 0.23786492653997, 0.05088406431143, -0.26830581020792, 0.04769013604144, -0.02142445122492, -0.13097023636927, -0.25804762556221, -0.21513406235848, -0.06598137615646, -0.11273131701797, -0.21353367953872, 0.24692322306671, -0.07491509059895, -0.25566615641749, 0.13052400313141, -0.18255497862192, 0.0041218495807, -0.28254323065946, 0.04667542084788, -0.18453762966357]
[0.27267591179036, -0.09946760867839, 0.238993905404, -0.27633172012135, 0.00850552331286, 0.09603032385813, 0.2605484333329, 0.11157843164484, -0.13037069374983, -0.12555767749712, 0.07496334170239, 0.2815344518801, 0.10241919039316, -0.07293251739935, -0.05561402639262, 0.06323483765074, 0.06941008323707, 0.07717102102501, 0.23143543529664, 0.20244057276128, -0.10360801472012, 0.25803799684274, 0.28088816158827, -0.09402208101415, 0.26373861688176, -0.12177739180839, 0.15514318724924, 0.27991219832763, 0.10614551325145, -0.15001910348447, -0.19826908546764, -0.024788442776]
[0.29016828374803, -0.12067916784805, -0.00544591165133, 0.27057805311787, 0.12083049647166, -0.13547016309464, -0.05492864619031, 0.12733953540701, 0.0243739092214, -0.09607144996162, -0.1788280360357, -0.02002604444967, 0.08590318693659, 0.0835421441431, 0.00653039623912, -0.26720656883174, 0.15616197520711, -0.20526675499054, -0.0105573034662, -0.14158135785724, 0.07694391556213, -0.24841170422284, -0.27754935188171, 0.12121260970178, 0.05700786191482, 0.20964461268919, 0.03325917537727, 0.21644715327558, -0.23362659284064, 0.23663874858931, 0.29195589906833, 0.23595759400076]
[0.29104236920353, -0.24491356970654, -0.15201999955996, 0.04687749918664, -0.18014346349596, 0.02725357745173, 0.18248291924432, 0.23095271260222, -0.01935099359596, -0.10961388269177, -0.14235310926201, -0.2502852227623, -0.28733696004744, -0.04091568889207, -0.28144719574896, 0.05668154550311, 0.03881954186583, 0.06914767856529, -0.05952961700595, -0.27766839865301, 0.13869771725157, 0.18030727181315, -0.18775627225135, 0.07503312388017, -0.15583793069048, -0.26257639497998, -0.28762892971902, -0.20467158538366, 0.04074387210618, -0.03336058836172, 0.21683366415467, 0.20300915896207]
[-0.02747415709605, -0.03377995836287, 0.10421954601034, -0.2387345237133, 0.03075969393768, -0.18615735391132, 0.19883088951678, 0.09582329844429, -0.1926079776384, -0.18565209184901, -0.07680740011351, 0.26185288217006, 0.27287595115723, 0.18636653697344, -0.04491843617689, -0.07244492492102, -0.20306877531301, 0.16132487822789, 0.25372163317695, -0.28510137804655, -0.11609136607378, -0.11571285757323, 0.07301333277643, 0.21286115196669, 0.2039555784857, -0.09565278427499, 0.19696688441847, 0.17061746479454, 0.1704468927226, 0.21840228361098, -0.06520395803778, 0.12072401809014]
[0.03815014161751, 0.25332250139341, -0.2046359777413, 0.02484697041105, -0.0067212954573, 0.25240921623092, -0.26578712880278, -0.28799100481307, -0.05599837220465, 0.23826290656383, -0.08675212461806, 0.26325274250056, -0.15126413008673, -0.13944923728175, 0.18969160106325, -0.25199475682117, 0.06651414428307, -0.13188340941575, -0.02980121765394, -0.08858483431561, -0.20896959195885, 0.23278569016494, -0.23558458185325, -0.18440154051809, 0.06935323566921, 0.10646085621349, -0.14515655554271, -0.25292732261966, -0.232427814523, -0.2728776111196, -0.21495486990912, -0.09883099255577]

[-0.06556168372965, -0.20165978457639, 0.00569038905981, 0.23225710039421, -0.27503431082574, 0.2486431487492, -0.09069223713646, 0.32140318254578, -0.18684934618166, 0.15344087183882, 0.17011102720277, 0.25475414150231, -0.29037402697236, 0.25063173819927, 0.2388275408281, -0.24280360243582, -0.28908298748328, 0.07198982318781, 0.01654032617567, -0.26394059178884, -0.03477581546067, -0.13128352822786, 0.05905424866225, -0.26465882791101, -0.18667914547658, 0.1846328304859, 0.29040982935553, 0.28116756683076, 0.25760982988337, 0.28847268338012, 0.25463592209379, -0.22518056888477]
[-0.00838907272508, -0.17541076926444, -0.27973666167675, 0.29184221160826, 0.14535744374124, 0.04518226877806, 0.27577903795261, 0.11082431612752, -0.1762832065926, -0.27854283341104, 0.25898640101184, -0.10436666619116, -0.00860717652918, 0.09075046500742, -0.16376202276243, -0.15926491137191, -0.18501160288026, 0.10626602792379, -0.16434025699747, 0.29232069971233, -0.14521191145095, 0.22469983304412, -0.0169282882251, 0.2957754415658, 0.03808591391302, 0.16632332773455, 0.0591944458013, 0.01286307115359, 0.23312799505278, -0.0580762152068, -0.18676510564931, 0.14397623822977]
[-0.22064837074165, 0.09657305118375, 0.09911182493708, 0.06033464768836, 0.14501097536875, -0.19131580063682, -0.14407663292768, -0.26328830053297, -0.21342785982374, -0.15313514212618, -0.18547021131157, -0.06474673583532, 0.07473407094484, 0.08609308331169, -0.30954718333124, -0.08616026205743, -0.24522534248555, -0.17932445739021, -0.2173932902227, 0.20766348283938, -0.04788919107337, -0.24147665279563, -0.09350797999221, 0.21798906525993, -0.14777256518454, -0.14349654097105, -0.21994746134791, -0.1586663613525, -0.06841825975178, -0.22629328734917, 0.21007414017175, -0.07376974942265]
[0.20266446388894, 0.27753921313091, 0.01355767197367, -0.06704132022415, 0.12321128092265, 0.2690628881653, 0.03068852249744, 0.16937467021983, -0.16090318769025, 0.12373249665623, -0.22268519369539, 0.19859013445115, 0.19739389728675, -0.18720545676749, 0.09401047646406, -0.25872362184773, 0.21372727993046, 0.2658354543272, -0.21383130692674, 0.10729635738343, 0.15022418170655, 0.23916772831557, -0.00807919427637, 0.07646584557794, -0.00463679209443, 0.08178798529842, -0.01115605298387, -0.22670821796173, -0.0676637705865, -0.02565783740342, -0.28233299650251, -0.24547454175686]
[0.1242302439055, -0.17806597207452, 0.07773797530946, 0.3031798205372, 0.01802979895812, -0.25617860018137, -0.06434670943758, 0.15455660190596, 0.26612372055877, 0.00000399741929, 0.15702224537961, -0.14888240635021, -0.21676075608408, -0.04102707385965, 0.22219998998263, -0.28413486146634, -0.17727444076931, 0.12830852751538, -0.29064234459654, 0.00813347035241, 0.0144423496313, -0.25404855527856, -0.27669930434167, 0.26250428498371, 0.0411206240554, -0.04192909684767, 0.20745883736536, 0.18665980134891, 0.03258764468874, -0.08682935531415, 0.00292114034198, -0.15372929357776]
[0.22843613411441, 0.24943464736766, 0.27348592951298, -0.02858841159861, -0.00281313515573, -0.25349918008383, -0.2375429426757, -0.301255596177, 0.2678981464302, 0.21834566081575, 0.11770267795198, -0.00687362707914, 0.17336324292797, -0.02000261914047, -0.22523954207121, -0.08412033721607, 0.01736681538687, 0.03204755295644, -0.01702289146119, 0.12040948729733, -0.11650896954576, -0.16470489649841, 0.03157100681561, -0.14706687236377, 0.10844447025867, 0.29967330429423, 0.20701226541595, -0.16098763250721, -0.13438341540814, 0.00778474635621, 0.23926443257507, 0.03823379920599]
[-0.30474168093327, 0.07522100475925, 0.16970681072478, -0.22439256048456, 0.1001341511936, -0.10791419840886, 0.28352664089112, -0.13179010729951, 0.08363085921505, 0.01529130865254, -0.28717053454559, -0.18288442125634, 0.182657270607, 0.22174878064727, -0.12347424121079, -0.11088432281415, -0.07514705454649, -0.00322525327388, -0.22199762012624, 0.2927482381265, -0.08259324830132, -0.27652201897745, 0.27557679311119, 0.17406151927558, 0.06286981400041, -0.06348474766591, 0.27312445329344, 0.26415265719962, -0.25341171219528, -0.07162764683313, -0.06147573334669, -0.08180007059297]
[0.24119559659774, -0.1625319235571, 0.0215182206931, 0.00661315857934, 0.14883201287904, -0.05570482600381, 0.02330389953477, 0.19632879323633, -0.21778257749189, 0.1108678635065, 0.09765511318456, -0.13203100353459, 0.08812848365444, 0.10542443482205, 0.25605735407077, 0.27482771866516, -0.23311322323682, -0.20867179357554, -0.1951572311506, 0.26148595810087, -0.03980188997121, 0.12543590410293, -0.09895746724466, -0.27738250001027, -0.20435533005813, 0.17070663257566, -0.02298593476226, 0.29993504549655, 0.0944913903093, -0.26008717528081, 0.08269051744812, 0.14141992198737]
[-0.2120360840887, -0.18450260962281, 0.23808807210728, 0.02697893044438, -0.20627474296578, 0.10967331820184, 0.28748204589801, -0.30417793198636, -0.29912067846467, -0.16838026278678, -0.06479797682673, 0.28791410497206, -0.02029321535033, 0.08228534098338, 0.17161941157492, -0.01723159271603, -0.11298897822489, -0.11662314484195, 0.10354508292098, 0.28777544076673, 0.02450271951641, -0.11036205005085, 0.12427969967724, 0.23342983116129, 0.11281480067485, 0.13852507273777, -0.19029502909876, 0.02471670950467, 0.18198318141346, 0.11513300127381, 0.10831660826792, -0.13345710390672]
[0.17384479974827, -0.0934976252173, -0.2241415187178, 0.24106642952451, -0.04340468571047, 0.22064806384329, 0.20225385670257, 0.24487480971402, -0.28411647858867, -0.04765096862489, -0.1487721404425, 0.0402690032833, 0.26315251170388, 0.28482900376229, 0.18439416399993, 0.11192190080986, -0.03126211561168, 0.02827864379352, -0.10085275298276, -0.23584687796149, 0.05172750557197, -0.25296407257206, -0.0788773737372, 0.00567442499104, 0.19038762870208, -0.00275665079525, 0.09777325222079, 0.1664373603502, 0.11591375282353, -0.28329808312447, -0.12989408725942, 0.03775583176329]
[-0.17188440740385, 0.24963506344198, -0.25384342401895, 0.11902683666073, 0.24371211087467, 0.02511407741571, -0.2544953775563, -0.10781879690273, 0.29482981877667, -0.34647684863468, -0.19381225839798, 0.06150767114064, -0.15963776917226, -0.18248177603723, -0.1322754120948, -0.21019988515422, -0.08716965320389, 0.08653264636328, 0.16287245579787, 0.13541350111685, -0.13536805649404, 0.0870997638533, 0.05154149530667, -0.24976094014174, 0.10482127976463, 0.26491291966267, 0.21265093428065, -0.04744633861627, 0.29546554238356, -0.00936659284788, -0.04668936281263, 0.00891060528119]
[0.2421558243145, 0.00353370387556, -0.26568633120042, -0.30459837807438, 0.0679905045277, -0.29208615485023, -0.17090478739443, -0.23929615155089, -0.1642336436069, 0.0703619395727, -0.28027561903989, -0.13181001550596, 0.0631788955776, -0.10587330089244, 0.19513688487594, 0.26019767723874, 0.08822755626316, -0.24350943517597, -0.11862722777082, 0.02363340368934, -0.25735546394927, 0.08554408163015, -0.17556348330947, -0.00743702066513, -0.24636575472007, -0.25198871634967, 0.08221724609648, -0.25592865582783, 0.16084212625889, -0.22036908096311, 0.05828682437876, 0.01510844428593]
[0.04529520822723, 0.22151258411223, -0.28844984680733, -0.28969621296343, 0.24742309962681, -0.30462190620578, -0.05049009927175, -0.16638019292902, -0.26502263742682, -0.1884586275198, 0.05054026985615, 0.1775761651117, -0.07042694721829, 0.08679838553409, 0.10140737566305, 0.09209718081504, -0.18295488579114, -0.11900908112007, 0.02019562146401, 0.17161287815221, -0.04242394478204, 0.17929244285179, -0.01331886367909, -0.11552107568419, 0.26667148578201, 0.02087479047048, -0.03041954855366, 0.02420598921451, 0.16583403246447, 0.24513286488285, 0.06175402135783, 0.21114824491979]
[0.03463384089532, -0.12389393282639, -0.16741943561539, 0.28343561944943, 0.22512664600495, 0.14168911228882, -0.14967761223078, -0.05710062176471, 0.25664960093867, 0.19968328410765, 0.23484314841835, 0.18276048622655, -0.04866622983617, 0.2252286532377, -0.10633458858161, 0.24008497819335, -0.15431300696306, 0.14927253502178, -0.27407251010711, -0.28903465235112, 0.15381463578787, -0.02323475782665, 0.10189240805014, 0.12362362212847, 0.15717442687361, 0.23271035037904, -0.10842676372995, -0.133277709309, 0.11542663495192, 0.09239668994876, -0.09139280233053, -0.02735488575621]
[-0.20894044313355, 0.11802098016822, 0.06366986506585, -0.20885729796466, 0.15047071248152, -0.11249463833145, -0.01999261366266, -0.17386608030157, -0.22301750627454, -0.15067637579703, -0.06066724474077, -0.011883496154, -0.00478157596338, -0.21807774283374, -0.0440267499557, 0.2309212900452, 0.18166451089285, 0.05509300399248, -0.11550332156995, 0.19472298451566, -0.14223290507051, -0.17269629757757, 0.29422987741869, 0.29969311073669, -0.06243342493701, -0.07550860117857, 0.07235139017462, 0.30013380567744, -0.07472906335463, -0.22028952862958, -0.20978413280537, -0.22384119561474]
[0.04452943205118, -0.14939322050737, -0.21625616619748, 0.1586501930914, -0.13759774833118, 0.00862029396111, -0.04739142364289, 0.16057554706568, -0.26037287738963, 0.29286815159157, 0.04235758256179, -0.26968731197098, -0.2884876200747, 0.00176048387253, -0.03956602901432, 0.16010195234405, -0.23252274998709, -0.3036407458372, -0.21372217941023, 0.20611791276524, 0.1603075445509, 0.02434102030736, -0.02817033009424, 0.23813397333376, 0.17916429937976, 0.17630592952045, -0.05394786526443, 0.0992815348627, 0.15747104823491, -0.2631934549549, -0.00659320218255, 0.2512956606372]
[0.02034951755128, -0.10317365746979, 0.26601217924512, -0.16279331765537, -0.22669870999945, 0.0529311759588, 0.10649780141336, 0.13954450065821, -0.21993740382278, 0.28140624260378, -0.0371319618206, -0.09747231318743, -0.24926543687014, 0.01250633954595, 0.09068461024097, 0.25342960080084, -0.14868131962731, 0.15878054290597, -0.20529927791356, -0.23048510961094, 0.03746872337849, 0.02462620178916, -0.14423781435163, -0.21715054544154, -0.14622342974135, 0.09725989594612, 0.06937826679559, -0.19483494280168, 0.05987700629459, -0.10940206060273, -0.04278039132506, 0.16949996108731]
[-0.2313345118086, -0.237464958541, 0.12647038379074, -0.11737729953815, 0.24689147403944, -0.20171651718137, -0.09859812477782, -0.21730272913283, -0.30562059614319, 0.1586204923392, -0.00822792397448, -0.23770364001457, -0.10788209531747, -0.20428271714983, -0.09704197385992, 0.06725146504562, 0.28772107655925, 0.18098435969305, 0.18321639315001, -0.26055876699488, 0.08395772364863, 0.19560404658121, -0.01335237260061, 0.02272905854858, -0.21994146470453, -0.17090791797199, 0.04192316871144, 0.1414369476916, 0.0057542484037, -0.27639079835009, 0.22160101736364, 0.29761793469536]
[0.14475129616931, 0.27506352102352, -0.16421104474903, -0.10588399559997, 0.23224698029863, 0.26785440371672, 0.29591247974254, -0.26365617788691, 0.16543474883787, 0.20710090098676, -0.13820196783763, 0.22937045985247, 0.21851921585145, -0.15570082226198, 0.11611868402931, 0.11097800402853, -0.06455093515133, 0.09783249321984, -0.06139442853205, 0.08007634195802, -0.23840213474133, 0.12628331166495, -0.26892158567528, -0.10706319007986, 0.09213526439061, 0.09650560111536, 0.03514340938187, -0.03289671583177, 0.22896623128458, -0.15902564400992, -0.21198723551777, -0.21948399369403]
[-0.28604510783296, 0.1534105741466, -0.13770290383596, 0.25755216927844, 0.19138593997682, -0.12727635584282, -0.00455041470984, -0.25127569096086, -0.11765342574008, -0.19996019268707, 0.16887154858007, 0.17667508787816, 0.2002273586476, -0.13837066948779, 0.2583107944802, -0.25207645913743, -0.03822291714657, 0.06034554856258, 0.23738015521933, -0.0272139316565, -0.01134083476681, -0.30521342655171, -0.22069172635296, 0.27725657434067, -0.25920511469792, 0.17127538580698, 0.21906385547013, 0.09621749595523, -0.16924223193305, -0.00946695581545, 0.06710048973211, 0.08295447807288]
[-0.13906342120052, 0.30290072833884, -0.14258740599555, -0.21474773514657, -0.11821562189869, -0.2629274858698, -0.05314363234764, -0.09779476099459, 0.26217570488695, -0.30439298581836, 0.10007407701212, -0.14601725008184, -0.1224063912907, 0.2473007727476, -0.22769641403958, 0.13055313953047, 0.09340940995039, 0.15157909925651, -0.26113281163412, -0.24631392112303, 0.13946546417207, 0.2251158843936, -0.07158878683986, -0.17740469260756, 0.07464123473004, 0.07773031892287, -0.18190980191297, -0.10130212522139, -0.21315237093584, -0.00328972815986, 0.02060009256943, 0.07428556078045]
[0.15603036435686, 0.01207141134376, 0.11313049470606, -0.28643957451703, 0.19488854219273, -0.20304660527652, 0.0297281466308, 0.25562652297646, -0.10295930917656, -0.22896749525249, -0.22670423083009, 0.12872922999247, -0.17139090622173, -0.16453966870833, -0.19192130351931, 0.11758349149475, 0.19095423395703, 0.20487088780583, 0.00674444757871, 0.10812477705471, -0.28739278963925, -0.22761500156392, -0.16169342978743, -0.00509066749472, -0.17648993109234, 0.19945197907406, -0.02972012798083, 0.17115782323184, -0.19753561012915, -0.21977945315454, -0.17341161338875, -0.02594426611857]
[-0.0121670693526, 0.22328458771112, 0.16727040101327, -0.2783539265858, -0.04936457702512, 0.07170293418755, 0.0269715909471, 0.15499438380595, 0.18222545316113, 0.05442783437722, 0.15317757875921, -0.12040833181515, 0.26893056492601, 0.23710288748425, 0.11158968214565, 0.02498742226282, 0.23277016612008, -0.17011205686731, 0.24418397749729, 0.25851664715742, 0.30232949357902, -0.09310848031639, -0.21912697972803, 0.22957388672622, 0.12891776925597, -0.09509293093232, -0.01478208236311, -0.05720147825252, 0.25822225780827, -0.30245579315638, -0.16991075778854, 0.16085144772286]
[-0.02319290334832, 0.05330043348315, -0.1106830143275, 0.21875508559025, 0.20086659010866, 0.29006141954119, -0.24201730877243, -0.11997024653126, -0.2279943974481, 0.1862844032432, 0.19597329477112, -0.02652069386594, 0.17614187746334, 0.1595013720095, 0.08231458348962, -0.26794645101548, -0.23500552164251, 0.295810306163, 0.13895865536826, 0.08424585867216, -0.26365671382459, 0.12478074988207, 0.24288212600201, 0.25253913095133, 0.07005922702916, -0.20777519155788, 0.140363499083, -0.02107116017379, 0.30433030502881, -0.30214969163786, -0.25758605592523, 0.24966967528515]
[-0.20673445103466, 0.1352712749082, 0.29117860282663, 0.01885593521025, 0.17822539973134, 0.07117648536399, -0.09251883176287, 0.2532701641093, -0.03122091361398, -0.20056823519502, -0.18440842543172, -0.08294384606751, 0.06604515010481, -0.00029302269442, -0.00235754041366, -0.17156571519266, 0.2945653358335, 0.12062442206832, 0.29204975573489, -0.04530253514377, 0.16993221931001, 0.09574049934479, 0.30575152336513, 0.27075078273912, -0.18021267633726, 0.25987624594538, -0.12320138641522, 0.25095099866268, 0.27995075178607, 0.13859398276932, 0.00984144131154, -0.17168420806917]
[-0.26487972221804, 0.02505926273947, 0.26314310616068, -0.10454449853203, 0.27621819472648, 0.21467304099499, 0.09057025175852, 0.02976112658429, 0.21397241361675, 0.04595133131589, -0.07286651490887, -0.02959802489556, 0.23441756894273, -0.02745207785261, -0.25169536422701, 0.03094335304855, 0.06585503144351, -0.01209008271541, 0.20545054297674, -0.02536719064777, -0.2373373167353, 0.07764164242576, 0.10525373500701, 0.26350001806526, 0.14334692154159, -0.13065787869782, -0.2755958441659, 0.13267874961406, 0.22906362121084, -0.17728400990423, 0.14441024718853, -0.27037380149342]
[0.04414165136548, 0.18132890787368, 0.22765081184927, 0.05076740031057, -0.08862294043239, -0.10367538200913, -0.23630441946732, 0.29972539875332, 0.16778856973373, 0.30166070222017, -0.09354457964671, 0.00856221717129, 0.08972199395861, -0.20760040361768, -0.12105216426021, -0.20343072932899, 0.12558229655529, -0.10381187550261, 0.16131027920101, 0.05513474989038, 0.05699374984179, 0.15753266690013, 0.02312533533301, -0.21610403210695, 0.00245092446888, -0.30567405856901, 0.06084368564971, 0.1240483255878, -0.21975069795275, 0.30092107228491, -0.17460059512943, 0.28681410605538]
[-0.2865069137392, -0.28057620565422, 0.29725311110682, -0.15636680914617, -0.19933818786255, 0.00238027569752, 0.28238771384778, -0.20435170261822, 0.17191799355725, -0.2366006103757, 0.26470822466161, 0.13440926738909, 0.22109861076414, 0.13825948160686, -0.20437201950611, 0.04573998249913, -0.01653438079255, -0.19978352871426, 0.20168176454829, -0.18723289503837, 0.02096881440666, 0.28484343981314, 0.05535103947364, -0.08731127855751, -0.05836938940448, -0.19062910952648, 0.19651071084527, -0.10991231946936, 0.04614499077981, -0.08060033825178, -0.10683724930297, -0.02442739086968]
[0.00341311983138, -0.10429915785211, -0.13483070341672, -0.1501207834026, 0.09010355751663, -0.19407739961923, -0.12858437108145, 0.12735724972731, -0.09154916948211, -0.14446094203274, 0.14926131153892, -0.11294188420884, 0.20754006734129, 0.25226363609395, -0.08478953888554, -0.13083758748774, 0.07063698920255, -0.11854172478834, -0.11506354509225, -0.11864122801319, 0.12466335096591, 0.25945776101616, 0.21120101583885, 0.05518819532422, 0.32803121115698, -0.07761054497954, -0.21331481990792, -0.29126453938314, -0.11734134175651, 0.24344414339926, 0.18220391189795, -0.09854632215706]
[0.03191916790441, -0.20475206855342, -0.07320707899322, 0.17462806825546, 0.09686095213285, -0.28790024782688, 0.17796045218644, -0.26875651329707, -0.1240032731022, -0.00893403412993, 0.21816301360878, 0.03964191749998, 0.09963998876404, -0.02923531726508, -0.17278775009735, -0.19032081140402, -0.18079880486704, 0.05499205090646, 0.30401697895251, -0.23960053159273, -0.04549925783196, 0.18160503619161, -0.09685333050284, 0.06738183620029, 0.16331881099756, -0.05277423927217, 0.01765295237985, 0.06819920534228, 0.00413079402249, -0.09176222889988, 0.28460412893918, 0.23990720156532]
[0.24178778298372, -0.23032151607774, 0.11509464860397, -0.30301105495495, 0.15195700541416, -0.16452105534364, 0.17422804732025, 0.09607055587041, -0.1725935992789, 0.00165392826294, -0.26314634835113, -0.22234589160933, -0.17500100580505, -0.06039140135696, 0.01883538004839, -0.04016348650039, 0.23827870953766, 0.00185752400251, 0.02725958360915, -0.02006346865573, 0.11855508676902, -0.20322157090251, 0.18321485371155, -0.1684535944897, -0.12712387446956, -0.0668046683896, -0.19457286128771, -0.20478597694027, 0.18492632115978, -0.10839681737878, 0.2938291824742, -0.15486819481277]
[-0.32065638151653, -0.07268019804747, 0.13297588256475, 0.10947101859176, -0.12563702475507, 0.22544980717929, -0.23463507945, -0.16302562289042, -0.27883068326009, 0.0510653164384, -0.17634131381993, 0.0549441531423, -0.04780232914995, 0.13512673961679, 0.13943966261509, -0.03657450805131, -0.25618326137828, -0.24493657167675, -0.04707780958889, -0.19200302280584, -0.30385823136644, -0.06500376322426, -0.1861701688599, 0.1357168601034, 0.14886588544173, 0.14059900844855, -0.01660190836122, -0.09473366463245, 0.06552982079983, -0.17967171524236, -0.20911110407321, 0.06369374025161]

[0.15393736294908, 0.29434334750295, -0.35307134659674, -0.19416329865558, -0.27558655358996]
[-0.13827958303077, 0.39371671503994, -0.39590302741921, -0.28336223496732, -0.23423619502296]
[0.36436172225579, -0.24688374199236, -0.03487102465055, -0.33386332361722, -0.20329970779544]
[-0.38021783326644, -0.29891985400365, 0.05626652571254, 0.10416742250531, 0.37723201558273]
[-0.09408132171111, 0.22758740085972, 0.25000048811543, 0.1370057426406, -0.19157990497914]
[0.19759268150323, -0.2725571147646, -0.15548227564328, -0.35954182798719, -0.01998525093333]
[-0.14286576312596, 0.03402307930177, -0.35794916852228, 0.28095404570618, 0.05888975576574]
[0.18524172006676, 0.03444378689476, 0.29690002333468, 0.10448361990181, -0.26867064863698]
[-0.39940026532714, 0.02074874567309, -0.36224004396064, 0.01372127102672, 0.10427386579352]
[0.3576184287601, -0.13692537514429, -0.19553310224073, 0.13495899117437, -0.12520727818851]
[0.1016468408573, -0.06018349657597, -0.15773343199635, 0.21859733917953, 0.38134734850985]
[-0.1637739853412, 0.37311165995875, 0.28867903829738, 0.31661521168398, 0.27290701488241]
[-0.34032337763881, 0.10514259801267, -0.17703269214211, 0.33160112129705, -0.03318560739364]
[0.14319077623832, 0.37436610870892, -0.1948432196133, 0.06231146551317, 0.04177168692747]
[0.15394486173743, 0.36600345668622, -0.04174533112858, -0.39808700149586, -0.28337484572634]
[-0.24750026036694, 0.04115747882493, 0.07596051495129, 0.05630406598818, -0.3032939730123]
[0.18637678678164, -0.17437945675636, -0.03529201800103, 0.32240237221768, 0.3349241574153]
[-0.18079594585459, 0.25613933116076, -0.30111654207677, -0.38552323941641, 0.3077102133124]
[-0.18981266328378, 0.05051854099259, -0.23493526759265, 0.31317235954762, -0.01494471358406]
[-0.2940810972329, -0.21878582938105, 0.01076446464885, 0.33056822498736, 0.13478234174399]
[-0.27537350329948, -0.27160622353817, -0.03845783708552, -0.27255687056266, -0.00440408223975]
[0.16187630663904, -0.02158363559102, -0.1033953497217, -0.39739721361044, -0.12238461531381]
[-0.32177913709295, -0.14856932615788, 0.1110338791876, 0.00694561175291, -0.02696992484527]
[-0.29777876961795, 0.23945992456544, -0.28061043001769, 0.26316989445101, -0.10529289660691]
[-0.40065885214107, -0.34609157520049, 0.12681434593077, 0.23932485461602, 0.35484025238383]
[0.26101453485548, -0.17925650854918, 0.03290666586768, -0.02005939555506, -0.26183341028016]
[-0.39316161256679, 0.09883947791021, 0.0964947530808, 0.40172236978251, 0.14649554184542]
[-0.02902510295659, 0.13257874189388, 0.11903772837192, -0.36300785876417, -0.19093952373915]
[0.33066814182397, -0.02410313746864, 0.17317374098608, 0.22091041504112, -0.36791442144336]
[0.26141418451874, 0.0499005203211, -0.2677472861672, 0.05444410310915, 0.0670986308922]
[0.30248181536968, 0.38569195078704, -0.30429961515647, 0.25512283534636, -0.01561776919837]
[-0.22471539964897, 0.30913982538735, 0.17989497361895, 0.17671965776361, -0.28970285007984]


Best Model in generation 2, with a score of 0.620000 
[0.01909551455478, 0.25426231012342, -0.02507005489276, -0.21812218926562, -0.14516746532653, 0.13389174308411, -0.01411355108952, 0.15776242888681, -0.08572402527264, -0.08568571587546, 0.02838120311178, 0.292493248663, -0.25271852871662, 0.21279213167954, 0.24163445120835, 0.17872063552977, 0.18864009927585, -0.25447615514976, -0.1845031856051, -0.12612590134743, 0.27524652876662, -0.21674175202684, 0.03477784337023, 0.03437153374684, 0.26251799799178, 0.14139762972267, -0.09217643643479, -0.17467027969977, 0.19721749084382, -0.19361241646881, -0.03036664301046, 0.18038252394932]
[-0.13905193800198, 0.12892693477247, 0.16847350241711, 0.20139436817964, -0.17514994550681, 0.26763606752476, -0.28371845452132, 0.25119404005093, -0.13433719593879, -0.11235044106899, 0.09058892513194, -0.0981668733288, 0.23670823431357, 0.15377392964387, -0.02722378673171, 0.16922419519587, -0.1679715543603, 0.04711557591706, -0.2009713030968, 0.06594470073321, 0.02058791685948, -0.13118387053497, 0.03117951763387, -0.28389753223463, 0.09734334909512, 0.11125700974689, 0.22952756592057, 0.36184529209406, -0.11564171906698, -0.19438276065754, 0.20708850900273, -0.10585485284882]
[0.28905921746952, -0.22358711982995, -0.26555786001856, -0.18596297307062, -0.02648604575602, -0.2673253567435, -0.07997742964274, -0.26879788976152, 0.25252612555642, -0.27430765648087, 0.000240355556, -0.02246034932841, -0.203864768083, 0.17947210430562, 0.29208255949275, -0.11273030183133, 0.02384555658529, -0.14545104505736, -0.2598349456424, 0.03583434648204, -0.16208937681421, -0.07254972923022, -0.24988380162469, -0.05062909211069, -0.23112264515366, -0.24601236890828, -0.15968683501577, 0.20390735802919, 0.25825390375644, -0.14666925993592, 0.00484390565935, -0.12836822480013]
[-0.24599037561767, 0.20115578701099, 0.02956373466273, 0.12225092484603, -0.02775779442921, 0.20339149448431, 0.19739610799533, -0.21110285101369, -0.07134225322856, 0.12240943907813, 0.082578556888, 0.07192168117991, 0.206503003513, -0.00421358610833, -0.07200728557695, 0.07505929418933, -0.12973002977232, -0.25530547443131, 0.17932692983725, -0.20709282238054, 0.28382820043698, -0.04123833435995, 0.20666137357184, 0.09604356664463, -0.24009611683251, -0.07036292351387, -0.12023493670431, 0.19868561223291, 0.25841403173819, 0.18309188010941, 0.0501950331656, -0.27694437633722]
[-0.00644133030251, 0.03082734519854, 0.02832912439979, -0.17319425429016, -0.21371129840288, -0.01296904066621, 0.23890677750676, 0.18015161140418, 0.18598119914762, -0.27638009086127, -0.23826071703105, 0.02760260968335, 0.26945449948272, 0.15903961890994, 0.03580154592669, 0.19055023265559, 0.00553094536721, 0.06113123905852, -0.19134424237299, 0.06897469429538, 0.29696277757686, 0.13626373842022, 0.26591264258239, -0.00064649273571, 0.02948958387092, 0.10588846150032, -0.13513823260656, -0.12842683706696, -0.28133033974489, -0.27667070805746, -0.26028894437378, -0.14274922596181]
[0.19813072225667, 0.28016629393562, 0.03542105230985, 0.03473774953095, 0.21991999064605, 0.12987686696527, 0.12091554469029, 0.27911283693449, 0.10137105287229, -0.21278383279776, -0.19096753773043, -0.2845032414297, -0.10023026479817, 0.29344624882145, 0.06012745111671, 0.1018668737932, 0.08926746203502, -0.13891084509549, -0.04963422092104, 0.12811612684022, -0.07997850871103, -0.29457310438705, -0.23747011715241, -0.14360479364838, 0.27065374347344, 0.02864480869191, -0.1639087962536, 0.28184905197819, -0.09459494237314, 0.13755064299367, 0.11137956504879, 0.01316157369738]
[0.24905609038126, 0.18498166555897, 0.25507929296783, -0.23249120865504, -0.0523225087795, -0.0320765563779, 0.22797493898583, -0.21185178731316, 0.10232567028561, -0.11740673522077, 0.09700868282879, -0.24386170997019, -0.05929531751768, -0.27350838866751, -0.16676113327322, -0.12705997147762, -0.12973664971574, -0.01782544513606, 0.2223945582141, -0.17823425052077, -0.14921537771695, 0.23996171522153, 0.17894839012042, -0.22844800813298, -0.09734124515431, -0.15129033104343, -0.11805345890493, 0.1531205149109, -0.04980779919341, -0.24110494380316, 0.26817170773257, 0.03619359031865]
[0.19452652566441, -0.17628597372118, -0.16669516888834, 0.08422563585882, -0.25525655166416, 0.08318072083218, 0.2273082046677, 0.00459425033984, -0.22755261581425, 0.01772096209247, -0.28247825936881, -0.16808529813943, 0.1287849067722, -0.28239025637921, -0.2453726582767, -0.06833407896821, 0.07728963697169, 0.00435140297943, 0.14078303569388, 0.11348793619006, 0.13964957447691, 0.0784692348887, 0.24702500046609, 0.16714960673438, 0.0831528295191, 0.1175926519645, -0.27550787668438, 0.15554332311628, -0.2279411796926, 0.03478199168844, -0.05300161531673, 0.17342392777368]
[0.13747871533776, 0.03631622161502, 0.19401145547641, -0.22073156830727, -0.16467569205001, 0.23300589596458, -0.07773066276213, -0.01008375236672, 0.0899669099589, 0.24574876024722, 0.00245443056715, 0.17434537165204, -0.26587728916899, -0.18816226050144, -0.12117384072301, 0.02964983262158, -0.1200782143735, 0.09017275253485, -0.06073871306939, -0.18700723230933, -0.29754212260327, -0.05221485028861, -0.28278857119013, -0.05772724530746, 0.25962120683851, -0.26907108774255, -0.0753714724801, -0.12453544872157, -0.27832566612198, -0.08583944576413, -0.04621670716482, -0.22836992983702]
[-0.14177190428102, 0.07842327768979, -0.09658208712759, 0.045334436249, 0.08753011646288, 0.25605636997524, -0.21803800599393, 0.16896546343443, -0.24102703750951, 0.15678726609599, 0.05969991417616, -0.08383812493166, 0.02454046717263, 0.14239632617819, 0.26662641246747, 0.0567065193776, 0.09712821102473, -0.23452243197558, -0.22038901299359, 0.03470900352137, 0.27449359024857, 0.11318533917387, -0.07830717770355, 0.2069064281214, -0.25257254421321, -0.18364639846366, -0.10962046808858, 0.1974217281375, -0.2380634557352, -0.12670334169527, 0.32417014668735, 0.09478552137155]
[-0.01095098876389, -0.13656529161993, 0.12770810309453, -0.21067961172549, -0.04228578322647, 0.00186004228062, -0.10762132751085, 0.27678233261953, -0.05941671726713, -0.07729370681072, 0.04194311525637, 0.15165528693018, 0.23065471147883, 0.10425208938355, 0.11033218223446, 0.1952572286721, 0.0213191641902, -0.29406530825398, -0.28772195546221, 0.26706223296523, -0.20731611805747, -0.24625814304273, 0.19213680072567, -0.02498543178714, -0.05722311895583, 0.18195417887423, 0.14885899520743, 0.27700684137505, -0.29321961820416, -0.10556630957042, 0.25257666451628, 0.12919945441307]
[-0.00293650086273, -0.08279165504102, 0.05073656906119, -0.1620401477851, -0.2840543573603, -0.27678358438938, -0.1497839571878, -0.06794449596998, -0.21454433368784, 0.23209818761257, -0.07584903114071, 0.11057733314745, -0.28672262464793, 0.12150794226456, -0.20171226941246, -0.10705541920929, -0.19229538803709, 0.18414795746722, 0.22956365718463, -0.25311116963657, 0.01554088823555, -0.02538059814725, -0.29046421298008, -0.06507376709571, 0.19493291169225, -0.17902126284088, 0.07988913711643, 0.11414531891235, -0.19029417363178, 0.25182388746007, -0.20759662309756, 0.18011157148557]
[-0.03750123815664, -0.04589271240243, -0.12811254493879, -0.09895142765976, 0.02762981787644, -0.09721161228466, -0.22412247262101, -0.13231025604307, -0.21942375567848, -0.08902511567516, -0.25378803523999, -0.05660763934518, -0.24735359803423, 0.22837152987737, 0.1102839690911, -0.01365816944924, -0.24336342353936, -0.27624371353471, 0.1328110328818, -0.02018764231669, 0.08831965578693, -0.03914538062236, -0.16712672175532, -0.14968546066586, 0.29000794724659, -0.23272224461439, 0.21310168586664, 0.26735990977351, -0.17368552628368, -0.26370500616237, 0.23330689121412, -0.23706369878772]
[-0.22624137698736, 0.01293751408998, -0.26948158638367, 0.18514878932914, -0.05969030680316, -0.03560818324639, 0.21963654696019, 0.22384397683724, -0.1062547669777, 0.1744246043854, 0.00165913052881, -0.03771766612412, 0.26151348425763, -0.24238275954723, -0.10178948852822, -0.17884192007017, -0.05355385666227, 0.27806848667375, 0.21510885886668, 0.05403988943859, -0.03189067673412, -0.15944690441137, 0.13299358187967, 0.06483908734147, -0.17106819399014, 0.0527138766307, 0.21770880770807, 0.10352090008868, 0.02353152484412, -0.04938115376285, 0.00013551170866, 0.07988416675114]
[-0.00070303179886, -0.05724444488737, -0.28304429132344, 0.16854294518756, 0.27922999299752, 0.23946451883425, -0.15551617059234, 0.03246382999926, -0.26656845111954, 0.12248775871434, 0.20084282497233, -0.28985273591261, -0.14878029231465, 0.19944544300008, 0.236188090172, 0.18265376346001, -0.14791342551677, -0.09986882361614, -0.20073234229307, -0.05463085089007, 0.19095406392589, -0.09615617362144, 0.11791700573152, -0.21258847947243, 0.15964252684058, 0.24473775445736, 0.01692923320775, 0.15710009744218, 0.24336054592638, 0.13131182603402, 0.1902826286019, 0.20044845422816]
[0.15788150409473, 0.16943840794016, 0.08348065656504, 0.13504515326337, 0.29031300581784, -0.24914034297583, 0.09021604063527, -0.0467208027693, 0.30687025909478, 0.23439355145662, -0.06161922025421, 0.21089303101455, -0.12210789092943, 0.035710923367, -0.15559387481762, 0.15866607741484, -0.23337236003396, -0.04987205239288, -0.02189175309425, -0.19048275337672, 0.17059832433922, -0.2605839844322, -0.27512131186937, 0.24537398984448, -0.26562796844045, 0.15443757040456, 0.18674355715467, 0.22799152159456, -0.16969008501409, -0.04053831071392, -0.08709208813093, -0.24919920592034]
[0.07365511202568, 0.09671426906349, -0.13776935455583, 0.10524630252084, -0.31931291298896, 0.23483891288749, 0.04100560728366, -0.00998073586316, -0.26800809558086, 0.13875363203358, -0.2075153784671, 0.23443032715356, -0.2931728516354, 0.03642045096739, 0.20589669161916, -0.01934221817433, 0.22982511484098, -0.10196723792123, 0.16055017886224, -0.20732699505382, -0.01577358399355, 0.24143414070673, 0.0148682640909, 0.10604921044517, 0.00473076504493, -0.26907460653533, 0.12312137418247, -0.02287212414485, -0.26795529995532, 0.27859554914947, -0.20164691578382, 0.17844153842483]
[-0.02938001385873, -0.22892900626714, -0.10592613156122, -0.20419130064518, -0.01070524311888, 0.17221026304925, -0.20917690977697, -0.1877711939973, 0.03952859674898, 0.06881164435571, 0.14162757139352, 0.2649148375585, -0.23220494344208, 0.08397054315016, 0.27040908378362, -0.26974930268144, -0.26148241261161, 0.10373578796778, -0.21037640548731, 0.14693180368856, 0.10386929759278, 0.03702796193703, -0.13870260671327, 0.02662919839711, -0.03795711324857, 0.23837116487324, -0.02625936371417, 0.12571181056826, -0.01845415593075, -0.03109839974488, 0.1597034386417, 0.1654741016755]
[-0.11216493806299, -0.142782829019, -0.21136965567586, -0.11713815390952, 0.27206054987112, 0.12205870712869, 0.12274522462301, 0.02995455467508, -0.03118250447319, 0.1065381859272, 0.27831549516994, 0.24191400275898, 0.19013080420388, 0.02270875853296, -0.22704570360352, -0.11400304676233, 0.27414070918164, 0.12177103348735, 0.14592123063784, -0.05549997213104, -0.13669980648597, -0.0011308123319, 0.23868216881663, -0.05860363923971, 0.11202118710001, -0.26947569768522, 0.04845058279053, -0.24587484446438, -0.16165381815412, 0.20084768930515, -0.23221130248777, 0.04067433570876]
[0.10786821945241, 0.08579621771963, -0.25321278016565, -0.06019794262744, -0.1694274806917, -0.04807378469003, 0.19102073200687, -0.10732670584844, 0.02785982796626, -0.12673534409478, 0.28157155984255, 0.01387165422797, -0.18987250485347, -0.09042252989502, 0.0556441901073, -0.27841925348579, -0.14911451238772, 0.06197028675343, 0.1373461181427, 0.27904080029183, 0.23922576336649, -0.071881940545, -0.25337852144607, 0.19807586348456, 0.08536863700539, -0.02081223013936, -0.26771282626654, -0.25622200403303, -0.09521488520557, 0.14131430904851, -0.02883575566167, 0.1610398884401]
[-0.1627781140322, -0.1031580885721, 0.03272079708767, -0.0727111553965, 0.1686434720356, 0.26447021114753, -0.038809493764, 0.26220307389575, -0.25541984656762, 0.27549249899776, -0.12494137907335, 0.03355884559625, 0.02654139199409, -0.25575388509559, 0.29952550945931, -0.03734215349445, -0.02452019285504, -0.3160317930957, -0.24099214559259, 0.21913462371643, 0.12883699421715, -0.07077872600833, -0.09779065604689, 0.00117998110865, 0.0166892735121, -0.00017245656475, -0.27987248740872, 0.1237047661119, 0.14267024537158, -0.107313087487, 0.17006231947722, -0.00500678486592]
