Best Model in generation 0, with a score of 11.920000 
[-0.18005046529097, -0.248925628383, 0.12507400456637, -0.25171788259064, 0.25347307436254, -0.247795522417, -0.06188805660291, 0.02205687200326, 0.03750352447147, 0.04685970231474, -0.04585620025379, 0.15097323046562, 0.24927679802068, 0.09667751379208, 0.13179726236166, 0.12498139751682, 0.25940176907948, 0.14394544715092, -0.01674037923317, 0.16851395244699, 0.13653929270459, 0.15688940332006, 0.27560586618209, 0.21794803352895, 0.02581513478166, 0.1566201249361, 0.1059048746299, 0.26220914158417, 0.10959079494984, -0.2645053637231, -0.12144772711712, 0.27851865483504]
[-0.04907589360411, 0.0973357872854, 0.24608315688944, 0.16648672272801, -0.05896734708441, 0.23661857875832, -0.0567152803405, -0.00531923149954, -0.22985835285926, 0.17495075115019, 0.15312982729704, 0.11643716490253, -0.00502194827181, 0.03361858850005, -0.17839243230392, 0.13734068513096, 0.03106509367546, 0.26313758521009, 0.25335102098415, 0.16364967446014, 0.09034345252509, 0.14399227797995, -0.0115493619315, -0.07264929622105, 0.22473161512949, 0.07166066053188, 0.02159885220738, 0.28954961527454, 0.28876577613473, 0.16327463247537, 0.08771728366647, 0.27344027456497]
[-0.21703544710424, -0.19767387908694, -0.12432875672029, 0.2208231741505, -0.24691940467992, -0.23242286689566, 0.10685452763058, -0.10392941510314, 0.17345806534631, 0.00696171828685, -0.02137352458101, 0.17343523437733, -0.23650226957579, 0.16191523254901, -0.1974227417945, -0.14983164034375, -0.05595909579426, 0.23487591266898, -0.26499340608124, -0.13756909711929, 0.14592155776353, 0.16552312823697, 0.22246118457598, 0.16998902864428, -0.15091326838082, 0.05885510617737, 0.08212354550539, -0.00240655047399, 0.28585255306929, 0.08780603602127, -0.02577403225328, -0.11916508463666]
[0.18147286719389, 0.08075232597984, -0.24755464207823, 0.10683879630178, 0.14693396329178, -0.1820447341692, -0.06219037115634, 0.1205144647574, 0.24730898670945, 0.28278289530547, -0.17437643474108, -0.21025211012526, -0.25845853081679, -0.17302082186886, -0.24744996749715, 0.12804175804699, -0.10850430226568, 0.29111440992098, -0.15366979069141, -0.00604135672835, -0.22109032465948, 0.01675817620736, -0.1770567824951, 0.23392459930001, -0.01567416531912, 0.03246322616173, 0.08109475884767, 0.19224599765778, 0.21017850003021, 0.07927027438695, -0.20153881429987, 0.24153379520423]
[-0.28210605930659, 0.07972317224499, -0.03786540929919, 0.07291304827376, 0.19044291927333, 0.1406685377354, -0.12588212435255, -0.12643393758298, -0.1838043008428, -0.03862443689438, 0.02724647700066, 0.04302727504183, 0.14104552697035, -0.1709129544561, -0.06121126988246, 0.07723765107446, 0.09905069758059, 0.07183487297538, 0.24783704107197, 0.15212730395678, 0.18965925996742, -0.26511836381076, -0.1026214099061, 0.02086018522814, 0.24944334483349, 0.14382313861085, 0.13562022870053, -0.09169158892571, -0.21261506296691, 0.2376547640507, 0.16764945854421, 0.28020991847986]
[0.29465647725274, 0.28002992200877, -0.05029755433047, 0.27261404993895, 0.26972272749088, 0.16759933746458, 0.27427535994632, 0.24501447293265, 0.17149446999037, -0.28889223625573, 0.17327430743181, 0.05489011981884, 0.08642763638927, -0.2476634214266, 0.07150248614275, -0.15056253584962, -0.18290990260759, -0.05747429007594, 0.16959969137567, -0.05560091539908, 0.13478018764966, -0.0368848026371, -0.01983069031379, -0.23118766844407, -0.11320089312086, 0.22124907921246, 0.19045128181608, -0.18841855730133, -0.22288675806705, -0.20042377685302, 0.04177458410926, -0.2787747344018]
[-0.29477656733344, 0.20677293823089, 0.25761103415142, -0.004773850345, -0.21577332754108, 0.1946050450414, 0.2374321045735, -0.23911455968785, -0.28305171749604, 0.23856042422777, -0.24229252989717, -0.20019490338915, 0.24976160849572, 0.01427435150914, 0.28934671601943, 0.18870777096645, 0.27277661761933, 0.02078070311001, -0.05201351606887, -0.1811854544214, -0.03303763701249, -0.18785252435485, -0.23697547564672, -0.18221985376487, 0.29397836155653, 0.12597790683983, 0.05591841504658, -0.28905703643577, -0.09112445101433, 0.23501259288188, -0.18087857987122, 0.18773570263827]
[-0.13158969610345, -0.27252416039634, -0.21462684292328, 0.15639670501948, 0.23164355789023, -0.27049789204233, -0.0584631359068, -0.07601363045732, -0.06115993257669, 0.06845618115255, 0.01544762205586, -0.11854279303748, -0.23579986023762, -0.0796640385993, 0.02885104385561, 0.19315835408852, -0.05841970939467, 0.0385543030911, -0.1659818822874, -0.19633139082899, 0.18077586045492, -0.1470680758974, -0.11129772226359, 0.01337095217135, 0.19023689255975, -0.00396885346482, 0.12123533405024, -0.00898529220345, 0.03173846739151, -0.1042372314112, -0.06270774937711, -0.25504206979313]
[-0.20411378244986, -0.06476775517985, 0.14463820547105, 0.15778728772761, -0.17140537195777, 0.23415735645417, -0.10571080709608, -0.09828401146424, 0.25169135026919, -0.07625054643963, -0.28961436589881, 0.16773044663556, 0.15723069921407, 0.11988425863153, 0.1632040318916, -0.13461905179966, -0.13023992622335, 0.16119892164711, -0.23029615074771, 0.04597202766482, 0.26095543987625, -0.03808293227829, -0.18165216472814, -0.08061086802411, -0.06602395050483, 0.20994844064472, -0.17604778926772, 0.03671765687606, 0.15418993076674, -0.13158856498463, -0.14564295853041, -0.18567498052958]
[-0.16040245937709, 0.12458467521733, 0.00218022032993, 0.19871464406486, 0.20589550377867, 0.10736683187313, 0.23204886028702, -0.09129928897404, 0.20684570226668, 0.06841646933505, -0.26545746417625, 0.05414091136372, -0.13322194523458, 0.1940866788251, 0.09017105825978, 0.11381437402234, -0.2129203999025, -0.09464449499527, 0.11631165766185, -0.03926411919399, 0.15480840068781, -0.03369968217659, 0.28354766886891, 0.24805716605908, -0.03755933347491, 0.0100090037463, 0.1981815332417, 0.09595617308835, 0.19023836571217, -0.24629351077413, -0.08899620133042, -0.08005809279084]
[0.16868529577668, 0.04698220446585, 0.11532886905814, 0.11682298597381, 0.23087795494757, 0.21775768632685, 0.1936511649114, -0.13024041155314, -0.02256217098939, 0.24040250510976, -0.22222104465038, 0.1570368963316, 0.12904416733682, -0.26684114670947, -0.18721570633738, -0.03539863891188, 0.17865753244316, -0.04900153135605, -0.04786184634331, 0.18559314449938, -0.03121017992196, 0.18238462074833, -0.24786480663497, -0.18631471366307, 0.20319064380432, -0.18013275733423, -0.26009174791977, 0.16625481321607, -0.06824308289135, 0.0801450294464, 0.24722098546026, -0.05467968685348]
[-0.19276014988178, -0.26461977691786, -0.16379820825405, 0.24782574819473, -0.12448182099565, -0.01971510019425, 0.17826074327843, 0.11365285618429, -0.17621204426542, 0.20170207862468, -0.15409579279084, 0.21578623472082, 0.21467837041833, -0.25813613089561, -0.10620291849893, -0.01728579917175, 0.05225656930383, 0.16450256164217, 0.08851074925825, -0.23044329292457, 0.13311496298186, 0.24425720528523, -0.07988989558385, 0.08543283264, -0.11685867902676, 0.21894904429661, 0.13160635318701, -0.27060398826247, 0.21494765605235, -0.00027114014958, 0.00742131034267, 0.25601952542523]
[0.01187194199714, 0.12781015496052, 0.18095899715892, -0.25184181647411, 0.21343608795494, 0.23259788945612, 0.17888235159192, -0.1196906018498, 0.12856619231377, 0.18305407107709, 0.0991334643362, 0.22858106462747, -0.25267652237771, -0.13622621850401, -0.07086774893493, -0.2050459255781, -0.16167331210035, -0.00395123411856, -0.06278509368558, 0.28369200125334, -0.1895440980978, 0.2739211181354, -0.22082994455971, 0.03222846331043, 0.23750239905421, -0.15645353391394, 0.23261019975137, 0.25976449847556, -0.1044976965117, 0.16508793372753, -0.25912414397108, -0.08025088060405]
[0.29117608264379, -0.11218208725624, 0.10175354350182, -0.15139730295824, 0.20270577626706, -0.02582149855961, 0.25326606572137, -0.2807647307624, 0.15565865628882, 0.00117122109508, -0.04021497964347, 0.28966088275083, 0.16710041636477, 0.08005409393993, 0.16333226627029, 0.19939577751501, -0.07217942448312, 0.12731334361159, -0.27596075142928, -0.08039641705812, -0.06613331533458, -0.08023396816975, 0.15395766979017, -0.07761173022918, -0.0512276105859, 0.07126940930508, 0.19036412383522, 0.0786714204214, 0.2876458909055, -0.15039033194665, -0.17799139176308, -0.12912048164873]
[-0.28233549914048, 0.05043615894518, 0.26985652183621, 0.01957125815775, 0.192913486464, -0.20867340263107, 0.25315457397989, 0.12629555495208, 0.2798817238706, -0.03692618251418, -0.11551159090342, 0.20992117822459, 0.12582092962838, 0.2423308710715, 0.06347633532215, -0.10302459429775, -0.20152914121122, 0.02322411396051, 0.02420009924056, -0.13966130189942, 0.0259836863706, -0.00020220712313, 0.04215992805258, -0.27826241789364, 0.11666799266368, 0.18283154065729, -0.11109202180919, 0.14469297334755, 0.07142395781679, -0.03670580072738, 0.28156151609701, 0.169076152578]
[0.00014138348969, -0.10591721042598, -0.06861890813509, -0.14760065657172, 0.07114175954718, 0.17371417247339, 0.09514423010491, -0.02650238827005, -0.2588376376241, -0.1436506537246, 0.19146285008362, 0.19812443828829, -0.07397852973155, 0.13454697055125, 0.27764537351707, -0.21066265837738, 0.0650941799383, 0.05562933029322, 0.06047310475597, -0.23451589616628, -0.22278353688485, 0.22287926098394, 0.07889891215515, -0.01889962912856, -0.13884872627773, -0.2049240128219, -0.1047624301027, -0.14319317684078, -0.08233787338266, -0.08279537854123, -0.23884960453357, 0.18144364437403]
[0.28865849795934, -0.08477201526779, 0.16834186901528, -0.07057132356252, 0.24430640273694, 0.12307279265379, 0.17045010242623, -0.04916812095019, 0.10342594472534, -0.25010580223202, -0.18925513596306, 0.07675660752952, -0.11540314888733, 0.25118610424615, -0.23917476195008, -0.23815311647419, 0.07068561674734, 0.06342044487864, -0.06317399315403, -0.09572746634821, -0.19382868217777, -0.28801743859327, 0.03593582136988, -0.01292549100947, -0.14366201978476, 0.17784268607998, 0.08045062722386, -0.22925065559896, 0.10437228745338, 0.20548201464197, 0.04125258837411, -0.2234500734964]
[0.17453566172006, 0.00521781494276, -0.2921888517642, 0.03808818116248, -0.07583925917273, -0.16826329321936, 0.28288896690625, 0.22861632248458, 0.18359609967573, -0.22560780739603, -0.05785950575852, 0.01416545871197, 0.26444012985697, -0.02315331426174, -0.21064858215744, 0.15240466065858, -0.19175544702675, -0.24809427465925, -0.18244128285081, -0.11714858415678, 0.17601886395786, 0.1521770701175, -0.12576200252853, 0.02252842681381, -0.12183471617383, 0.2385298421871, 0.1624220530148, -0.26860558705166, -0.00435012820816, 0.23377653427603, -0.03598902443956, -0.25200305068758]
[-0.15156388222593, 0.15241102825133, -0.25887513056868, -0.09909057148805, -0.15685998451099, 0.102642032808, -0.16697305827251, -0.08183417695286, 0.12628200300276, 0.09423118679596, 0.2474713061603, 0.27899537012331, 0.13575126808255, -0.18015844456253, -0.09260515732792, 0.26030817726855, -0.20503650319949, 0.07326828296597, -0.01845967479188, 0.10308731476311, 0.21881368690015, -0.08048145430015, -0.18592141035448, -0.05304116318368, -0.03029537659803, 0.21466113024253, 0.17223383480653, -0.28024038047134, -0.23845058412063, 0.07350666818716, 0.07928238486155, -0.138001552094]
[-0.22744980556262, -0.2550721829862, 0.20585067787905, -0.04144596583654, 0.23000759057721, 0.00407871751093, -0.08827170133507, -0.07441697597636, 0.03409392136072, -0.17173240779197, 0.25034397871101, 0.02062628070822, -0.03850449877285, -0.04493769445869, 0.108676232918, 0.04356199792983, 0.15201732810113, 0.06185918170045, -0.00592058152629, -0.1985267877998, 0.06832589759054, -0.21561989511856, 0.28113318319573, -0.05677840281813, 0.15516534030423, -0.15880408252382, -0.21742745234004, 0.19752370350617, 0.13026195216083, 0.25947864357424, 0.13760220884414, -0.05279942530744]
[0.23956344601868, -0.23473721639026, 0.03391874902756, 0.02251464068569, 0.20840054285714, 0.2398761555186, 0.15903962782, 0.21117375000333, -0.28502050400838, 0.07688795906799, -0.27434887400882, -0.24710465185195, -0.10216667605478, -0.09258082618919, 0.17064266501723, -0.17967237689938, 0.2752314959241, -0.20830190901352, 0.04654754469872, -0.04620288198863, 0.26306429793663, 0.04745854586942, -0.25784800245363, 0.16062609311047, 0.22452828112592, -0.28039480535345, -0.15636811538398, -0.17185047928614, -0.26989302966415, -0.16774424760128, -0.21508835817536, 0.2203640991507]
[-0.23318892947507, 0.0191483814329, -0.01333685434203, -0.24797454390173, 0.01019902308037, 0.26226236253044, 0.24294882570497, -0.02843738474667, 0.15346114812952, -0.19225955846684, -0.13786082218137, -0.10301162936442, 0.11636581593001, -0.18271223509383, -0.02366026186355, 0.23070221496466, -0.18246528936618, 0.23267133958297, 0.21925116114206, -0.28145893254155, 0.19975451167536, 0.03044262359842, -0.11631657336649, -0.12459810270934, 0.24609623794938, 0.13799343988408, -0.13390069989511, -0.17633105451594, 0.13961402415318, 0.0645465762161, -0.21507012077428, 0.06728042257492]
[0.12425036137061, -0.08419617656515, 0.17098700730172, -0.01669118462104, 0.08018330492204, 0.02542374825314, -0.00407766098061, 0.28502091385948, -0.11474698557884, -0.00694193333403, -0.08020534660974, -0.24615556665413, -0.26612517484345, -0.10902822040956, -0.12082976426538, -0.23712978034083, -0.23064928499673, -0.1648370368122, 0.00205457086954, -0.15329780691387, 0.23982853685938, 0.06333657276415, -0.17675250112553, -0.17316897953444, 0.12356629803811, -0.268882688205, 0.17336721456345, 0.233511148742, 0.14910275801806, 0.00186198231107, 0.26637658950437, 0.1034822920203]
[0.18894144585472, 0.15638310028534, -0.23892142410684, 0.18916788232036, 0.01098528210513, -0.13930800718462, -0.14944151247833, 0.11519169535396, -0.03659399899582, 0.0704555287546, 0.1261421164891, -0.07283115826492, -0.0199555042328, 0.12534884727204, 0.03822103143334, -0.10921899431297, 0.22350331323594, -0.04307959385054, -0.23606144549367, 0.25802924930863, -0.08318959482994, -0.08129690291514, -0.17363195271425, -0.27698631230614, -0.0410226069908, -0.20747704507128, 0.06560323653739, 0.27308250895277, -0.16218944572945, 0.04808522705361, -0.28915440945713, 0.02672573977282]
[0.27088961220541, -0.17500576018049, 0.13697477047905, 0.08453502834322, 0.27787435754499, 0.28222335142858, 0.252695990945, -0.207653373189, -0.00578925055211, -0.16229696091118, 0.28759500221959, 0.01085796296909, 0.0573334947646, 0.22721417241303, 0.00561778489047, 0.20194978606039, 0.28420675465016, -0.01308985645175, -0.08724166800646, -0.18381782266308, 0.23829822958707, -0.18323441433529, -0.03934151110878, 0.04663623026751, -0.15337945112888, 0.15200086243175, -0.15513865766569, -0.05088941300272, 0.18348897066806, -0.25183320859587, 0.01735833156753, -0.07167893135233]
[-0.10061203943047, -0.09359042375761, 0.20883838647494, -0.01958170119273, 0.05460212976594, 0.28961827168624, 0.20624478763698, 0.05768246411419, 0.06278147818138, 0.09280167246667, -0.05111357887681, 0.129229961509, -0.08120169914349, -0.11072993891394, -0.1243512111836, -0.14598539357981, 0.27888765482578, 0.05590308585235, 0.15829795610536, -0.15307998212052, 0.21338401054458, 0.20919797308071, -0.03156562954633, -0.24151079941718, -0.13671041090571, 0.2734000697234, -0.03477745857961, 0.15089620804716, 0.11387092526757, 0.05151710264657, 0.19066112133035, 0.08317822245599]
[0.22695570795418, -0.02236133319189, 0.08891456493575, -0.06978166159714, -0.00630119632519, -0.10312677845987, -0.09885128471307, 0.28542834983801, -0.06262617755074, -0.18172186140087, 0.08853938873284, 0.14836714143803, 0.2772490860987, -0.18961607540803, -0.23172851960755, 0.10347982907493, 0.05099441271003, -0.19246812139144, 0.13796599119497, -0.23426837739743, 0.25154241144399, 0.08306296363388, -0.10012280989904, -0.07121843930311, -0.01423940162809, 0.18389199794908, -0.08571423883321, -0.20727336837483, 0.27925900846521, 0.25592813000035, 0.03361358594381, 0.2558937499733]
[0.24625393286169, -0.25765306101147, 0.17434482422559, -0.11099291187345, 0.06360743417723, 0.08996478072824, 0.25414357276182, 0.2174653072818, 0.14100909862563, 0.23972299645744, 0.28812504718396, -0.25187010913353, 0.0307858895654, 0.27515494609506, 0.10430500682431, 0.13721859280392, 0.289968047812, 0.09734562955348, 0.25788865653844, -0.11109871325752, -0.06341037444724, -0.16120941336231, 0.03465637003917, -0.1778287304706, 0.29139634625134, -0.28782407280572, 0.20364644017063, -0.18460216891923, 0.09015535246896, 0.18871454740076, 0.29213717295419, -0.05617372746785]
[-0.1300078913204, -0.17035299353231, 0.1977713822531, 0.01081870558497, 0.07335660219342, -0.11446030101791, -0.26828952509622, 0.16631849631122, 0.05779719958696, 0.03841476998895, 0.10877842305173, -0.19470462156051, 0.16433164263852, -0.21762318671584, 0.23518473440522, 0.24313546912845, -0.02427277374244, -0.2840632579278, -0.2044166061205, -0.21045603542735, -0.00923336875131, -0.24522215537551, 0.10500421889313, 0.04657911111226, -0.19244595178965, 0.24033522705127, 0.29070106356446, 0.22989902211588, 0.1165834148336, -0.14198581913024, -0.12167420140612, 0.19230739127209]
[0.2402928749156, 0.12628537770909, 0.11981477951187, 0.18657859742955, -0.29417000938364, 0.14009860611588, -0.06387763588311, -0.00984230128876, 0.20092690897243, 0.03904289015168, -0.15904870897648, 0.1065415903444, 0.22210620014694, 0.09436696020457, 0.08281518789192, 0.01512726211078, -0.06695348830933, 0.25240910880369, -0.06457051373541, 0.14020324058969, -0.25722465432785, -0.01371387396958, -0.2351728875778, -0.26787987602604, -0.2613640832264, -0.19641576189563, -0.10760418528382, -0.04400990465846, -0.04829131598955, -0.01777815579134, -0.01940309227792, -0.2211715460163]
[0.00995886958563, 0.02297424884888, -0.11300168409667, 0.18557116856948, -0.10592954463063, -0.16863818166457, -0.01589037106312, -0.2181780691579, -0.206934902753, 0.20697251436158, 0.26986083758025, -0.12047997867999, 0.02729055272008, 0.25684651454321, -0.1884772691899, 0.20665604604982, 0.1854091883402, 0.19662426139737, -0.16382775554739, 0.18722697810211, 0.00573771333745, -0.12449512128716, 0.18880700429411, 0.15128528815353, 0.09313092650543, 0.27679245907585, -0.05984725333901, -0.09298635510698, -0.05368429081528, 0.21580164566165, 0.0014798367402, -0.15062318417847]
[0.14434389227313, 0.20966303962219, 0.23512119304713, 0.25162205765473, 0.13955114297215, 0.13989650243187, 0.14201742335252, 0.11774482014809, 0.16989978840298, -0.04755995512804, 0.08777279027859, -0.27347621127757, 0.2414345108738, 0.24443409991292, -0.09032102193613, 0.0233472969039, 0.10472470653212, 0.24664340783731, -0.1276325608792, 0.09670161086826, 0.06923480569465, 0.07103075150338, 0.13764977711862, -0.1080725845901, -0.00994244070746, 0.13778114999544, -0.19867233285621, 0.13668578418158, 0.14622715417054, 0.19524388912747, 0.10467091855152, 0.21626596153382]
[-0.2739857654817, 0.14433782226145, 0.25971830113152, -0.10405220705944, 0.26132451370795, 0.18471135252088, -0.00713646936032, 0.02115929843261, 0.24914759577666, 0.28401852208445, 0.1402564798652, 0.13576304289421, -0.06718947990574, -0.21162159452994, 0.0886033152942, -0.01070959763171, 0.00039650701002, 0.10178261995122, -0.28141436355248, 0.09364913785806, -0.23676759617093, -0.12309807485511, 0.23546731685305, 0.29337004089008, -0.10231669727024, 0.22439907252209, 0.20328667946844, -0.22571139517617, 0.10090190104694, -0.1343638170105, -0.04886216605173, 0.12653738357389]
[0.10450382174948, 0.08636198776456, -0.02103245789242, 0.24960253802012, 0.22778614005157, 0.00681780642999, -0.1154700918423, 0.29240760374443, 0.0129369909535, 0.22508044739526, 0.17212285330257, -0.18497975481582, 0.08657939069214, -0.01669309868459, 0.05841708345996, 0.02922139664472, 0.19738487883948, 0.26916605687873, -0.26558929861797, -0.0208883551462, 0.01887425684473, -0.28073865042944, 0.25540468699421, 0.16971677181156, -0.04015900878287, -0.10281610106924, -0.01738232663897, -0.05613647718343, 0.08189152473767, -0.168855326843, 0.28443004961123, 0.2889010285507]
[0.2772417987419, -0.17536860049049, -0.14601293845159, 0.11203257487015, -0.12151654259732, -0.16637383613151, -0.07778157646789, -0.13665103303852, 0.00184802302669, 0.07911514315885, 0.06630342356257, 0.08025543544891, -0.12942373981191, 0.23479726552456, -0.06014223720246, 0.25595142431635, -0.10820892799604, 0.21588375246591, -0.12920014395918, 0.00679572339732, 0.19033598815678, -0.26804557675116, 0.29481632608279, 0.21776002802304, 0.16764560360629, -0.23439324283444, 0.18200603011913, -0.08150105130023, -0.01059008522103, 0.12404376484767, -0.11538639855636, -0.07271250909268]
[0.1396764334792, -0.26894607968139, 0.00545972391604, 0.06631628196346, 0.04097301280989, 0.19512044610709, 0.14076190972442, -0.16020509210621, -0.29442596524646, 0.2244611629213, 0.19486841373591, 0.11466981610681, -0.07970958406866, 0.03726708887295, -0.02403813833952, 0.21058232349094, -0.07649959773347, -0.06915153184388, -0.04759187237688, 0.1615303949772, -0.19978939984008, -0.19854383402307, 0.29118803878969, -0.2597796827517, 0.00960135152273, -0.2724318971215, -0.13665754652933, 0.08617052665098, -0.23586897538701, 0.09266334998225, -0.28822047592869, -0.28686409661982]
[-0.17403952386171, -0.2316950603681, -0.19722188922145, -0.13821031142246, 0.22254250753097, -0.0008179252784, 0.09153595201868, -0.0434506740837, 0.06176742861771, -0.08443679421554, 0.13578707891986, 0.08792687811197, -0.19921049976055, 0.01470527672944, -0.06762571608813, -0.0530756533089, 0.06117106695673, 0.21462620743948, 0.19994612517026, -0.23707421134768, 0.165772947552, 0.23067644611313, -0.08259812783291, -0.00136350394476, 0.02113438150015, 0.00127434255635, -0.28115502338889, -0.28349086564222, -0.14816357473663, 0.1690224981851, 0.28395194398041, 0.0692462605538]

[0.21708635444217, -0.29103576377894, -0.2590495331234, -0.1055555177755, -0.22948779646648, -0.13357646590427, -0.26031218270228, 0.19654764881187, -0.19507927882825, 0.04376035002731, 0.27590877668533, 0.23479218523858, -0.0275557393848, -0.13699448521794, -0.01111944124844, -0.10537643576207, -0.0164941956101, 0.06304941521351, 0.29004132037278, 0.29249937634631, -0.18882340939255, -0.2055478723023, -0.08299818137193, -0.27621634932868, -0.02419018786554, -0.29162386825155, -0.08998789791395, -0.1648776150957, -0.09486916316532, 0.21412517883286, -0.10416368317049, -0.18355096063238]
[0.14795415045786, -0.29601320156081, 0.25997057210602, 0.01961454338264, -0.14666456837905, -0.28132804241154, -0.25298219781413, -0.15039560677944, 0.09078382221585, -0.12533895129607, 0.12731613833735, -0.02243084086977, 0.24968519177442, -0.13407080277666, -0.09415972559803, -0.30120640096225, 0.15382078047778, -0.05981034069594, 0.03916640622003, 0.2121738788615, 0.20023628826567, 0.18730774527717, 0.12620430185559, -0.16264826878353, -0.01203388958966, 0.23525600759943, -0.14439585810767, 0.24213064801764, 0.10131431410837, 0.24384245606806, -0.25616472224565, 0.23896011543265]
[0.19823871937485, 0.07555397165642, 0.14052936100816, 0.15009687034322, 0.13293636130154, -0.14947312093323, 0.028400413764, -0.23644797043536, -0.27805875951859, -0.05661724301806, -0.10096448448236, 0.1574929069494, 0.18661088439285, -0.25779428563006, 0.26280508215163, 0.28119206612696, 0.30286826913668, 0.06013800561264, 0.12855201869029, 0.25472651328512, -0.15842093123888, 0.25759400196412, -0.29230957085376, -0.03621968481884, -0.22946680913059, -0.0788098490084, -0.15287419785249, -0.02158463030314, -0.12304073577963, -0.28533128971124, 0.02792017752335, -0.09628982212267]
[0.0607085764371, 0.08652489895692, -0.06030699976472, 0.07675884030048, 0.0913328549621, 0.01703258185255, 0.0737951870754, -0.27200374083207, 0.17514270171454, 0.12901107737437, -0.14373895115268, -0.21776012790108, 0.21652144473507, 0.20249031410605, 0.06337638667677, -0.18851494313033, 0.14531033891982, -0.07914105741053, 0.0096393363701, -0.19433567839231, -0.11423627350864, -0.26135571980688, 0.03236671857301, -0.11370043092867, 0.25125095348564, 0.16620870971778, 0.06461798592619, -0.00491025787367, 0.15281945346867, -0.0469143389705, 0.12380059645778, -0.02829346861906]
[0.05685119033104, 0.1048711385513, 0.14146224809746, 0.18963500523043, -0.01938764612511, 0.26825275157242, 0.00154290250494, -0.20746387124696, 0.13581953177133, -0.06669936868802, 0.02955904366012, 0.11986624378031, 0.06470674962553, -0.10937550364971, 0.23760806619408, 0.22586258589867, 0.22467214529055, 0.07755741318722, 0.29301884982756, -0.15737833462113, 0.19359552487667, -0.277847861125, -0.0192911384698, 0.01233320204147, 0.23761761326297, 0.16874858463392, -0.03184786777106, -0.11850170131675, -0.10000284846396, -0.10286831417347, -0.13633635195999, 0.01181485268819]
[0.21401972715922, -0.15303976079372, -0.05325603280419, 0.27176574283566, 0.24446677606216, -0.15874323827939, -0.0159179861494, 0.08552444703816, -0.22249307934742, -0.1271854988436, 0.23855022490481, 0.17674743055781, 0.23405554511461, 0.02117187513135, 0.08524946992737, -0.14501956386613, 0.24405669720584, -0.18460870662694, -0.0120627282414, 0.1888886351285, -0.08025262028877, 0.1011608750804, -0.28515756544016, 0.0114169825313, -0.02717510124695, -0.24287171001208, -0.2297131056784, -0.17412200786008, -0.16471903948048, 0.24051483602206, -0.15263026341042, 0.19496705063124]
[0.17336805560648, 0.14010633569557, -0.01148738458278, -0.20666931815316, -0.18032322821928, 0.19330047548443, 0.28158255533514, -0.15027377259045, 0.10213874450928, 0.24581761146819, -0.09251066150627, 0.24378339872315, 0.04238562518565, 0.27985187238941, 0.10893444091881, -0.24441639798852, 0.30300159720363, -0.30325994103313, 0.20675254901514, 0.11997278032904, -0.24844471185721, -0.24430338953031, 0.17960015630588, -0.10458155185339, 0.14228769731557, -0.26052002158983, -0.24758476326416, -0.16274843003954, -0.05183602924482, -0.17461598799139, -0.16429025875853, -0.02228365812817]
[0.15419277150538, 0.15043366715265, 0.14721575059048, -0.1194421395211, -0.06134603407719, 0.00399337046792, 0.22921038321545, -0.03212562328698, 0.29708838170972, 0.25513905820255, 0.10497093157537, 0.01865258439086, 0.02816373241553, -0.12745592893527, 0.23992093168376, -0.0875670739021, 0.02040550558986, -0.1427590272626, 0.2247484873243, -0.29076722926609, 0.28274572545779, 0.20701509343727, -0.16774488892258, -0.16161930722453, 0.17447142440944, -0.09797579812872, 0.25602745775954, -0.2088228197896, 0.2034919662789, -0.28882503947188, -0.15546969362201, 0.26629673576473]
[0.09379769372271, 0.1937743292002, 0.1445089534664, -0.01900309002961, -0.26918545773233, 0.03090960840004, -0.01433853446378, 0.0524233344291, -0.0087212415565, -0.22273527540092, 0.06414636408962, -0.22086851523972, 0.21222767735198, 0.29890246921999, -0.04105205558372, -0.14023783355971, -0.08677437033032, -0.2097118470659, 0.21528260479047, -0.02954994393669, 0.25702698354839, -0.01824947968855, 0.20091420297476, 0.17540599852445, 0.09638474457482, 0.28527846651116, -0.20375221145464, 0.29719350825514, -0.17542094489183, -0.16839726949348, -0.18869442268077, -0.25140038845049]
[-0.19544834849468, 0.07214121919832, 0.19735419652078, -0.27509817580369, -0.25571457209996, 0.00952357782059, 0.18162883145759, -0.25129975203712, -0.24337562350695, -0.00613139877576, 0.24103888036295, 0.22520599365725, -0.24023652122475, 0.24270005102037, -0.1578748312276, -0.25070085870495, 0.22962405860626, -0.2030130093494, -0.12785160244385, -0.19009014585949, 0.12666816004208, -0.07924963228926, 0.29364653266054, 0.25007444093875, 0.16411401148336, 0.15485931581959, 0.27522491074943, 0.26649813584072, 0.30400425023644, 0.23984236808352, -0.11363980781903, 0.01347251644693]
[0.04742626170256, 0.21602044928924, -0.0603202483403, 0.04285003430558, -0.0489596130404, 0.21058660770393, -0.28354056521012, 0.11960621000991, -0.2127722283526, -0.2240880697598, -0.2108884588661, -0.01100506205661, 0.18962807920166, 0.11502218955666, 0.27668836799593, -0.2914795994779, 0.22435300769165, -0.2225831344434, 0.2620672744997, 0.12452517285344, -0.01853640990083, 0.27517906941125, -0.15604057611414, -0.0677141113864, 0.00912125384005, -0.03275661888042, -0.11158281254219, 0.04575034515232, 0.2312870555315, -0.2476077908649, -0.28613664077837, 0.02020855551574]
[-0.14719615861717, -0.18174488581959, 0.15206216301193, 0.16564540830631, -0.19175776881675, -0.02585798420796, -0.18400514722115, -0.15033646803719, -0.23611866948936, 0.03753609212217, -0.10048655705771, 0.03509691915959, 0.23997491248503, -0.0370406615583, -0.05553639982275, -0.06481556447317, -0.06537970186209, -0.06317709736517, 0.11764815235645, -0.22702569525487, -0.27554820225743, 0.20018480247622, 0.08932815211561, -0.05492784479697, 0.02120106250748, 0.26256003739144, -0.07827647865054, 0.02997345645717, -0.25822099352399, -0.27137748348141, -0.21382017179407, -0.15276638132333]
[-0.07915485924924, 0.17145258001672, 0.24323439305922, 0.12889723247388, -0.16816334167962, 0.09709082831017, -0.16938517955983, 0.20464894893883, 0.10753451659319, -0.16646329705773, 0.00960414171571, 0.22306641663338, -0.02691356999358, 0.30116452059148, 0.11661157332551, -0.03903588999821, 0.18990705942621, 0.09444344182721, 0.29272113207747, 0.22737946669693, -0.2018014858757, 0.07510017151307, -0.08067870067407, -0.15402624714544, -0.1669239804853, -0.10696289352441, 0.0007732464677, 0.17255584867203, 0.24541071710163, -0.28021404405917, -0.07840267385953, 0.1537681559163]
[-0.17482806198464, -0.13805935081837, 0.04415285226592, -0.13619730944037, 0.27175487394215, 0.0826732192283, 0.19072356106151, 0.05131179316209, -0.23706879146152, -0.04969145410037, 0.19201633560989, -0.29269457745423, 0.11673444191345, 0.06339813357888, 0.21998769449124, 0.19322415805219, 0.17369382487357, 0.13407367420532, -0.27947060588151, -0.2092154016064, -0.28583654676171, -0.22342464557506, -0.19513494142999, -0.1644356797035, 0.13229277106525, 0.07540473288149, -0.25412906753746, -0.18489393155482, 0.10996759324901, -0.22099838642874, -0.07400256820416, 0.18318047968624]
[0.22919204116958, -0.02495066394777, 0.02646106841515, -0.25708409886363, -0.29814749243192, -0.13892623547097, -0.1597488390963, -0.00894781474205, 0.30384785831892, -0.27367813257112, -0.25015430940455, -0.22768898760024, 0.17087796725032, 0.02208257301973, -0.12265528886371, 0.01157694064994, -0.13487919116732, 0.07320419342833, 0.2203381191535, -0.02322258592443, 0.15872621078841, -0.01613107129262, -0.26413480791967, 0.24847199219233, 0.20199734158901, 0.00736684800305, -0.21717415077334, -0.22740006575236, -0.0940664874047, -0.30607192728882, 0.08340802578727, 0.07519149781145]
[0.22355412276508, 0.11967462126792, 0.11914062077255, 0.20076088192578, 0.04196646772684, 0.00931465430692, -0.20003508873201, -0.15457054461968, 0.20813555337802, -0.28017294287311, 0.2560145790253, -0.18370386419276, -0.20983753239528, 0.16059490561005, -0.11319513013346, 0.08543795340129, 0.16676596611185, 0.29875976283298, 0.09380822242819, -0.03846005241074, -0.20288983860115, 0.20552714667948, 0.27930401841089, 0.2505368156033, 0.1879378924994, 0.21006719274892, 0.23953694877736, -0.25492991892936, 0.08571571149131, -0.13769573204805, 0.27641963399355, 0.0777954511935]
[-0.10426291074624, -0.28053338546405, -0.28034682294819, 0.06012207198864, -0.25592410025313, -0.08192422719002, -0.14055693078617, -0.04732399392846, -0.06370482522349, 0.21128602793225, 0.00047686183174, 0.25957272304238, -0.04277276918373, -0.09142273231497, 0.26378200252873, -0.15222185786083, 0.12248359011019, 0.15571725361978, -0.0947695566871, -0.0783638130756, 0.19885127291014, -0.1199902801607, -0.16114671429141, -0.03283361655274, -0.30242306228602, -0.28717031226803, -0.2457496512861, 0.04196634205644, -0.30612386846536, 0.27920216713748, -0.28208906539193, 0.21455539688427]
[0.09508217053678, -0.0920356444524, -0.01466816922799, 0.26329213594942, -0.11880335153164, 0.23273468668656, 0.02735188081471, 0.26485727173176, -0.06741105349279, -0.25033316087768, -0.19625515110198, 0.05774934656266, 0.1805777773335, -0.22843973161885, 0.18097048534132, -0.1860741243885, 0.16327831999181, 0.00419332186708, -0.18335867458088, 0.18370765598419, -0.19125388706136, -0.23033774871828, 0.10251643467597, 0.14078259283395, 0.10316238140505, -0.00267331744592, -0.29144711255557, -0.05076678782669, 0.13007652793742, -0.16117698954431, -0.18336030450595, -0.10004396640635]
[-0.1877413878376, -0.12735309910035, -0.27760869000413, -0.10263127327392, 0.0365914416623, -0.23234734603118, 0.15597230282592, -0.05560249504663, 0.07304742450708, -0.13285582803074, -0.01055418931309, 0.12262819816793, 0.29097731621126, 0.06352455103766, -0.29379974885269, 0.09620070960907, 0.12141431889001, -0.29148068067784, -0.24263776681406, -0.28497581047498, -0.22441294496434, -0.03376079324114, -0.12917521910121, 0.15651579311662, -0.20364456807397, -0.10629829337173, 0.28108615074003, 0.26085509962603, 0.30615240685861, 0.09707204871479, 0.15905034016066, 0.26494943563505]
[-0.30416290260614, -0.0023420199067, 0.12003805055048, -0.19403185126469, -0.14969805704242, 0.29621291861451, -0.22983058670146, -0.27154800872213, -0.14976508804796, 0.30093125087458, 0.0976773425032, 0.293465440726, -0.01317644499024, 0.12757255853785, 0.08761763822535, -0.26077585735975, 0.00794409622459, -0.25895278692184, 0.04094400005848, 0.07998993228348, -0.00582298756104, 0.04493573720659, 0.03994558361513, 0.00392738150706, 0.23377122667429, -0.24776098781905, 0.21974263083079, 0.29182971529247, -0.28410764383471, -0.04868300721038, 0.21117306940008, -0.26602794855724]
[0.20993532718209, -0.02204246758586, 0.13982129148645, 0.09506393388118, 0.30128636589055, -0.19416865321624, -0.19793364237389, -0.21465909007493, 0.19428922093123, 0.27756146339409, -0.25356475975181, -0.12225486379547, -0.28612780898708, 0.09727934651626, 0.09596785742556, -0.29712409393825, 0.27461753306651, 0.07997569693784, 0.0507203299027, 0.04565234018038, 0.21744782623606, 0.00258684612247, 0.08031176699935, 0.05410067521939, 0.24737133100683, 0.19590417827959, -0.07342870468356, 0.22163506432586, 0.19950077175573, 0.14391525395532, -0.10912155335801, 0.19104324575166]
[0.25166720756742, 0.11418351540805, 0.17624142713217, -0.04755972297827, 0.02549969849541, -0.14321746312909, -0.16509099872583, -0.00252819044022, -0.22270325521345, -0.13553395058026, 0.28209441073398, 0.28912293769465, 0.18953684988249, -0.02048213312192, 0.04053260880953, -0.26570590835633, 0.16213050081568, -0.17047775501086, -0.03000624310275, 0.16037378010402, 0.24370780299233, 0.07164112430787, -0.29056387495398, 0.27117446586376, -0.19960646627835, -0.13933679771101, 0.17769391708305, 0.18134875072125, 0.2075254849769, 0.06822365677809, 0.25486302802527, 0.16792997672244]
[0.03923754176466, 0.12071478339032, 0.1089799910817, 0.30027727781419, -0.207341465188, -0.09343312892984, 0.2724259038668, 0.18468362229782, 0.05384799441362, -0.24298335987332, -0.2182058633721, 0.06512524822159, -0.11484057985456, -0.06204497735752, 0.17826006983851, 0.18171418413164, 0.22370934895552, -0.10912262266445, -0.10207359230836, 0.13180751909291, -0.08194079809267, 0.2610534738862, 0.30429100667825, 0.06292404074847, 0.12105140158722, -0.12375168015581, 0.03837127337238, 0.2385297541623, 0.16314560038285, 0.09523223968125, -0.18529774314929, -0.11754897459012]
[-0.07180693766961, 0.21264592878022, -0.22528725613631, 0.29895017895353, -0.16554625748773, 0.12270594818829, -0.06856341346896, -0.24907439846962, -0.06560260327071, -0.15773486947557, -0.00948083045221, -0.23421829395566, -0.2307673008816, 0.18663783747164, 0.26301954714698, 0.03030758377128, 0.14912871346515, 0.13469981753644, 0.02186077275613, -0.11175571961217, 0.04267450607473, -0.07514765660394, 0.28619508147453, 0.07310813835286, 0.03925885866028, 0.17897265581216, 0.10415282714892, 0.23615594737929, 0.26602249220914, -0.06372799893701, -0.26065026545818, -0.00412031470929]
[-0.28921717528225, 0.23459889111214, 0.2671979422484, 0.27534215361375, 0.12945113164662, 0.10491230463785, -0.10204088419599, -0.11089130161377, 0.05092241774699, -0.23355625860718, 0.02214734892972, -0.0866449891578, 0.29022659295611, -0.05781548852543, -0.21204676859533, -0.25990650797289, -0.30400416748958, -0.03209708924639, 0.05404327728807, 0.1975150948441, 0.2831888072136, 0.1992893130499, 0.30360059997398, -0.0766787081633, -0.11764870145431, -0.14381547476834, -0.29331101768498, -0.1520887336137, -0.15872563590085, -0.02666272412701, 0.20289864885738, 0.08936328050269]
[0.19687869898474, 0.11932885220487, 0.26604212168203, -0.0041763204352, -0.2955832907876, 0.14523770957745, -0.26814119991748, -0.06231488409037, 0.19739283777456, 0.17651494113198, 0.25804751012822, -0.20128827484063, 0.07437413333279, -0.23178731295634, 0.23436044917915, -0.30340052209866, -0.17329266880059, 0.16203141892918, -0.23228424837144, -0.08630048098861, -0.23825382154559, 0.23352067809011, 0.02614461512532, 0.16082471206825, -0.16229671996655, -0.25951496619354, -0.13898410062745, -0.17659193839524, 0.19501681401458, -0.11873953552956, 0.07949446483313, 0.13616614717863]
[-0.10667145554387, -0.04053362829944, -0.23656191645359, -0.20809297152487, 0.09598497721261, 0.27148485206044, 0.15623902837243, -0.14810062320197, -0.25477469561789, -0.20084235888835, -0.21703410208477, 0.26244201670297, 0.04248093072296, 0.21434842980568, -0.18114727167412, -0.00987138956801, -0.21427701063189, -0.29118553687779, -0.08797555646774, 0.24394395790309, 0.21320530144354, 0.20051914067253, -0.02399485643658, -0.08720395836423, -0.12835609690852, 0.10882854879672, -0.23077726255553, 0.27969724163387, -0.17597526648953, 0.00228087253003, 0.13597432882818, 0.13469018116028]
[-0.29705504913928, -0.09365775382751, 0.20520355109001, -0.23190208106524, 0.02795048570566, 0.28412545145068, 0.14936933867351, 0.19347411482543, 0.17585214473148, 0.10493041575151, -0.00526740428502, -0.30304147948496, -0.24818953621567, 0.20767585754301, -0.04620025235585, 0.17344755900137, 0.14455886285773, 0.24695957182558, -0.29339073385648, -0.02923625931795, -0.29094091531571, 0.28361208591858, -0.13452276984509, 0.23800039152031, -0.02682074916419, 0.11273096512955, -0.19832681083447, -0.03771843743285, 0.05344341501121, -0.04557521354083, -0.20196506120646, 0.11963940467128]
[-0.27140698785811, 0.13991564659421, -0.26497486346538, 0.11554603686579, 0.19193885401575, -0.03034864721911, 0.25449831722378, 0.26191765523541, -0.25443204200446, 0.24473710724821, -0.29935121017011, 0.21886420317901, 0.25052064234573, 0.21690580190544, 0.21520329502988, -0.2874649546927, -0.09756893448625, -0.27851443423917, 0.27674106988856, -0.18166487972686, 0.00024707662079, -0.27790702264597, -0.16566835118477, -0.3040097062626, 0.09307375567036, -0.29852573176991, -0.20946253846315, -0.27751625686233, 0.17446141619212, -0.08321300436028, -0.26701289970307, 0.11059929148459]
[-0.24992417422984, 0.07406565057326, -0.0108133224004, -0.13016176784442, 0.28854457942629, 0.22169501688076, 0.3040688800281, 0.21266914135339, 0.18741490872954, -0.11871856086906, 0.16121240887535, -0.29584763913377, 0.01712710884236, -0.04678232507062, 0.06318752548409, -0.12878810878395, 0.18148614763544, 0.11118410221779, 0.01718759788172, 0.0526100295491, 0.16338266479114, 0.28136440303588, -0.20422378799529, -0.11341739915261, -0.03539633633967, -0.05233557490104, 0.16559198513276, 0.13952369347726, 0.23588498109259, -0.26496514719771, 0.1071237777353, -0.2378097136603]
[0.07813901530512, 0.07138776530129, -0.24873687811187, -0.15345420892109, -0.18721417017084, -0.10480715053903, 0.04244017626753, 0.13322895035671, -0.03391645282025, -0.18524037627404, -0.08190561727529, 0.17755468615107, 0.28489174826887, 0.101388131776, -0.27685160709772, -0.21750308653776, -0.23178430348014, 0.27835892071244, -0.21129509983039, -0.12507066767457, 0.23745714231169, 0.09281193501605, -0.08825443881767, -0.11426336683311, 0.17001599450933, -0.2461249799433, 0.0592349517489, 0.03237307779761, -0.02929164194951, 0.14937616286817, -0.2462973672454, -0.13126358441639]
[0.10624285275532, -0.0469098758559, -0.00281466690302, 0.20402250053957, 0.09398959823322, -0.27145390113587, 0.13773617258522, 0.15732534827783, -0.13328174618653, 0.11011622202709, 0.13952179048238, -0.21967104142061, -0.00905373983332, 0.08831929635876, 0.17116081810497, 0.04674680732608, 0.28383756280673, 0.18149015017309, 0.2787614541422, 0.00902698322308, 0.13979250743939, 0.29439606536683, 0.02267562382631, -0.14633256879728, -0.21463694528602, -0.2498992087438, -0.03589399142959, 0.15675466859403, 0.06656821613034, -0.2218374987622, -0.00303073089178, 0.22975041696293]

[0.14304006122913, 0.18898390003665, -0.01455373826598, 0.10569549097246, -0.39441997021363]
[0.30684619356713, -0.14072103240899, 0.29746884587265, 0.12433154649638, -0.13089115618822]
[0.00502923942179, 0.23369233720639, 0.19311501584523, -0.40213067975792, -0.27025417532004]
[-0.27967015157001, 0.20176246068098, -0.35365626528867, -0.07030840854445, -0.25634219335918]
[-0.1445318524385, -0.10393477598438, 0.35877480445846, -0.36457969979977, 0.04230102918598]
[-0.26827653432725, 0.16302713642433, -0.36143926526128, -0.23893838936228, 0.35226498372464]
[-0.33913495944819, -0.00282810496821, -0.0803513675484, -0.00274554530658, -0.01113093886144]
[0.24960704017341, -0.39278642988966, -0.19519608672337, -0.08234062885003, -0.02402699023779]
[0.2199152864718, 0.01629439421069, -0.12912068578322, 0.09010256233873, -0.06284991092341]
[-0.24520502182128, -0.12961413475472, -0.20927548479634, -0.15405358973459, -0.22953989378994]
[0.28738533173335, -0.37748390988374, 0.37366710700082, 0.28608273636066, 0.06193295602112]
[-0.31111982824065, -0.02143638976524, -0.09887640379782, 0.24736065139086, -0.08963813366438]
[0.08491593825697, -0.0844480111049, -0.07285639000152, -0.18271944481966, 0.36732722317491]
[-0.30397082938773, 0.29543286251317, 0.19748668031558, 0.10797309981904, 0.08243222729319]
[-0.28013734821811, -0.04316583481403, 0.17622538120266, -0.01355331888532, -0.09327533599699]
[0.1017801077166, -0.3466363521496, 0.12250528247011, -0.17386098765221, 0.13339417897047]
[0.15336860060354, 0.25812262058945, 0.39951094626894, -0.04708917124735, -0.18899860903698]
[0.38850231599338, 0.33432645474957, -0.33958358952196, -0.06056775502979, -0.37587891118189]
[0.24867330393225, -0.28158492463938, 0.0292942209505, 0.32218349537578, 0.14118233629158]
[0.24193746973527, -0.37698458162144, 0.01455511297328, -0.27254435799092, 0.14463008476947]
[-0.24581975799093, 0.35702397089807, -0.12986243265517, 0.06422276445608, 0.20320252947882]
[-0.35509968131166, -0.22073823291341, 0.32379238547527, -0.40157079866456, -0.28230482704354]
[-0.33711364422582, -0.31382724996343, -0.19941482610137, 0.25372046462514, -0.16354611485791]
[-0.34907169076917, -0.25588108762285, -0.25324344206508, 0.25977624106701, 0.32550346729277]
[-0.39645288615204, 0.23835559299966, -0.07500491198272, -0.03260071971302, 0.26966767707282]
[-0.33368707080348, -0.13116322889569, 0.3553369954549, 0.34761585915735, -0.2806205304454]
[-0.23320787739039, 0.39619424250228, 0.09478470991175, -0.00922680905889, 0.22461681223049]
[-0.36584828776573, -0.3176436858162, 0.1213763217853, 0.12909000655078, -0.17626301623963]
[-0.22155791900463, -0.26062079859384, -0.21835075214335, -0.31303340659603, 0.04392126046647]
[-0.29820284853495, 0.1007829986603, 0.12691490560545, 0.34012608378008, 0.11094929365675]
[-0.25833410656251, -0.12413350732688, 0.36680590088491, 0.39037051140254, 0.39276873210616]
[-0.09828076805571, -0.30855025887772, -0.17504122617923, 0.21869153162024, 0.21340141590865]


Best Model in generation 1, with a score of 18.000000 
[0.17729326874258, 0.15013648667683, 0.03957646784304, 0.26368763493876, -0.09156811306685, -0.07999266886094, -0.20273997981324, -0.01763127704173, -0.28563289174936, -0.19688845936998, 0.23426422175217, -0.16272786989463, 0.26595007103156, 0.19552729540785, -0.26926568532391, 0.16914046739352, 0.08233116361176, -0.18154637162984, 0.2041681099285, -0.19111434456049, -0.25975473353768, -0.14089888265881, -0.27209875408853, 0.27078688173575, -0.20930649862989, 0.07697861804876, 0.25642739520289, -0.18121069888786, 0.15079793435684, 0.16829925244764, 0.07464555440752, 0.07821772496613]
[0.28700418472068, -0.1004550187334, 0.28823080184592, 0.13057624055286, 0.12125319906963, 0.2648252306639, -0.22871740566331, 0.20084304916022, 0.07864199711077, 0.10775010388418, 0.22519828341832, 0.2714590176073, -0.13390784292251, -0.09882926332096, -0.22918547639608, -0.26081586903258, -0.15102819421488, 0.25957074592538, 0.23042335968944, 0.28242945947362, -0.13524018660275, 0.21167818911646, -0.28593079780648, 0.10766327668999, -0.10868248326785, -0.07379043406759, -0.13536741251114, 0.23836113639228, 0.0326930923435, 0.09475829986597, 0.28437263734482, -0.05982957624337]
[-0.16246260722717, 0.05159209556399, -0.12121952078467, -0.24359208702871, 0.12180798645959, -0.25579375076149, 0.233719068567, -0.06377483030735, -0.16115439089141, 0.27501290894555, 0.06157702944841, -0.14830562466975, 0.07184139224945, -0.056024929471, -0.26000366285292, -0.01258764748106, 0.198859002714, -0.0907143668276, 0.12736061382068, 0.28112492642935, 0.07779887151985, -0.1917148352169, -0.07010883769321, 0.22931283569714, 0.05726835920332, 0.14144757364212, -0.19759113353015, -0.05420071246834, 0.01477209052866, 0.15995497059964, -0.00942286906356, -0.05329927359752]
[0.14500553483085, 0.06000741545007, 0.14984919600777, -0.19930048887475, -0.01655819202851, -0.16768130101569, -0.13726957329587, 0.1541043536316, -0.02039967725355, 0.05388661056552, 0.0552397029644, -0.04939180157151, -0.25810351315863, 0.21474950493652, 0.26740580983482, -0.15301399516936, 0.07212039523282, -0.11749983026679, -0.29046939188761, 0.2728375457579, -0.11700147867619, 0.17058681292892, 0.2057298735108, -0.08966023779677, -0.13783333028121, 0.19049146544037, -0.24656906464343, -0.12958533346027, 0.19824716061247, 0.22482028099269, -0.12938517922142, 0.26983956113891]
[0.09503466079499, 0.26774416324994, 0.12036144003041, 0.06675456603919, -0.06471976893285, 0.27058589608753, 0.2631669482488, 0.22605037819539, 0.16324105705768, -0.21741679125691, -0.03204182461893, 0.09415163010354, 0.24036480022101, 0.07530722150456, -0.29434326655837, 0.27456136854188, -0.15115404500253, 0.17927205213018, 0.01124112018365, 0.1681372338908, 0.16976743005694, 0.11363521267447, -0.14330834988155, 0.24923673220191, -0.26167698209851, -0.1084100246585, 0.09501626711658, 0.0295559025116, -0.14255630393062, -0.16377657631242, 0.00354592071156, 0.13183358196426]
[-0.03565841955535, -0.16017648365975, -0.05887827502139, -0.0287968342831, -0.19091315316544, 0.16464590214894, -0.03713443991613, -0.02078823318584, -0.04493808237405, 0.18120197032941, 0.07459363342779, -0.20071884596778, 0.00538069509915, -0.2791467844462, 0.17353561622406, 0.02893852468791, 0.07041832757394, 0.1900887583462, -0.00430922326261, 0.23857270911652, -0.03609713777456, -0.20032591364934, 0.21965935463177, -0.11145290734523, 0.16053583835386, 0.10837573912726, -0.01803927699118, -0.06832153462143, 0.13081783576385, -0.00141746566139, 0.13533655494983, 0.01667995567084]
[-0.0947438844877, 0.24485792197769, 0.20747624110421, -0.08288183312621, -0.22608389950461, -0.12604896048524, -0.26049410314019, 0.26390318413069, 0.17890601694667, 0.07717743860928, -0.24654125414225, -0.00573990470488, 0.1109469916349, 0.14564638635641, -0.22796635373185, -0.10886875031287, -0.28503500911807, -0.11684582021946, 0.145309085803, 0.1628292704945, 0.14240619614899, 0.2588903779968, 0.01147165639121, -0.02135265588735, -0.01988625252792, 0.28898436180575, 0.05953878066366, -0.03998264524142, -0.19882398163178, 0.02871083372261, 0.15011628023379, -0.26043559353414]
[0.01058071413672, -0.21198960916724, 0.08474658610423, 0.17951380785766, -0.05932702416079, -0.18579156809686, 0.05558991587768, 0.11383780706263, -0.21153763755753, -0.08297430880826, 0.13408992383501, 0.10287677380875, -0.1612194707429, 0.19871307791658, -0.02287029630759, -0.1506104788346, -0.17985082486669, 0.03915540439763, 0.11790272916276, 0.09059276266938, 0.22834551725601, -0.07005669205259, -0.05631754612689, 0.09570324372923, -0.12023467127079, -0.21090877294776, 0.07458289340331, -0.19732989886908, 0.10753167255111, -0.15294013533872, 0.28537312100957, 0.24498928633569]
[0.2032122901778, 0.24886274957755, -0.1207963175185, -0.18460156631396, -0.11481276522569, 0.21013127698877, 0.20665224432145, -0.26999732634322, 0.02648400234691, -0.18922541606481, -0.08945287130995, 0.12282626767773, -0.22908584973784, 0.25563016516521, -0.16915857642745, 0.05984507976054, 0.03426173602689, -0.06774305008222, 0.14255732298458, 0.21967497374929, -0.17371337755286, -0.01713072588232, 0.11002200279223, -0.23162912050712, -0.04454529407506, 0.14670515032994, 0.04332999733965, 0.03933995680359, 0.07283360835829, 0.01267146692367, -0.10204620626425, -0.0498453544339]
[0.23805864932984, -0.14164892509844, 0.28143235946738, 0.00168521178047, 0.20263399762657, 0.05649655230935, 0.09518546268577, -0.17674777082778, 0.17722868733916, 0.06936635663997, 0.19912675346451, -0.29381718153274, -0.0267507334012, 0.23729953113492, 0.20305278933926, -0.03363571056389, -0.05878625203055, 0.1258462029086, 0.04016291031596, 0.22586013870114, -0.29065384117269, -0.05400461044253, 0.06375445590705, 0.17505729629353, 0.05489467439203, -0.25459600576275, -0.17258851706396, -0.0569486572978, -0.04618120516732, -0.28413648446012, 0.28584306418219, -0.07456087043046]
[-0.08352647694683, -0.20163924830005, -0.24188731229832, 0.04303922186011, 0.25642397219084, -0.23004906674334, -0.26324989544842, -0.21358476396478, 0.17358787742518, 0.04005592317753, 0.06842788714582, 0.27230389213548, 0.11572950610649, -0.04449074022959, 0.06327270893572, 0.2333478664712, 0.26641616154993, 0.25499878929312, -0.09064977844298, 0.19207529021419, 0.28443621309895, 0.04821488640374, 0.05313939534091, -0.10533790089447, 0.22595116813564, -0.20322479582585, 0.04888951956239, -0.20345378535931, 0.08730522639277, 0.15758481761902, -0.12850321062855, 0.05665938982905]
[0.04490041610454, 0.05299585129988, -0.29055570158375, 0.16472738422283, 0.28256761307304, -0.03642988538583, 0.03811825891855, 0.28148558678194, -0.13763797686189, 0.19562285616261, 0.25866606370563, -0.13307819958369, -0.28658807434603, -0.27812331333238, 0.26372383597414, -0.22436903199184, -0.13777868541499, 0.17104778609408, -0.08945869585194, 0.01434548173874, 0.28397255376995, -0.02611799810212, -0.25000989068411, 0.00060515992801, 0.11326346658514, -0.0515950141127, -0.05171317084666, -0.02730400601017, -0.03742195877566, 0.20953196890161, -0.22371501653797, 0.2090966144036]
[0.07702039558198, 0.16676879916147, -0.31432377078908, -0.14232433441246, -0.26533647032272, -0.18083291884941, -0.14277618934238, 0.26384129964447, -0.06731333144753, -0.17124396251684, 0.10347136809535, 0.11365088911429, 0.04057037267594, -0.17381631987186, -0.26287796402357, -0.25351455656761, 0.03756282893156, -0.18637301463842, -0.15448492488778, -0.06256309572728, 0.26208655651046, -0.01176215067568, 0.28982199499638, 0.14067644051334, -0.18620790130376, -0.14526162624486, 0.16183152881983, -0.15074622301687, -0.14496624854968, 0.00668529552177, -0.05717244393967, -0.1578397414267]
[-0.32371807315499, 0.06596231858249, -0.29033299533453, 0.25660740709739, 0.02045775339373, 0.13828278978353, 0.14894998356794, -0.05751919970481, 0.28946910000475, 0.17750394311186, 0.29227055400812, -0.24138925728874, -0.2166197790185, -0.22274063424892, -0.00049596235769, 0.30229646375882, -0.14097418675064, 0.21304242430665, -0.04507534650047, 0.0964166266356, 0.28177816151761, 0.06643144043328, 0.05303831925782, 0.05807290945992, -0.01396721945002, -0.25866121807147, -0.18810796281072, -0.25482339929227, 0.24564831358998, 0.12012843217196, 0.20192768459384, -0.01810081388429]
[-0.02624015244788, -0.13009024935199, 0.16981467331575, 0.10182773253127, 0.02540535526805, 0.02616428343076, -0.23951855293348, 0.01494058424782, 0.28403212926858, 0.09054247334619, -0.13940441740304, -0.18473738782126, 0.1089221982263, -0.08160231314976, 0.27669651868539, 0.11300216164627, -0.06931627210561, 0.03323290127652, -0.17773991355915, -0.20262169514225, -0.09672753252899, 0.26028726993258, -0.20209215660495, 0.16320251079872, 0.16013785897189, -0.04496479158098, 0.32042940319758, 0.18564702049299, -0.15107905217711, 0.00240137146092, -0.28973640993538, -0.06422514051244]
[0.16794464784846, 0.07311545584214, 0.15698640350571, -0.10342349153506, -0.16585100505085, 0.1898813738476, 0.26488301198265, -0.01145979359134, -0.26694086655408, 0.26418298620437, -0.21802328082818, 0.03334500682017, -0.06002119617827, -0.07439747071046, -0.05102944850342, -0.08502421296794, 0.25767488695688, 0.12016289674341, -0.24830839172976, 0.18545138919115, 0.19854724739892, 0.13959899143896, -0.0407839279374, -0.20587881271518, 0.07351104519961, -0.04036362928374, -0.2320704513636, 0.16139821918282, 0.05248528425596, 0.02471194179253, 0.2639422828284, -0.00410177095085]
[0.28859376152604, -0.28649603768486, 0.0333563857144, 0.06283382336169, 0.10357663813416, -0.26785567328723, 0.0485997043607, 0.1706043804103, 0.259421514624, -0.25319258550466, 0.02828469994269, 0.24209002489346, -0.2735108376384, -0.01637019822252, -0.0879458577747, 0.2671268160678, 0.13614686973783, -0.05215903035772, -0.0744591188217, -0.07188991751723, 0.00922440279996, 0.01117149339918, 0.2676208942177, -0.26171078297926, -0.01634580232178, 0.12365518812094, -0.25208813630969, -0.21358356183062, -0.1514881874936, 0.16519072558027, 0.27093248018281, -0.08365504516318]
[-0.20370456089501, -0.12359635849794, -0.00250517241142, 0.1826112151713, 0.14369748020648, 0.08196636876212, 0.18736728673287, -0.02988481858848, 0.26591964197707, -0.08965268137731, 0.06700937088618, -0.26547652510251, 0.14740396590312, 0.14598946258324, 0.04311471338946, 0.23495840244753, 0.0595717291139, -0.26028318478881, -0.28105202082893, 0.09333629095912, -0.01416547559209, 0.14269924877141, -0.28259294951399, 0.12691051123776, 0.11967414187723, 0.14734308624341, 0.03269923977126, 0.14429938631605, -0.24276017937401, 0.28526994874554, -0.01335106635857, 0.00557352058571]
[0.23138129763728, 0.21015369507562, 0.15853131693904, 0.15890494508573, -0.23503723655994, 0.14347717161608, -0.11168748422085, -0.05062847374316, -0.23085994697081, -0.07709741248597, -0.0949780699678, -0.24306524950703, -0.13728677523284, -0.27628454994318, -0.02112616743387, -0.08157672486776, 0.02237585603312, -0.25540503339341, 0.09579162271628, -0.06787676063222, 0.27520727272127, -0.01678400935506, 0.27081206459621, -0.16002197503388, 0.02926181829999, 0.08624288777923, 0.2091686977101, 0.27320213663764, 0.01513792417781, -0.01667229692536, 0.00435970587711, -0.14253367899004]
[-0.18535473452276, 0.11509759315329, 0.05474418656119, -0.02555406724346, -0.0442254388587, -0.00822922921938, -0.15530660950004, -0.1657886892211, 0.28268172437059, 0.1322840141415, -0.1098807943292, -0.22554303042606, -0.03111593327721, 0.0180054988539, 0.05803195449532, -0.10875755993776, 0.11428812062117, -0.10629928370393, -0.26997410617586, 0.1285880906361, -0.20676397324699, -0.17561064751227, 0.14813619330807, -0.19362433487023, 0.04100419892049, 0.11270946487357, -0.0207353112509, 0.10653343741006, 0.0470363429242, -0.18718890103773, -0.17934168981063, -0.10598135566798]
[0.05909120818494, 0.06665782145748, -0.12323211459303, -0.16533911203716, -0.06684618039438, -0.24919375464359, 0.08373685931846, -0.07081515903231, 0.2636478060662, 0.26276860007443, -0.15705466760669, 0.14340969545538, -0.13674801137474, -0.05056193040807, 0.12582505841369, 0.24649387482143, -0.20057490181649, 0.2715014587127, -0.04300325378807, -0.18173114293211, 0.06995587251951, 0.13420763434111, 0.11869169705732, -0.26700440559273, -0.24014607078877, 0.2048063332494, 0.04701781853223, 0.26761979326831, 0.10251397678331, -0.24479799370224, -0.10504190272138, -0.0184771394319]
[0.03222420684949, 0.25949160782387, -0.2201609306614, 0.22851969985982, 0.16615360120571, 0.03419022792958, -0.12029285165405, -0.0982103475147, -0.27009585641467, -0.21215350036661, 0.25676346357787, 0.01902727224149, 0.16982177484259, 0.24482813080768, 0.11480603764164, 0.21502850502367, -0.18613175039126, -0.08297218513737, 0.1010613764083, -0.26659281018659, -0.09364402640448, 0.20053254802235, -0.18722116262795, -0.03678668086039, 0.12750508084615, 0.06623785672187, -0.0247705006457, 0.06949020495085, -0.0705867318722, 0.0500906837214, 0.21250996084763, 0.10000603930568]
[0.02997539351607, 0.15677719585409, 0.03754761132821, -0.14208930502939, -0.10963276992812, -0.10774313989186, 0.29196291156445, 0.00366555432496, 0.22794262788219, 0.10449843897461, 0.15424503702748, 0.1812468422053, -0.23821680556444, 0.12333987438112, -0.12446637020923, -0.05460805545701, 0.07248873204587, -0.20174720391784, 0.25915855672462, 0.178847909223, -0.08887099394804, 0.02286053008656, -0.28579069954216, 0.17681362454962, 0.06305688854441, 0.18182602221951, 0.26778887877164, 0.09866170042021, -0.24411966037684, -0.19972520389287, -0.22795883037479, -0.06307143442853]
[-0.2513338644452, 0.17717565092589, -0.29310811283199, -0.20956613560409, 0.06819475458805, 0.15622117971011, 0.23800611655728, 0.09294111283667, -0.2782482681266, 0.06421116969608, 0.12302892402766, 0.05329462122077, -0.00935667063433, 0.15403278847406, 0.21559837614094, -0.20233877098911, 0.02072270607053, 0.14344870619874, -0.1877260751942, 0.16099016595543, 0.04071166372653, 0.19502037919369, 0.17222389703735, -0.0028355677951, 0.06160171711914, -0.11477258053162, -0.04991879745967, -0.21522920055696, -0.21742864866216, 0.12657507613059, 0.15451030733046, 0.24484251511986]
[-0.23824468303254, -0.17183919472192, -0.23505115381392, 0.22117025483598, -0.26803819551182, 0.134527415422, 0.16393156234777, -0.23699834750398, 0.0871231255271, 0.18205258202375, 0.03118819522138, -0.02083253917617, 0.2518641157899, 0.13196326821799, 0.10557440410342, -0.00416763618726, -0.01515985081564, 0.10595297173542, -0.01868598972582, -0.07029359931582, 0.05561798903897, -0.03998105912343, -0.27809837245163, -0.16902042347455, 0.25886256449719, -0.28869996364633, -0.10310564585235, -0.14778583249334, 0.10152465783318, -0.11325282280267, 0.01584328017551, -0.2271523022431]
[-0.10735272021022, 0.2100035849546, -0.15646722105731, -0.02290805808253, -0.1171639165118, 0.15592155985072, -0.28336568569914, -0.09953831152446, 0.12894153892794, 0.23878661880128, 0.23792415491313, 0.13964402700125, -0.15630206394557, 0.03510420052817, -0.12808221599675, -0.06119323413388, 0.05901020977111, -0.25866071280055, -0.04017919107601, 0.09393909249376, -0.02325053660926, 0.26327767763353, 0.27621832895578, -0.23271212465262, 0.24108994398633, 0.23392516897597, -0.21103113285169, 0.27844956278205, -0.05860627186828, 0.01848211813302, -0.07937986813673, -0.07303592032613]
[0.01952744165869, -0.04127325365211, 0.09118853239416, -0.02261379689582, 0.19867436175158, -0.10079578598139, -0.20399993447952, -0.12532488141802, -0.28641760812221, 0.14399981936, 0.07177821135393, 0.26657630151859, -0.19516940570539, -0.12052934913784, -0.1935716017734, 0.01203369265568, -0.23718262075447, 0.12292567904996, 0.11796110550533, 0.01591198734447, -0.19544273744452, 0.29966051444941, 0.23141485726767, 0.11781125432312, 0.1084102081522, 0.17601081405676, 0.28172698247702, -0.04359551007649, -0.28717571338124, -0.04588243184106, -0.08877556073817, -0.28265006231022]
[0.27628164807253, 0.20612548990402, -0.14381877332241, 0.02030133938811, -0.17740803980321, -0.02300425394929, -0.09383557231085, -0.22016427039024, 0.20859905546796, -0.26454920030527, 0.0378293676232, 0.11572566414922, -0.23620657556158, -0.19884760369288, 0.11692451048805, 0.08019039446904, -0.01561987097172, 0.17270730914472, -0.00235899255987, 0.14740830556506, 0.24657165895847, 0.22434021658451, -0.02123011457461, 0.14130424894422, 0.21273680056212, -0.2212403869765, -0.09350718378155, 0.05010408746509, 0.07496859834822, -0.1162738866, -0.08050157359397, -0.09929145029245]
[-0.27179696199367, 0.23870505388951, -0.31329214468991, -0.26278707197907, 0.04925695559827, -0.08052505958558, 0.11691059968164, -0.2564212839847, -0.03869567150182, 0.02023270873644, 0.18679386751034, 0.14014953600562, -0.13917888594346, -0.26612842804286, 0.22495559370602, 0.13495794339721, 0.05533150293453, -0.01406495685311, -0.23240934500135, -0.00019399816686, 0.0014589959893, 0.26515400366446, 0.26068983712272, -0.13683238361905, -0.11894771151309, 0.18977117653855, 0.26125780545413, 0.08966053265439, 0.11051855558718, 0.10224986838356, 0.27124706255794, -0.05769472721771]
[-0.14553560984785, 0.24749305601238, 0.17547744982166, 0.14043265576385, 0.1402881845453, -0.0085668977649, 0.22046578499249, -0.12476194011834, 0.10838866373484, -0.05331379872263, -0.25946285561274, 0.05501567928218, -0.19673353280011, 0.28448880111173, 0.14822365629236, 0.00367404785201, -0.0055308662888, 0.10694959799546, -0.17841950247169, 0.2121773529436, 0.02622624733633, 0.1913669463892, 0.16220269776568, 0.24789852943475, -0.11348973915493, -0.18180217198989, -0.00665904411882, -0.27548082365662, -0.05967637692948, -0.02011473562538, -0.06288602403464, -0.07777964967695]
[0.24233269519199, -0.14038338197877, 0.25798662593554, -0.15608007131301, 0.17823877340525, 0.17254571651974, 0.01421485147707, 0.1861574599195, 0.16039924875058, -0.09365301475062, 0.06817269740991, 0.22746098146951, -0.18142094519452, -0.15623761509992, -0.11386491799984, 0.23225792254343, -0.18097019179578, 0.05160974023501, -0.28491226714818, 0.1825088544408, 0.08438442937905, -0.16225181716351, 0.28275566538116, -0.2731033169199, -0.20341287030751, -0.18074108471456, -0.23331788894575, -0.21526112727348, 0.06755728638678, -0.22273185044633, -0.1548544146114, 0.17003619791136]
[-0.08437289003938, -0.11352508557243, -0.10547536313179, 0.08606178887275, -0.20005007455464, 0.28626895434573, 0.05783530072111, -0.23582540995506, 0.21231167911406, 0.11468021608113, -0.16950009791338, -0.02695808364722, -0.14774252890734, -0.24315627416826, -0.15701713103255, 0.29289558733457, 0.28433954516119, 0.18770804844217, -0.00902331133202, -0.05608456510097, 0.07372094097541, -0.29481165291694, -0.23794413247531, 0.09041129136341, -0.20532348306364, -0.06434834899897, 0.22941285985537, 0.10975693853615, -0.17703878519407, -0.20641472554608, 0.06498369017177, -0.14843125916049]
[-0.25430299475382, -0.08611413661484, 0.21941166217243, -0.09254311115498, -0.06049795939667, 0.26116193415141, -0.25290109518848, 0.27882424221637, -0.01087602637486, 0.15511279477301, -0.21781242474942, 0.23654707036503, 0.12318559559398, 0.11831832060654, 0.11170623135015, -0.0673382582409, -0.27055813287645, 0.20989626412699, 0.08709455941825, -0.27667504736475, -0.08575238872388, 0.0504451954105, -0.28122207911713, -0.24182476548968, -0.05324277288002, 0.27193061308016, -0.12701072185477, 0.17436104414904, 0.27262101708886, -0.21264002086143, -0.08995251017979, 0.05064589665213]
[-0.28408589180791, 0.04538214046443, -0.02263257833406, -0.25800924474219, 0.00962081811628, -0.06535606056264, 0.25449830866967, 0.03142982307665, -0.27437042925834, -0.04640951453741, -0.01829178432323, -0.2850264370784, -0.25262166563839, -0.22488265778459, 0.21203473038979, 0.0482549514842, -0.13702936446193, -0.06705872686618, -0.13673180605174, -0.15940557504147, -0.01473390197903, 0.1230332877257, -0.0678648969709, -0.21233065344534, 0.20412020348782, -0.11670938813831, -0.21648170567093, 0.24182420340954, 0.11850827619364, -0.08595281424276, -0.05417745425469, 0.23716344723301]
[0.00500520484858, 0.27044204326497, 0.16809006946071, -0.08352685167085, -0.21514371827155, 0.28353457264413, 0.06419914803084, -0.05303712613955, 0.21557607030889, 0.09903703282866, -0.27456297415125, -0.2527585607321, -0.06034618633627, 0.16876191183513, -0.10995920110503, 0.05457269945564, -0.29195570288922, 0.22708608316002, 0.25295037465114, -0.26720038148584, 0.06499181247033, -0.05890877562235, 0.25863924636534, 0.15504061897272, -0.12986995837337, -0.00445970837995, -0.06566508179571, -0.22224956321693, 0.28813605345114, -0.24826111945133, 0.22602286210239, 0.08375654382353]
[0.23682518738846, -0.23658071204948, -0.24844948024007, -0.08449974327479, 0.23395075730936, -0.22302800010245, -0.07422228610659, 0.22882250961395, 0.25679613995454, -0.24493672177165, 0.01090404828551, -0.17656742230577, 0.2882104251127, -0.00835597834384, -0.05380351979015, -0.02510012526112, 0.15029518922412, -0.11653135215696, 0.0405505178163, 0.21750498868614, 0.18893914244049, 0.04960642705833, 0.2261490685783, -0.13669615097315, -0.18942977962838, -0.17956401017919, 0.01605072832294, -0.27329074612544, 0.19302897553459, -0.08523632010392, -0.26090395013368, 0.29256169074958]
[-0.12757096122388, 0.23637505106419, 0.21388505693656, 0.01464575245216, -0.13686324386571, 0.1699282670958, 0.05409111497653, -0.20525514824314, -0.04330518643996, -0.19969403059083, 0.19220880670233, -0.08886753936044, -0.24208926704336, -0.0089170629302, 0.27865918426998, -0.11455963282957, 0.07624659927089, -0.23987325674412, 0.19689264598236, 0.24819966417501, 0.09854934642147, -0.10894306134107, -0.0028764878884, -0.17133525661178, 0.25605541237351, -0.21191727432704, -0.09229630417864, 0.26053866812879, -0.12280391134904, 0.01600261265127, -0.11531869319998, 0.1375354941992]

[-0.05835745383101, 0.20863630391154, -0.08591556334394, 0.29541234387216, -0.18079476482247, -0.24218065809255, -0.1422392681925, -0.17332033119058, 0.04713311570928, 0.12505405947399, 0.19360634656092, -0.04513326834644, -0.02264844896817, -0.00056595354183, -0.18181440426437, -0.02517126029344, 0.10326248963319, 0.16563191891727, -0.29534858857946, -0.01059253542299, 0.27258836036688, 0.18188009237337, 0.16344723885374, -0.12969256617777, -0.0992207139609, 0.29558966871312, 0.10848889267564, -0.26762478870908, 0.28610933460221, 0.15354069401098, 0.04879421002193, -0.29962519228796]
[0.24869081158903, 0.02100980351317, -0.2240488691369, 0.2652477244078, 0.03557933231636, 0.04579305264827, -0.2481631157537, -0.26459421545256, -0.02793543250121, -0.25634932419521, -0.22583418127079, -0.21106417577055, 0.12998169756967, 0.26152323340642, 0.19934851168983, 0.29693902698992, 0.17771813493228, 0.15132852245129, 0.18998423178664, 0.08971476217411, 0.29787333498344, 0.24801327588648, 0.27263680539357, 0.11159630392142, -0.04283214114143, -0.28151238428721, -0.07971956649984, -0.1616771961267, 0.16695625924245, -0.13142176921117, -0.06148761365286, 0.28298644751968]
[-0.29297008790461, 0.12797004059372, -0.10916698017623, -0.13498326974767, -0.2674906147369, 0.30424433223549, 0.2901204091442, -0.29474060540615, -0.02697428520081, -0.25813251060573, 0.24972478957977, 0.10999303685243, 0.04415037759702, -0.02425709476169, 0.14554244455358, -0.26984452459888, 0.21556957893863, 0.19761560173415, -0.0515544334405, -0.11981064738617, 0.06676652902773, -0.13629667196372, 0.15947652006628, 0.13455908486794, -0.18429009028567, 0.07761952985454, 0.08036115248411, 0.2457904188963, -0.06351729948974, -0.25393131615136, -0.07324579299152, -0.14518717112195]
[-0.10554199347983, 0.02884984747065, -0.20631967534871, 0.2608560656125, -0.15839901963726, 0.06414282399813, -0.27613140121644, 0.21563941349945, -0.03279373907924, 0.07531625574513, -0.23393668725096, 0.19464903168451, -0.11952281550813, -0.02014429757494, 0.26601247659165, -0.29160164625758, 0.13457745432561, 0.13386043462913, -0.19103851368595, -0.11245637478078, -0.07945426686988, -0.1844424788898, 0.20257673669115, -0.12274018240461, 0.283555594988, 0.0832320517222, -0.1791252278095, 0.22673438352601, -0.22473491297442, 0.25626499039968, 0.30451361005324, -0.13086407134687]
[-0.30515700858962, 0.01666453249307, 0.26874234120669, 0.08067386666125, 0.29033709845577, 0.09143827109375, -0.26317562384234, 0.21402612896534, 0.27046466336813, 0.08711577648391, -0.09897584662714, 0.16893518230656, 0.16300842941386, 0.22753419027433, 0.2592217901465, 0.17397702265428, -0.2078297048984, -0.20845596806296, 0.21082031527756, 0.26113414530926, -0.06278394767095, -0.0773762462715, -0.032250814127, 0.12145135432584, -0.17138480215346, 0.05602930764765, 0.299362401898, -0.04295345304657, 0.10648580960424, 0.08517939055159, 0.1041112416311, 0.23396707154275]
[0.05996013182134, 0.24993744896523, -0.24285824569376, -0.21310938555432, -0.05392661478276, -0.25140451037916, 0.13433662868914, -0.03086119908725, 0.23280729934025, -0.035351656745, -0.08833086104708, -0.27402983760646, -0.03312463775528, -0.14798823097324, -0.22372518006134, 0.14561812672236, -0.07249926603777, 0.24963947643528, -0.04477643531295, -0.17070886419226, 0.16785571846589, -0.0330271127001, -0.23076489198099, -0.00670486735472, -0.14328275625582, 0.0971132543686, 0.3060280422388, 0.21784165966006, -0.23773706420208, -0.15572706984557, -0.14794660968346, -0.28889638797314]
[-0.00877555140879, 0.17592276890698, 0.26027686488784, 0.18986030861976, 0.25889900202132, -0.01898125472183, 0.14742301966981, 0.03210121984788, 0.11206422910228, -0.23527485465193, -0.106382670295, -0.26386048095721, -0.21947250431303, -0.07972813681611, -0.03719355627599, -0.0150903744926, -0.22570135024789, 0.2507390343204, 0.26575951314545, 0.0165593522833, -0.0629777554641, 0.05310881985835, -0.03882665081767, 0.19925994110277, -0.29539329966168, -0.18463928328419, -0.04586473870671, -0.30375660152719, -0.29904583698848, -0.14459000532358, -0.08136133437087, 0.10694880297583]
[-0.01493734264117, -0.09800263414296, -0.21955859929556, -0.29578345221563, -0.25901151287482, 0.26557737491188, -0.12614801416105, 0.25892937001311, 0.10700999468032, -0.08985257202741, -0.17990865536133, -0.18308918891847, 0.04115063979636, 0.16136656696148, -0.27945659164839, -0.18130633794889, -0.3023243088978, -0.06263557825619, -0.00808803839616, -0.29852268881088, 0.10413322679881, -0.16234573397325, 0.15331400977296, -0.07888244314168, -0.01421589860614, 0.13534371538571, 0.0596931453464, -0.25177661384418, 0.01413171466278, 0.14099942237923, 0.01961167034104, -0.27183754082142]
[-0.15868937244835, 0.11604422483706, -0.27889256874751, 0.14541486806191, 0.08258216205767, -0.28545090512352, -0.04708818633044, -0.10840200620275, 0.18417208936798, -0.19834410256051, -0.21116765836461, 0.1905280173758, -0.05750544389566, -0.07775055079175, 0.14078740383206, -0.19544941937563, -0.15522512618642, -0.02571820429013, -0.05525711767233, 0.26480035859261, 0.18653627916691, 0.30316771085773, 0.26392203958856, -0.34489647590502, 0.11305629653073, 0.17531401402844, -0.09796475555902, -0.10067154346302, -0.30494104711292, 0.13579990784924, 0.19078716919662, 0.23798433789229]
[0.0062303604517, -0.1307051898119, -0.10861533620613, -0.27659612337402, 0.21556681019047, 0.13984453584371, -0.19454444189332, -0.28032682827574, -0.28952398193965, -0.29350237834822, 0.26882131810266, -0.2838618546156, -0.20564335634009, 0.07917879747941, -0.01907402873309, -0.13744827907446, 0.0732682763961, -0.04204422003155, -0.13200397173282, -0.19764458738575, 0.28299246190074, -0.17926288640572, 0.02941300680598, 0.20004833449144, 0.18156591882053, 0.28109176925092, -0.07771624938754, 0.00531322773095, -0.09598643196507, -0.26844831878574, -0.0716701989432, 0.26572957318141]
[-0.28257528473031, 0.25609839211539, 0.30144181192664, 0.04283873495736, 0.20029459179276, 0.23632573639516, 0.24451589251156, 0.25253043467564, 0.11940370466945, 0.21276067708589, 0.24822603398994, 0.01827790371947, 0.2979868439823, -0.14492291779092, 0.03386675919333, 0.09061348293012, 0.28884982847884, 0.09714267700648, -0.30718450804587, -0.28646735446949, 0.22152180896846, -0.09536159762009, -0.22917685555404, 0.02117882337131, 0.2142578681692, 0.20792527920423, 0.20497491047378, 0.16654897301881, 0.27850656010225, 0.11838688421716, -0.06120295097378, -0.17552587561533]
[0.07830884274422, -0.2450099634917, -0.02413203383143, 0.16933511550537, 0.18701023379276, 0.07345181942478, -0.29546494552796, -0.12533186704919, 0.01524818205741, -0.28470938945991, 0.2319475695215, 0.04277407521754, -0.043323104084, -0.24440219492262, 0.10430749297746, 0.28026725820066, -0.28515607220148, 0.05577605732945, -0.08113027125819, 0.00252874043067, -0.13109999145236, 0.29852085415356, 0.15850819194084, -0.13726225478991, -0.01514178529238, 0.11283412512092, 0.14399363494693, 0.07833422169908, -0.12685497000057, -0.05649922566718, 0.18514746132228, -0.08703623314623]
[0.01361965851211, 0.16832599800307, -0.16022421825025, -0.06388016873756, -0.13858403799009, 0.06337987298153, 0.00017653874772, -0.05383849909447, -0.02020802642778, -0.14499070573525, -0.01389442210449, -0.24573563417534, -0.29130951022667, -0.21841967939479, 0.18016319785187, 0.17261793229209, -0.09923312503606, -0.05747836717619, 0.01263729369632, 0.01818917741841, 0.29082213332587, 0.10108188342288, 0.29131364694325, -0.17974135323313, 0.14658087192797, 0.25921518803324, -0.00457506942644, -0.04624852707385, 0.08388371194482, -0.16522527609151, -0.25861292357428, -0.06264633476131]
[0.25292260993013, -0.15293827015492, -0.23864329659826, 0.06500761929643, -0.0713536938344, 0.18377547779641, 0.20607687538688, 0.25026410268022, -0.21810120780426, 0.01466242350683, 0.17253609845055, 0.04748907643779, -0.02216408712847, 0.23890466823549, 0.18886642020164, -0.25632036989566, -0.20014194019868, 0.0201443497941, 0.05933985968788, -0.00748860390119, 0.19285046608442, 0.14705455479918, 0.24966754899732, -0.1433816287326, 0.2002438548943, -0.17003472045874, 0.2600964527066, 0.07600193139777, -0.22710151477036, -0.22071302332011, -0.2031288331529, -0.10575260422461]
[-0.24258921453227, -0.0884789545729, -0.03687239156771, 0.19254459284301, -0.26288259451882, 0.30404873815122, -0.05095577835901, 0.1967303118841, -0.14928365568603, 0.29044266983029, 0.07822013171862, 0.16782270779974, 0.16065399003164, 0.23224708681737, 0.30541830618949, 0.11737541296676, -0.24534998465552, 0.021224844556, 0.03716655079085, -0.25377697870345, 0.2472436561109, -0.12271574437009, -0.24177152387639, -0.19590288149717, -0.03340065984449, 0.18442474848574, 0.10692314831678, 0.12915441435699, 0.14427757028527, 0.14185243957901, 0.26589172376555, 0.245987169405]
[0.03795925408284, 0.18087991040135, 0.12869429366509, 0.08867283185861, 0.28504753191855, 0.26274183333343, 0.29287585918691, 0.14152373708274, -0.24037118882374, -0.17058870533543, 0.07048843683916, 0.14144357980521, 0.1052639707415, 0.11223611203124, 0.12368338378522, -0.16875550477578, -0.1345389211653, -0.09447736996391, 0.09723148336775, 0.27019012740911, 0.15433601778929, 0.08234870512931, -0.07987874067944, -0.27350379525006, 0.18832057924054, -0.20858692346976, 0.06196104453056, -0.13961002228702, -0.19891557687546, -0.21740346819781, -0.25180063748603, 0.21701943938086]
[0.14238107227917, 0.21542650713182, -0.03172164582897, 0.14501097048086, 0.26992087072447, -0.10411081685128, 0.10520949651178, -0.23535296245612, -0.18196513622337, 0.17239621827566, -0.24837292641199, 0.24728541493479, -0.06439283292937, 0.12538861553833, 0.17854581342566, 0.01018872467196, 0.25990377046248, 0.07701590969371, 0.27334007931456, 0.00611876148877, 0.17739721663788, -0.02195471427652, -0.03015417392258, 0.26530508211209, 0.11844092589113, 0.19925033665974, -0.25022404569688, -0.22287798712639, 0.07607475602796, 0.26085515775628, 0.06868041700635, -0.21394236902574]
[-0.11031801916311, 0.14709232413125, -0.01013747089609, 0.12754579406624, -0.10107646417364, -0.27656823272722, -0.23367094137124, -0.16570800148741, -0.00772587098849, 0.14033248303494, 0.28443537627083, -0.18890831173964, 0.05718389374599, 0.08424231578041, 0.04773517103574, -0.18408191121736, -0.11535813493914, 0.00761443512992, 0.07321370026373, 0.1513224330127, 0.06128038713566, -0.30003734626275, -0.09599368235305, 0.31244604397993, -0.14383556612935, 0.110351524438, 0.06610220934529, -0.17481688831768, 0.19835691536718, -0.01055283022864, 0.12488601844469, 0.30303394287698]
[-0.2461940794333, -0.12786423736096, -0.01561563956457, -0.01006131223564, -0.13149486289423, 0.07291910265184, -0.0039063459413, -0.09489635665368, -0.27889272728666, 0.10190173488185, -0.0173291533588, -0.18022556678578, -0.01036453858688, 0.10096345396743, -0.22630387122547, 0.19533303283108, -0.22631083875678, 0.1132529177106, 0.17402173220975, -0.26583056705839, -0.08859716692951, 0.21464880089566, 0.29086081000632, 0.02948007853791, 0.13609529205321, 0.14772061241187, 0.11430241504515, -0.05512510156521, 0.28991464365697, 0.03314063460344, -0.21764369867851, -0.12625153977935]
[-0.15791982147833, 0.02732804882649, -0.08095913848095, 0.06337171754875, 0.27291585520111, 0.29442321272055, 0.10940233890298, -0.24670384142069, 0.06008699132356, 0.24565039179482, 0.05625935004476, -0.05876011177051, -0.26168026914078, -0.1224409948811, -0.0409288936506, -0.15741586739321, 0.27680896489221, 0.16612090786622, -0.13106228365259, 0.21314424462407, 0.18640451462549, -0.1721026295926, -0.178594994947, -0.01745469891884, -0.0223995508884, -0.21216022360429, -0.25937073257693, 0.23232451169448, 0.10288302771154, -0.14093944981849, -0.06365711127425, 0.2588579629682]
[-0.2645089425259, 0.24548862747397, 0.07864893309196, -0.06631333094247, 0.09114635077049, 0.27303557393023, -0.22700436434857, -0.03350981512164, -0.16715489351654, 0.0673067742449, -0.21028205991552, 0.20940433926183, -0.25433276428752, -0.28689748406034, 0.1163399642198, -0.12941590680115, 0.0069143650671, -0.16976945477644, 0.01664904653674, -0.21855774795507, -0.29208967429046, -0.08634828820394, -0.28877419576117, -0.03914712401514, 0.15009789670585, -0.24475200163899, -0.14555148367003, -0.09157837873237, -0.25341547378434, -0.27081552751522, -0.13370119904887, 0.21576208234061]
[-0.29890198156718, 0.26783437960767, 0.24333242732462, -0.1698327214998, 0.10659447390488, -0.20575807982718, 0.12183483758669, -0.24377670894718, 0.07579022403784, 0.18220782367759, -0.09610714045136, -0.07501747790248, 0.26074471313701, 0.27848530142316, 0.10777372495695, -0.18506822290942, 0.23667743896666, -0.24626864655361, 0.19696004637827, -0.08768031395409, -0.00487833491192, 0.01169075406123, -0.19014708732664, -0.27154853338383, -0.27264804398516, -0.06661328153164, 0.17783669459966, -0.11813639506439, -0.24941020482305, 0.10697731312152, -0.08872803857196, -0.23139550149387]
[0.07922079600698, 0.0439333690537, 0.1763605953437, 0.27160337033777, -0.07219021582907, 0.29258732604272, -0.14368003988962, 0.2409233497711, -0.18171328427066, 0.19613923617567, -0.06898408392952, 0.18622589256335, -0.08148536316633, -0.0297363272, -0.08426618846709, 0.15141254257478, -0.15725100515849, -0.09195675100094, -0.25467452277982, -0.15504246031706, -0.16054482001624, -0.04497615871403, -0.27385854542846, -0.03591064546133, -0.04118454289009, -0.13030355676074, -0.05427868775864, 0.29337129686625, -0.36553165825873, 0.01181427350076, 0.28827992988338, 0.2131999537929]
[-0.01575725693165, -0.0234425389892, 0.21784805646242, -0.14322285769047, -0.02068762798298, 0.30008377392257, 0.17320469757475, 0.03551402127146, 0.19665443498243, -0.13995944626168, 0.01357962194321, 0.0107688623714, -0.22682315944424, 0.27878835680327, 0.15317054431902, 0.17881493140242, -0.10952456136744, 0.25274992853166, 0.1032371989737, 0.08465866770072, 0.30616556671129, 0.20382696450273, 0.11272625226186, -0.1541317775865, -0.27949987995347, -0.03119024672443, -0.30378904892631, 0.07298967824705, -0.1893737358267, 0.15197418244336, -0.18521558907892, 0.16312011124831]
[-0.00286621750294, -0.10679454139998, -0.27179140521633, 0.05109726274208, 0.16933103658547, 0.08124667527816, -0.21878271082623, -0.23662230628041, 0.12085809181848, 0.12609258555539, -0.15202535459817, -0.00362422955751, 0.00885475078361, -0.19787953233938, -0.23266438991024, -0.07976230342753, 0.2180574680325, 0.2694304296378, 0.15939597985334, -0.08655168622769, 0.0890293976381, -0.13420365332333, -0.29498304611586, -0.11696156723772, -0.25918252553382, -0.2229888734003, 0.2953184517681, 0.01444881162435, -0.1601519871285, -0.22451401851859, -0.08480193337453, 0.07960637290467]
[0.23069305637274, 0.07407493220637, 0.03243360085483, -0.1812694875918, 0.18325852923429, -0.23913922828446, 0.14154349367151, -0.11496201425674, -0.02159675145123, 0.07577921812529, 0.1721682461502, -0.16387460362064, 0.18878308648323, 0.18146401003235, -0.25126088320627, -0.13735358605628, -0.14035336987364, 0.08206284226262, 0.09376469383329, -0.21668919159905, 0.17773622889231, -0.07673108742076, -0.23685174867024, 0.00165844839556, 0.29432121356844, -0.23663607100147, -0.1495784452342, 0.0856694701303, -0.27230996748252, 0.17803830629201, -0.17732022671197, 0.10159054752502]
[-0.27405948665613, 0.24229857291616, -0.24952232026195, -0.16984733238641, 0.0431165420937, -0.22137674446867, 0.23765522233204, -0.10194692891602, -0.27271734995027, 0.06978250531605, -0.14587236745575, -0.1557915029519, -0.14128680236396, 0.10827400869355, 0.02388935006017, 0.03986594068038, -0.30025772800905, 0.10387072898549, 0.30330636298221, 0.23745657121309, 0.24057987903246, 0.28316387793157, -0.15873271305382, 0.27564341524692, 0.04047350350681, -0.05416316124427, 0.11232444506471, -0.08766980488031, -0.11790748628577, -0.05934223175551, 0.29452027342938, 0.28054761426693]
[-0.24868689133344, 0.18838391099819, 0.01640057623116, 0.02371725696063, 0.18933024397696, -0.28424990554318, -0.01405876222162, 0.17428558174347, -0.33965241415898, 0.14307667645622, 0.03136335243522, -0.26054442990221, -0.20226210012127, -0.1920119743185, -0.18183407765194, -0.01868197475117, -0.07756014516394, 0.13041498794675, -0.19165085933708, -0.1206080258814, -0.06941893243871, 0.03826754226032, 0.0625642994373, -0.21336032202365, -0.17617366054344, 0.23560977959032, 0.23972412617317, 0.05763768554545, 0.02947195392474, -0.17679214552041, 0.12508572176372, -0.04666534257316]
[-0.02397232918882, -0.24447452213126, 0.20662958380164, 0.04369337292496, 0.01946198692665, -0.08160433307714, 0.04875327782152, -0.00827456572329, -0.17545344940943, 0.02650855504832, 0.07869655432994, -0.0142749972881, -0.2682365773645, 0.10625525568937, 0.06783258518508, 0.29990178879808, 0.09993847267523, 0.07237057642016, -0.01313237337344, -0.16730858071748, -0.00863782073507, -0.20601838107275, -0.07187235097323, 0.14788089637664, 0.13674961482652, -0.19309407147478, -0.17959327814368, -0.19542492538588, 0.0455382961042, 0.20220041974121, -0.09556532927679, 0.12623465489511]
[0.17380471713548, -0.05194295165692, 0.05448681768512, -0.30571418182738, 0.29228960761477, -0.02576417846148, 0.28969004625043, 0.26065407457569, -0.25843798582168, 0.32418700531536, 0.15114760944916, 0.08294767373177, 0.09713604370226, 0.14806003683042, -0.2057155879804, 0.02352427513977, -0.08591698283116, 0.15907358245816, -0.23646460070309, -0.25433396099739, 0.13033934756709, -0.29094470245002, -0.27344656777371, 0.27481936620087, 0.18647425076498, -0.19763978475469, -0.0643126565768, -0.09981021860639, 0.05776618595347, -0.19453510310965, 0.14364114464002, 0.22525129344947]
[-0.27932054591249, 0.18895915973643, -0.23343256617472, 0.21088497290836, -0.1186382991077, -0.12161360802454, 0.19723891471338, 0.26205870281827, 0.33180391188347, -0.02403933962713, 0.18412703537572, 0.0543136572899, -0.04431317442431, -0.15627407146885, 0.25195829512366, -0.06928616560777, 0.15716832161102, -0.10561027350531, -0.16417980732366, 0.29902881550459, -0.04260880386622, 0.26568937298877, -0.122227030552, 0.12917094268154, 0.08419716494505, 0.16814678859223, 0.12567666336178, -0.12897952796208, -0.27906644964304, -0.16729029902686, -0.26891995982762, 0.19307012257832]
[-0.10811863482828, 0.27556203064147, 0.15671731604373, -0.18172331187795, 0.05706794007235, 0.08068859540753, 0.18995879163037, 0.17980903096965, 0.18117415479507, -0.04229140351685, -0.29357888169444, -0.05427787476048, 0.0144766039221, 0.35151782303257, 0.00086942347699, 0.22291691433303, 0.12364425075888, 0.15324098588068, -0.14480753857727, -0.13624872951608, -0.26924014477226, -0.02775250377898, -0.07359078395328, 0.20249567373007, -0.11930954628252, 0.04262941434123, 0.19397933016307, -0.00387783531219, 0.25780343877358, 0.01895111560245, -0.08012286421018, -0.10890375837075]

[0.115150994314, 0.34660301083809, -0.38268001486017, -0.14972916395026, 0.30708772045299]
[0.16317303727457, 0.32692309537939, -0.06397713695089, -0.16004642175918, 0.10330881222007]
[0.09155373813959, -0.15114359205604, -0.34053938240285, 0.21541888556014, 0.26429490453302]
[0.0242444949617, 0.24728075324583, -0.348902782697, -0.24207557682213, -0.20872038555772]
[0.28412278508992, 0.06826926095928, -0.01394871918722, -0.31555970177924, -0.19542670230196]
[-0.31380097150097, 0.27621877309165, -0.2822552491783, 0.02394269325175, 0.12967017951263]
[-0.11997792890549, 0.37873803915578, 0.34194054350961, -0.43505633853455, -0.0437050261436]
[0.04974634506072, 0.13355907117881, -0.25176638876476, -0.13724008233737, -0.31555720984267]
[0.05677230338754, 0.06012283125366, 0.22137702775888, -0.27052916530116, -0.31977716984938]
[-0.17296426176006, 0.23080560671463, -0.40116362469504, 0.01882490358142, 0.27964328450648]
[0.01233271623816, 0.07305185026223, -0.23100762683188, -0.04126976416575, -0.06199168133611]
[-0.00012053920669, -0.20309995520045, 0.15075645626582, 0.12525834426208, -0.36252361446556]
[-0.07699673634569, -0.2135608507619, 0.09076275332157, -0.06594799559775, -0.01337305896829]
[-0.15390220431909, -0.13442459704412, -0.1044862073805, 0.16610996297329, 0.18897327464764]
[-0.19801749796725, -0.1042804097614, -0.39580716216768, 0.2799847086653, 0.41174075863397]
[-0.32270867289495, -0.34183217376674, 0.30510127198367, 0.17850387315069, -0.19008567689933]
[0.00169831912538, -0.19171155841472, 0.20787537022345, 0.01528107219847, 0.18570203412481]
[-0.10419720938269, 0.28888834732902, 0.13058487337594, -0.23872537856357, -0.09280324075761]
[-0.16170854807706, 0.36173179081174, 0.30505277037474, -0.22517162416215, 0.16701688222628]
[0.33086382643406, 0.05823547634325, 0.03954230567265, -0.23997733904107, -0.12798217543088]
[-0.27909612315268, 0.29753019203767, -0.10948820516146, 0.19248619624561, 0.28493827533262]
[0.11957947360945, -0.32355791338535, 0.03819846476906, 0.35129453929869, 0.21836544872461]
[0.11778524499628, 0.1375710994339, 0.31511529794201, 0.01554751335963, 0.29640801580257]
[-0.22966433357043, -0.02029621041878, -0.10267640279592, 0.00279218845706, -0.24417167341864]
[0.29770499545862, 0.27846839849581, -0.38091078168687, -0.2975199045493, -0.27933774711473]
[-0.150093464129, -0.05373280573514, -0.23229681051971, -0.27832513696538, -0.07210203592843]
[-0.39004630216601, -0.17691583906738, -0.06170311604969, 0.17142046313822, 0.29071336763739]
[0.22544166760429, 0.02123809334036, 0.2547247170708, 0.30024919856603, 0.21091188413502]
[-0.17187425954301, -0.22401295627095, 0.20021461928207, -0.00092917435284, 0.34490660369066]
[0.33128735949851, -0.22677920618169, 0.10184229140442, 0.0068436299188, -0.33805023339525]
[-0.09818186861791, -0.00103031796616, 0.11246784542157, 0.14888304760519, -0.06040784359994]
[0.24288955786744, -0.12769799088002, 0.20246728762823, -0.00456873681321, 0.04739572400615]


Best Model in generation 2, with a score of 18.000000 
[0.26094526057222, -0.24404489745717, 0.06360114708939, -0.01336795906183, -0.27409248004597, -0.27949962904723, -0.26814183244486, 0.10193010352735, 0.23708008573422, 0.27462417656822, 0.10458297579519, 0.06725983997083, 0.07406917438996, -0.19296917646704, -0.01966723278538, 0.10124716052587, -0.20534689906577, -0.27983666106345, 0.06389897083324, 0.04110731850317, 0.04379402024841, -0.20985553741789, 0.18914756687756, -0.1505898599287, -0.12230083718379, 0.06422059079923, -0.01157911826309, -0.0658986077927, -0.29427818032662, 0.14348982695807, -0.05751247335776, -0.18776952860903]
[-0.26376486186471, -0.11440866704371, -0.20995629035808, -0.23387722741457, -0.18909599567727, -0.24208666511774, -0.1502224064928, -0.07323519616608, -0.24640347350316, -0.10968329030042, -0.21407962800508, -0.14047192316933, 0.07507078668065, 0.24390062140174, -0.15298491482029, 0.1311769221209, -0.0565054813692, -0.03944539443389, 0.08452852938104, 0.01175478320759, -0.07912458879305, -0.20871274797876, 0.14452972670034, -0.15068028772563, -0.29480076996799, -0.2366834367019, -0.251939025759, -0.22754632702079, 0.22209372059804, 0.14206880077662, -0.14756933221256, -0.1140495459182]
[-0.19885905321676, -0.16584994648131, -0.03398681823527, -0.10959630261122, -0.29043657381519, -0.21858120345749, 0.10514011324118, -0.25740648302417, 0.10470036428294, 0.2415959889098, 0.25311971078811, 0.15948788890745, 0.29383757802242, -0.07902232013843, 0.20816577370795, -0.04500852433851, -0.01920372929752, 0.28156508055738, -0.0075153075271, -0.21533062135326, -0.00147328147882, -0.1045844034006, -0.0946555970273, 0.17079009270006, -0.12056620555193, 0.00934571333881, -0.17039743871887, -0.06536113094428, -0.20732354636306, 0.08175459518519, 0.06476303183424, -0.29214814823111]
[-0.03462231675274, -0.12077416489661, -0.07104433360046, -0.00443646440214, 0.15425172041389, 0.10830452830506, 0.01787533973994, 0.08547527938638, 0.07678107105905, -0.16348660258035, -0.1631262438023, -0.05818084726964, 0.21055052609393, 0.22264699628376, -0.19336622565597, 0.07064310700329, -0.23167351053729, 0.21806944896695, 0.14510244839287, 0.17078569264897, 0.08444519073116, 0.26778007165759, 0.06901333312472, 0.0276579192967, 0.23717860731419, -0.2031801143246, 0.06457396079013, 0.06718520359061, 0.09410648444777, 0.02694432988178, 0.26942083065375, -0.13133129916051]
[-0.25636852728591, 0.28574062714248, -0.20053824976207, 0.06826500765883, 0.05247883954699, 0.20514149236534, 0.21817973865926, -0.22502205058942, 0.23430676229424, 0.27764961250534, -0.27109989060432, 0.09863360823374, 0.02317609503528, 0.22625552332288, 0.21764672612245, -0.09575534140217, 0.24912283190354, -0.2849811463487, 0.19829554862186, -0.27399741440069, 0.12823170535918, -0.16680972570814, -0.09847163831656, -0.21154099395814, -0.26322036786911, -0.03192586606565, -0.16248905656306, 0.10009469334991, -0.04123563041207, 0.16741388600367, -0.20927131738452, 0.22292544504251]
[-0.00642102792445, 0.13313878297086, -0.01829734188436, -0.10164698885502, 0.01116519211982, -0.03334357277187, -0.26597077596717, -0.19534150746405, 0.09702287085977, -0.18807707189698, 0.09272986086912, 0.18320583091626, 0.10153009889579, 0.08379981982054, 0.17342970771946, -0.21025344255965, -0.21045497182925, -0.062522078906, -0.20182142288851, 0.26073344808126, 0.05567939899914, 0.29445432641874, 0.23292754895324, 0.06516683261465, -0.13033067912664, 0.15153430690221, 0.28182362876936, 0.12160817209738, -0.09820882777101, -0.01985980327557, 0.16727136137363, 0.17183094150919]
[-0.22210084342031, -0.07377785111642, -0.01348969870256, 0.29480011830121, 0.15442867207273, -0.11325444908916, -0.21853099899355, 0.28860853745162, -0.02353042688896, -0.02856283553559, -0.08661363282857, -0.07807017562636, -0.03859669488147, -0.2434308572744, -0.17382807689247, -0.07639522579051, -0.13153128287557, -0.06966997357078, 0.27145671554885, -0.16449768805689, 0.17528981335513, 0.23253537161459, -0.19911021225812, -0.1270160199095, -0.16050501543027, 0.07633327589357, 0.12182800351674, -0.29245664738279, 0.06281524926772, -0.05101418950827, 0.13199794405297, 0.19029286398886]
[0.23168917412481, -0.18824586958021, 0.05772519136899, 0.26880222272227, 0.20896665372681, -0.26781827990728, -0.08654725727061, -0.14119178205739, -0.17178820649609, 0.06626086859319, -0.22897921013681, 0.00043537265133, -0.17989098319073, -0.11617535955115, -0.10506050878613, -0.06423681148791, -0.2594704522345, -0.19263292717078, -0.12130460014742, -0.24153624033165, 0.25623591175395, -0.18405696093898, -0.2214539717418, 0.2902598178951, 0.24381674167063, -0.29345028686549, 0.03861830136013, 0.03945878238046, 0.04021527765719, -0.03128975706566, 0.19177831350567, -0.07615041570352]
[0.25943210734228, -0.26986462687063, -0.19309574127264, -0.07208084987579, 0.1946437236675, 0.28294212084558, 0.22695638847183, 0.06572466002754, -0.28825972136436, 0.16054439066001, -0.03358420003113, 0.16080644890011, 0.00840294968204, -0.12452392099113, 0.09944566590893, 0.12607532715878, -0.09786861109495, 0.10595004504288, 0.29129936981793, -0.04054667857339, 0.14336044867466, -0.00883757395161, 0.10194967346886, 0.06170768666759, 0.29300504481271, 0.12438496520822, 0.17847800721879, 0.27537104993512, -0.03322767801174, 0.22073691627528, 0.15812032956435, -0.16780799626922]
[0.24517885489023, 0.08859968921266, 0.22434595908423, -0.04196153425006, 0.22363260060297, -0.29290388705405, -0.20184039077884, -0.27907615013661, -0.02413071156919, 0.1514228407998, -0.10177672239222, -0.00122090665937, -0.20970699488199, -0.11415897734632, 0.12562165642339, -0.10669822368548, 0.24312676105428, 0.17341867791996, -0.23708452687063, 0.28187635663149, 0.02113952453805, 0.16615824705394, -0.08965534112223, 0.06225629315929, 0.22320913832062, -0.04366761341635, -0.18504090854381, 0.03035049242633, -0.01819555348234, 0.12808333488248, 0.10295924700659, -0.20772316632912]
[0.01603062236995, 0.0639156146113, -0.20067959655803, -0.09298595643256, -0.04528857189384, -0.13085905559866, -0.13675785876252, 0.08691699657868, 0.03673615174324, -0.02633551273117, -0.24325281637758, 0.19650159077722, -0.04035279942246, 0.24890142520499, -0.11189299828198, -0.14706386700119, -0.05142649250811, -0.28573115938013, 0.26482632948772, -0.17254414406255, -0.09837924610647, 0.10258767366511, 0.22963784781488, -0.15848827110172, -0.20703958245204, -0.28194450994896, 0.09112942170346, -0.1263426308137, -0.02074224406998, -0.06596089299389, 0.01900056809747, -0.04285064033737]
[0.01838883276294, 0.15236331804128, 0.07413792643416, 0.04821071055473, 0.12043861053144, 0.13374851917857, 0.02024481975429, 0.25950202729487, -0.25427214210872, 0.25912061154534, -0.27787958432021, -0.2503378978457, -0.02931810247628, -0.23431420547477, 0.163704689682, 0.01268210663751, -0.001301809173, -0.06089918287885, 0.03606167273661, -0.15063103647223, -0.03743921604895, 0.08355773344652, -0.07829948284586, 0.12349442799046, -0.17216267419575, -0.11066571828705, 0.18036827306659, -0.01404946817329, 0.00562440274637, -0.08109913531422, -0.05168253208319, 0.08390057432687]
[0.28391497218789, 0.16936298400399, -0.046862000762, -0.1086273228282, 0.05159686836211, 0.00600372062303, 0.02293977633028, -0.03537775607747, -0.0779348121034, -0.21211457080674, -0.06678482046026, 0.053814445182, -0.25690797181461, -0.04021310131545, 0.2503329234939, -0.16240325640632, 0.03033329271401, -0.284968495676, -0.17050901574116, -0.12931594555344, -0.15879266454871, -0.28394477186419, 0.23456279449447, -0.00093513692961, -0.05275680671595, -0.18765266246625, -0.06872431506625, -0.02071063700261, -0.3067174014821, -0.01260461975836, 0.12985868240888, -0.26049335483007]
[0.11912011195802, 0.08227930445493, -0.23118711434456, -0.16600631337711, 0.084015180925, 0.2212879211711, -0.01085892584719, -0.01791314729601, 0.03008927755384, 0.03218331332358, 0.130145848462, -0.02141119966929, 0.23777824528285, -0.01132486779116, -0.11372123519952, 0.25862401652202, 0.08814752585199, -0.14678191184229, 0.2066524615432, -0.02166826448064, -0.24466884787775, -0.25989505734171, 0.26320110569848, -0.18118763894337, 0.2091190881468, -0.04084223272057, 0.06288828222196, -0.02739220132118, 0.15894401512246, -0.23035061248651, 0.18129893834902, -0.22614429610027]
[-0.00917622439314, 0.28423538323682, -0.19070844470558, 0.14704587832591, 0.04302497444773, 0.22996747947133, 0.10525022068124, -0.09367795598601, -0.26682357629053, -0.00100960539966, -0.10283647448354, 0.10638949156721, -0.13807845574354, -0.07120109641772, -0.23380680716047, -0.20093143602672, 0.12483057008979, -0.27679518526264, 0.06536778476451, -0.05386793613724, -0.13428690522885, 0.01769862101599, 0.04896172357616, -0.19460387504735, -0.25248101544852, 0.18918042528363, -0.26888997759088, 0.00043431633011, -0.24633367378775, 0.03230342313751, -0.21412034258302, 0.04425099771251]
[0.26104467426393, 0.05062980892491, -0.21249777274722, -0.2939491823929, -0.19844661467205, -0.29446607412346, 0.05987788992966, 0.0718182798823, 0.15851876376921, 0.19530987258707, 0.01880545347479, 0.05668531287904, 0.16127561785442, 0.26853402200419, 0.03721170860413, 0.28791377255999, -0.26441585963112, 0.27247033895554, -0.13945681826712, -0.11692036844289, -0.16385746907197, 0.29428419408559, -0.22989938131052, -0.00438674328636, 0.27589351542172, -0.09551851928014, 0.09810476404344, 0.29028933032575, 0.19495981403008, 0.01684671181452, -0.20223395013077, -0.16045510327104]
[0.02243270729201, 0.27389726356185, -0.16980771052618, -0.25731019253805, -0.1906337778043, 0.13840061976223, -0.15281364433788, -0.11651785931797, -0.23452798516846, -0.22673622928602, -0.1557471037248, 0.11155074261284, -0.0181714143643, -0.1917583406442, -0.18882975038854, 0.17537291305027, -0.15966332791437, 0.07109579723315, -0.22684262537098, -0.2211947462683, 0.19301060586204, -0.15524574076824, -0.23742581990408, 0.29169417285043, -0.20443512053268, 0.27306557295339, -0.13501082133098, -0.24514982479954, -0.27007637037194, -0.1733723043534, -0.01245866960907, -0.0731909314003]
[0.08610814695722, 0.15792883858702, -0.30847661750886, -0.28965719208353, 0.12899798888878, 0.28358146900978, -0.07989953803224, 0.12013945589511, -0.22042117803565, -0.05888992962321, 0.19784461858689, -0.27091182903575, 0.1388057737425, -0.25231626438654, -0.09617086618952, -0.22723956795754, -0.02759734742563, -0.16974898392747, 0.27215358251465, 0.19053041152085, -0.09253134216903, 0.1868310598292, -0.27023946592255, -0.23976573124331, 0.02808816334132, -0.12616561710951, -0.27776126019845, 0.23941950661055, -0.24346224603341, 0.24367037301842, -0.01971931259944, 0.08462224924318]
[-0.20491234326673, -0.18316552295556, 0.10826953376345, -0.28926551089021, -0.11531302735932, -0.03759602429408, 0.11349706984038, -0.18201692311369, 0.07051576882596, -0.27098036400023, 0.12541579394916, -0.16328617297892, -0.07868582451624, 0.07337675313752, 0.09503783415842, 0.25828822404795, -0.12763625940926, 0.08638802844533, 0.15259487396376, -0.17087745882897, 0.18952850427845, -0.09270688970857, -0.06571261575888, 0.19518710521578, -0.17964416691394, 0.16465010258336, 0.26514977544729, -0.23741745393066, 0.15287114351768, -0.05998213462876, -0.26085403285221, -0.16335773646233]
[-0.20653327062054, -0.1593454889731, -0.1750104259883, 0.23089178804627, -0.23914542821736, -0.20677715993336, 0.17822724080554, 0.2412519988144, -0.21026728910615, -0.13537342245849, 0.09562712658427, -0.27083646360203, 0.09025157852962, 0.01953894549287, -0.10222013054268, -0.01387096832451, -0.2269330305025, -0.04860039372872, 0.08183951125666, -0.21081256940565, -0.01288366271443, -0.22051323839754, -0.25941986197622, 0.23097349016573, 0.00945368462507, 0.12430822850075, 0.01385626752582, -0.04454758041893, -0.05827468101866, 0.242524500265, -0.24430148200032, -0.25742742502752]
[0.0937921894551, -0.08513067765334, -0.25354241277675, 0.09864031574277, -0.06387202183249, 0.06721374133831, -0.14558365316001, 0.26385580537861, -0.12545574059444, 0.18022712257037, 0.2872318047622, -0.04072534663217, 0.18733556135401, 0.11281737590627, -0.15290027568289, 0.08443709190868, -0.08683978722155, -0.28794112531869, 0.09087581250241, 0.09440862767841, -0.00322623772781, -0.20505981147624, -0.2371232548181, -0.20232200296074, 0.13013704805652, -0.28033136887211, -0.20821356305095, -0.13898345885101, 0.19217738567603, 0.26038955288555, -0.20426751618707, -0.25564678485354]
