Best Model in generation 0, with a score of 18.000000 
[-0.10963686493142, -0.2843687491663, 0.1720142954647, -0.18098156708513, 0.09165432350694, 0.18640902595334, -0.25195005843597, -0.03253025330889, -0.1255449530112, 0.03145421150101, 0.2624650721305, -0.24765048318123, -0.1647878433029, -0.19475407496921, 0.11805359502289, 0.27588645294504, -0.23474813132583, -0.20333033267048, 0.28621550554169, -0.2631669698737, -0.07134359595865, -0.16623774789849, -0.184148170202, -0.13015064826227, 0.28199420584324, -0.15400982308159, -0.12775563150435, 0.09412781568128, -0.21233476219204, -0.07584571499866, 0.02934830071098, 0.06329838554396]
[0.27030875318993, -0.10580777017344, -0.04967326230321, 0.23116370800149, 0.13759762464438, -0.00568553336533, 0.25595893767243, 0.22743434291225, -0.10259147620283, 0.03582857433774, -0.29291708390629, 0.07905277487568, 0.23170581174097, 0.11000381740494, -0.23471015004374, -0.10742882008304, 0.17488669767435, 0.23454478807812, 0.19897912155349, 0.14424781651828, 0.20548372910359, 0.17903667627014, -0.21565918891721, 0.29224294282719, -0.276398241119, 0.15113740502455, -0.10687375044192, 0.16625809644519, -0.23867797549773, -0.28527976639496, 0.25867112912199, -0.15168052327213]
[-0.15596327366182, 0.25323772390117, 0.16613332232712, 0.10761343803351, -0.07467222143115, 0.09396236695926, 0.15547018497086, 0.03776179863287, 0.19159751278378, 0.15592835927124, -0.29384598361409, 0.25345447102742, 0.03032297415434, 0.11495901059663, -0.25355541214992, 0.0839037992025, -0.20550093266148, -0.28075990748602, 0.27681692155601, -0.09517398676357, 0.28308905860177, -0.19476371411864, -0.22433771174313, -0.16303209299342, 0.00387894455187, 0.03097433242721, -0.10501089185778, -0.1031806536234, -0.01713340436191, -0.24619659565877, -0.17839373796258, 0.12285693258873]
[0.214677249548, 0.00319001549466, -0.13900392110123, -0.21543134048753, 0.12371565000975, -0.09252320348178, -0.16908710548946, -0.12427673868801, -0.27747814678589, -0.0647244583122, 0.27160929111749, 0.02271205140343, -0.23756089806856, -0.112062439977, 0.23406308129044, -0.13670806817329, -0.09885097578825, 0.02939899204745, 0.11191834049839, -0.13685842479011, -0.11873587309537, -0.12584273384266, 0.28903329724929, 0.20193709107386, 0.25870071136015, 0.24309634220917, -0.09202973983541, -0.10991571148795, 0.11062555301977, -0.18515591209347, 0.14187725019441, 0.2063092525668]
[-0.11410680067357, 0.25556848849398, 0.12752972967073, -0.19871332466843, 0.03252796728876, 0.11531447237248, 0.01223997331838, 0.19834241253982, -0.05888661993504, -0.22220046583991, -0.08500456601549, -0.17319480585176, 0.28157553114634, 0.23984194491593, 0.24642085297054, 0.26441187877835, -0.19203497670062, 0.19541381916152, 0.07891782508511, -0.1117315285314, 0.03152822228232, 0.00522828002506, 0.04697954752635, 0.13437250324336, -0.03707708791764, 0.20505071613486, 0.18490187134377, 0.02696531811717, -0.25647832736493, -0.20868405751136, 0.10568868431138, 0.06641123679213]
[0.03594857494469, 0.03628887532422, 0.16688479716661, -0.24654161700266, 0.20651642893086, 0.19051467097984, 0.07489171771945, -0.00665416969994, -0.06216817970794, 0.19855071876834, -0.17667149522839, -0.17660897581979, 0.13137329225253, -0.13745441741581, 0.17378241991502, -0.09881505075186, -0.22416280156651, -0.10416887029391, 0.12853186251345, -0.06169098351776, -0.07789920373567, 0.03385047734043, 0.26725699971877, -0.28698941533066, -0.20070868137104, 0.09733359066845, -0.19291745111308, -0.28497385298309, 0.05779636294754, 0.24436586779733, -0.16014357835769, -0.13634690366754]
[-0.0345439517645, 0.09346836146059, 0.16554538229705, -0.08543997150791, -0.02195201639946, -0.04925899453222, 0.02057066262742, -0.20654453543912, -0.01039854867257, -0.14696152149387, 0.00445054199618, -0.11457301079178, -0.01461614574605, -0.14966988861665, 0.19242856967205, -0.13527707535762, 0.26636999033236, 0.0958636534707, 0.10878987392693, 0.22769990538221, -0.18322814578521, 0.08053459419753, 0.18243402574787, 0.27575136606622, -0.16061323152663, 0.11056937824437, 0.29432265402759, -0.02584171619074, 0.27661719759501, -0.10890743267038, 0.04211015233804, 0.1503298869951]
[-0.01775878806345, 0.12002023084599, -0.13903726251787, -0.13582675239836, 0.17847395528182, 0.05182938790901, 0.05970642250282, 0.03986151196113, -0.25384620770218, 0.04495476146333, 0.12418510315246, -0.13890241201486, 0.12338458610429, 0.0136803501252, -0.09833166895706, 0.19056961041515, -0.06865677507319, 0.02623602706672, -0.03101717771851, 0.17332874854292, -0.19781164775124, -0.24444165422755, 0.04643854285296, 0.23304722260438, 0.03746929993471, 0.00007786531484, 0.05825692341998, 0.28706408698151, -0.23469636722585, 0.25768056404977, -0.00972015691584, 0.06210189754591]
[-0.12826537146618, -0.23057476796821, 0.15879188521569, -0.22543640303942, 0.03220170020264, -0.04677633733249, -0.10822599498583, 0.24602786011559, 0.00802622940269, 0.25597551664092, 0.26226920227445, -0.28041913251036, 0.06724826891537, -0.20604091179035, 0.20774373773005, -0.11397479454901, -0.18269886978234, 0.02528141575544, -0.12684750126499, 0.12717662406924, -0.09378493269328, 0.01298942506939, -0.27833717408033, -0.16334454035979, -0.11325685825755, 0.00505549842338, 0.09683285642568, 0.13878315545411, 0.18944135291191, -0.19737272416345, 0.26309745778734, -0.20981425568832]
[-0.17283946662695, -0.00763826485665, -0.06203347413423, -0.0129843911136, -0.18892841912755, -0.11016787342259, 0.25854238075666, -0.1415474882835, 0.29238606156718, 0.25484616901456, 0.12159938236449, 0.04300924416346, 0.13787162060918, 0.09793373331647, 0.00322084704559, -0.22182661265533, -0.11210384226116, -0.0303652175611, -0.06298971684932, -0.12215674599916, 0.22670359786922, 0.20736165600857, -0.05986597035947, -0.02817989861178, -0.13318316636411, 0.08154398573029, 0.22440047742685, 0.24684836848033, 0.11966720738994, 0.22495568628347, -0.27740685596081, 0.11541844363877]
[0.14318147850446, 0.18411902844482, -0.05062331321729, 0.06180912061093, 0.03340841985193, 0.17979623700771, 0.10589052522604, -0.03606248644502, 0.20696872450638, -0.02354886925617, -0.17776821629561, 0.27120958857438, -0.1027095522593, -0.17130564824271, 0.28569816055725, -0.2578479286096, -0.05334468614116, 0.08236413699874, -0.10668950573855, -0.0478337312106, 0.2486724259061, 0.16540683283583, -0.15075667454353, -0.04945448930498, -0.22989419972988, 0.26597966999357, -0.2409831010734, -0.03541941927507, 0.15949208387766, -0.1798661099117, -0.19914279155898, -0.22403131563148]
[0.20571493295913, -0.17490059211127, 0.15847654811167, 0.23148361530814, 0.27074134019641, 0.09739561214472, 0.18077897159362, -0.13270508705421, 0.23610883516641, 0.0169784735428, 0.21307528612489, 0.15700691989634, -0.16986547176782, -0.27454824420909, -0.14513326015379, 0.27276314525335, 0.01961586857992, -0.02539666275602, -0.21309829643936, -0.00925124508433, -0.16193405560067, -0.09057950933624, -0.24986141946342, -0.19316564835143, 0.15519830450018, 0.19257846581938, 0.26805200025771, 0.0786646025048, -0.20672567429682, -0.17329524515895, -0.23564488617698, 0.07553552096747]
[0.21659061937177, -0.11352692952099, -0.2609564570583, 0.21139627712987, -0.00545499102264, 0.06281853685496, -0.07855890500359, 0.2340779019666, 0.14334153093503, -0.22506859533306, 0.12702945950303, 0.22258582528289, -0.09160902549247, -0.24197214467124, 0.21074353508863, 0.24722976162148, -0.25795944796986, -0.25012925387995, -0.11126659852951, -0.02698728412879, 0.17949890947159, -0.29167188279394, 0.26777352533273, 0.04265112120095, -0.13325947063449, -0.14657896057458, 0.07330742225858, -0.17185769504612, 0.07631763029281, 0.09128307769873, -0.21571607056174, -0.1826396932756]
[-0.27079403654676, 0.21421402769612, -0.15550246900029, -0.0841477538086, -0.17783182044945, -0.29485041296786, -0.17144498045087, 0.04822288562614, 0.02012220466047, -0.26324371123065, 0.19668818535359, 0.15756043292098, 0.10460939878493, 0.28643499564513, 0.10029163278257, 0.10323542030215, -0.17297752311941, -0.0255521881135, -0.04266205240855, 0.26798070946703, 0.07368223674985, 0.04377273548345, 0.08191101787108, -0.28546495282135, 0.23661778858514, -0.16912259308031, -0.02509714581016, -0.10467657510982, -0.01678377955716, 0.0250274423064, -0.12703456804249, -0.1102245999679]
[0.10646089781495, -0.1704812930126, -0.17642662444058, -0.03890567927195, 0.15448326231875, -0.26725855812957, -0.11314188626398, -0.1847212968248, -0.09464654369193, -0.16245454379678, -0.25904745114554, -0.11896125036468, 0.27746372774837, 0.03144070485237, -0.00500654256931, 0.27634038595739, 0.04528839763353, -0.27262725180493, 0.22935376509563, -0.16892419546719, -0.16780907550829, -0.18857438958934, -0.24517454666029, -0.1151296480057, 0.03218664744014, 0.1743632071076, 0.25941012082886, 0.19373359179255, -0.23197833121818, -0.08438123646839, 0.1921346228274, -0.2296701381853]
[-0.05092816090012, 0.08070914197403, 0.15879266279975, -0.174455515112, -0.12189478984399, -0.02044005005847, 0.18942728368587, 0.09630974343396, -0.11492180448343, 0.28771038328978, -0.08770763158836, -0.13458986920148, -0.02098370828661, -0.02826735538833, -0.16844366984849, -0.03611589746644, 0.0588191528902, 0.10385539928235, 0.26404553398225, -0.24928090888126, 0.04196028170175, -0.00244016642682, -0.18976669386005, 0.25777802006732, 0.28090134866747, 0.01787088884784, 0.02684542321571, 0.11034779404825, -0.21894148455803, 0.01248340389302, -0.05571179293636, 0.22343686432002]
[-0.14253394213739, -0.0241974894499, 0.14829416674953, -0.15121516854389, -0.08466201234012, -0.19844488296898, 0.07622218916305, -0.07731163288777, -0.06619220541211, 0.10315548484494, 0.11159193507265, 0.1455868451476, 0.17860959114464, 0.1709721077603, -0.25180071471718, -0.15761180757244, 0.14058670929571, 0.13086345990758, 0.17269497057556, 0.24278048944763, 0.11629674886341, 0.12657567034629, -0.22523201766562, -0.19452751018019, 0.24434647004334, -0.26337958303082, -0.21926270013545, -0.10215064834618, 0.12124880044193, -0.19852938362007, 0.22193371416354, -0.19123867117409]
[0.19443147763819, -0.14464363546808, 0.10711218911992, 0.2033376693505, -0.12394214708412, 0.29047852394648, -0.17267402728587, -0.02931711209345, 0.06911108608368, 0.01680329151681, -0.16039691765693, 0.22866478250394, 0.23875079175792, -0.27194379905466, 0.25728885297488, -0.24778403166779, -0.13132906544463, -0.2670425126994, -0.14396886962065, 0.11104689448644, 0.29017304834943, -0.18843142586823, -0.24099221166701, 0.06638364855447, 0.0122102965988, -0.04385467966282, 0.00943268587355, 0.21848840639658, -0.20118737386942, -0.28114148185482, 0.02723186597132, 0.02421494823611]
[-0.08953027434548, -0.07215502767457, 0.00745154166499, -0.25361494310551, 0.04994362907189, 0.08400879798826, -0.13782331003757, -0.26802324476148, -0.15887535043172, -0.00628609300627, -0.00062247490896, -0.09986839766299, 0.18012054123983, -0.21676412917953, -0.29050769932034, 0.00535995217075, -0.17663045855728, -0.19003679837883, -0.21930808076506, 0.09046324832814, 0.25863614575465, -0.1990331863404, 0.02721519668786, 0.02280875125302, 0.22338240718291, 0.02463506053915, 0.29306187972942, -0.20519362574577, 0.18608550473779, -0.13347240882084, -0.05865046611669, -0.13363523586232]
[-0.01335200267349, -0.08360995157418, -0.18972369281044, 0.00743130340937, -0.22000430620422, 0.01668795082762, -0.16420129693013, -0.14649290243369, -0.00725151267221, 0.12564036638215, 0.24788208547729, -0.2480003937383, 0.24246513626923, -0.15973980929514, -0.1795136826105, 0.24401082949355, -0.14426971051616, 0.10003855160413, 0.0600853967664, -0.23880978623496, 0.03742070532739, 0.21830945968954, -0.16329644220869, 0.14025363926841, 0.07154746462263, -0.17278840195415, 0.11067326234307, -0.03324662441783, -0.16305637460783, 0.20659024444856, 0.23552873337262, -0.01600198169438]
[0.19832063335198, 0.19722750159249, 0.18345631765352, -0.16718157474399, 0.23526321211794, 0.19415321260194, -0.17190138936428, -0.03204934885946, 0.17632770199282, -0.14259401952195, -0.24624080405676, -0.28480683580882, -0.10910090742374, 0.17694181220724, -0.19430049344504, -0.06029577411975, 0.00501183507887, -0.00003983130958, 0.00874251529495, -0.15210094726494, 0.21452065493894, 0.14627862703101, 0.2223225639854, 0.07367703471848, -0.00484798934041, 0.21676207486307, 0.20034707570519, 0.14251458707258, -0.25054297993614, -0.20785743570651, -0.27448517959977, 0.03212090840278]
[0.11006726665407, 0.08994763938735, 0.02736451393263, 0.28312255411251, 0.00432145319608, 0.18280587349285, -0.12920792399884, 0.03947439960201, -0.14488341192674, -0.29178759667585, 0.17211148210494, -0.29194667228452, 0.17373719452442, -0.03304288515156, 0.0905089231434, 0.1398073717809, 0.10891828888054, 0.19987913960009, 0.22326508972476, 0.2052634371339, 0.14680527999863, 0.16067078268288, -0.15358182495174, -0.14332602360938, -0.13493327449967, -0.05652369987142, 0.2555624963655, -0.16260800757579, -0.19579393287194, -0.19793872960131, 0.24500954316936, -0.05327446032437]
[-0.23676752659621, -0.28007984488614, 0.22733753210918, -0.01878912345452, -0.25672526029796, -0.12130824993009, 0.12467458111594, 0.10649472383654, -0.28741290263215, 0.032156323037, -0.09550872664978, -0.09059998809522, 0.22953153557407, -0.19085222383557, 0.1001617514314, 0.1292507434936, -0.22280998006106, -0.04009404658054, -0.01247474750105, -0.1003242444388, 0.11926255607358, -0.04640156957571, 0.09040426549161, 0.15345033987384, 0.1864669770333, -0.01760889149801, -0.23784497382883, -0.08090557342869, 0.15605683402158, -0.01332818678034, 0.04894413966228, 0.19727948732812]
[0.08598227105003, 0.03496880155701, 0.09396693345264, 0.04668613193445, 0.06933936496984, 0.21415106947491, -0.10520114068869, -0.28948083987301, 0.21259158162813, 0.18675689108426, 0.14747426855815, 0.19605691403431, -0.06329627755616, -0.18208131601563, -0.11610566593256, -0.15709566843159, 0.02757946050807, -0.28132808702571, 0.04146997249471, -0.20302104931007, 0.08990578323053, 0.18927976936755, -0.07121790976525, -0.00514612583058, 0.10658693234817, -0.05451504170878, 0.03521813398197, 0.17463724392254, -0.01405198252773, 0.26461593394664, 0.00371638507967, 0.23233546931304]
[0.28094673481691, 0.08655987122226, 0.1304790424303, 0.04830393156465, -0.16579242871483, -0.04696828963319, 0.15330163886254, -0.00759347683203, 0.0555486276596, 0.1846112657431, 0.00664326696477, -0.17918834286382, 0.22067597576678, -0.05142087529103, 0.12383830032921, -0.14361196846542, 0.07225630919197, 0.10487951163426, -0.10054076858912, -0.27468327255723, 0.03072362110234, -0.19239394360707, 0.2545748127965, 0.06446604467554, 0.05728607979838, 0.01602845880312, 0.27528962071735, -0.28282652466318, 0.027670076532, 0.01332173960473, 0.21588033469887, 0.02762476120949]
[0.19801283331091, -0.09691321524913, -0.03692472433193, -0.15777631360408, -0.04904659575745, -0.02902572993938, -0.16203704964572, -0.28534538775972, 0.01941061526772, -0.21479144013668, -0.15112570147271, -0.24041439357596, 0.25574763538378, -0.26081671768758, 0.07566506677739, 0.13276204414491, 0.1014967135088, -0.19875880116632, 0.05667185346419, 0.19872223953664, -0.0315671836456, 0.06695277875847, 0.22758649071805, -0.16063851628068, 0.14322551313351, 0.28376508472546, 0.03416176727796, 0.04389625957312, -0.17973246570511, 0.15474522073566, -0.12842778721926, 0.27077157314967]
[0.03352056469945, 0.12527240988329, 0.10778862907209, 0.18220039841614, 0.28040169482978, -0.2772668916636, -0.04615291052704, -0.23062403262169, 0.04217466952178, 0.27038147943104, -0.2359863809907, 0.05405883212365, -0.02832322225715, -0.14670308423014, -0.17475333984541, 0.12842106040119, -0.22864570496571, 0.24013221369816, 0.18292699976136, 0.19682684194195, -0.16411595304587, 0.23564699311152, 0.0268104430748, -0.23454761960685, -0.04977296923144, -0.04787977269667, -0.27416691331661, -0.18050055914487, 0.23356916438277, 0.1254001609207, 0.05606216618993, 0.23064007707117]
[-0.23836012124685, 0.13115535472091, -0.27553994903761, 0.09128221199987, 0.20470750896266, 0.12022986210357, -0.27018889205973, -0.04870311553424, 0.11466030119284, 0.25772358741132, 0.01686650789577, -0.09791776093737, 0.22206369053673, -0.03351820825269, 0.11893785638161, 0.17688981125696, -0.22945835206585, 0.05360088957288, 0.15231046332248, 0.13916944613177, 0.27374459199658, 0.24142002747125, -0.12814117364169, -0.24281579324543, -0.0424716059701, 0.06911966877572, 0.14368404395279, 0.15298565030512, -0.16020760096016, -0.14975483907894, 0.01619554819819, 0.02820271343695]
[-0.21616222910592, -0.0712528214882, -0.06416935596969, -0.24059654106559, 0.13144317781984, -0.04293236920393, -0.02494695812126, -0.09198027083427, -0.21986146434793, -0.11834686862072, 0.21457418268152, 0.02943170316891, -0.18010959562752, 0.14720863103342, -0.0200474582061, 0.04813100277882, -0.23270571209954, 0.2252968328343, -0.1931646132255, -0.10749261484364, 0.12282943827904, -0.00067074011533, 0.19704811909692, -0.10528414787916, -0.12215068386876, 0.1938414588811, -0.18435930066912, 0.04115637450341, 0.01832617725195, -0.04527144779416, 0.03339666555316, 0.09225628657195]
[-0.13771584875436, 0.06962439678727, 0.18373044419956, 0.15978984019026, -0.11281275430687, 0.03251493590498, 0.07157862985222, 0.13355487596991, 0.14387347704357, 0.14049105991062, 0.11858719494513, 0.10359994835544, 0.16447385001897, -0.20946610836849, 0.09118479212453, 0.11032962228052, 0.21193027132225, -0.23119218578214, -0.2148312169726, -0.12428819267199, -0.18422108413265, 0.10509804029923, 0.05149627250563, -0.05970986724468, 0.00467227059899, 0.12416217191601, 0.01121096604049, 0.01026886099223, -0.02479262457762, -0.03840603119322, -0.24870107252907, 0.27887751286425]
[-0.20362978250276, 0.05005447749919, 0.27372645901966, 0.07947614928549, -0.05595577427764, 0.26279128376364, -0.04166435883484, 0.17886689137657, -0.10673789867176, 0.19090170455859, 0.27719768624609, -0.19870370363563, 0.01421136846757, 0.07445351950465, -0.19740037875722, 0.25932006326662, -0.10720196333152, -0.1760110481365, -0.27882955520675, 0.13110544338526, 0.22900436674201, -0.195930713149, -0.27695226197574, 0.06222328753794, 0.16587550692686, 0.1893058132518, 0.2731074064299, -0.24984946558132, 0.0378922678076, 0.10369859905237, -0.18802856864589, -0.16510183682882]
[-0.16852584745716, -0.0498229198954, -0.22337065272796, -0.17138460801269, -0.16588688510504, 0.23016587351164, -0.08526621219001, 0.22541454995266, 0.17586480792334, 0.13548690272385, -0.03606638738528, -0.27662369202037, 0.09842663758839, 0.20778945295998, -0.05820621427388, 0.03657215978992, -0.12708553390219, -0.0278873907857, 0.07460793802521, -0.00578218828622, 0.22119208319332, -0.13271145647378, -0.0474142644985, -0.15602434586758, -0.20801417533513, 0.24115198198389, 0.05377040116673, -0.00223849568542, -0.19541179326775, -0.14859819355003, 0.10925011276788, 0.23811908459362]
[-0.25777395767155, 0.29242117977648, 0.16993074556812, 0.23174990216271, -0.26837365955233, -0.02830299725029, 0.22810332319195, -0.00770555674985, 0.26173753277296, -0.00186853510555, 0.06196340458151, -0.14029958622941, -0.11533776380256, -0.20606654861657, 0.04479128560427, -0.07527314039645, -0.18885470916174, 0.0841241190659, 0.12201607603114, -0.0389031947251, -0.07051634436558, 0.11328512843008, -0.2121518425151, 0.15889951258571, -0.22848687799104, 0.25584882390478, -0.27623914371529, 0.01402936948514, 0.19004519976344, 0.13691834645363, -0.03638063294485, -0.18123001159935]
[-0.09335094296144, 0.07397215366474, 0.15728725908476, 0.26051659566066, 0.26120226543197, 0.08560209314973, -0.17933295558121, -0.03058331706832, 0.2217405333673, 0.08501257712057, -0.17897240230363, -0.06252221130766, 0.28424751063004, 0.04895795901673, -0.12786310664688, -0.05251758520796, 0.19637254529301, 0.27288783555515, 0.21018134030605, 0.21801269234414, 0.14588086910008, -0.03515047092195, 0.22553484281448, 0.25147198941655, -0.14322094360652, -0.08325896862062, 0.05742542701123, -0.21992100740028, 0.09820837273392, -0.02533709641903, -0.13140674163816, 0.20858972413476]
[-0.14263433526393, 0.25111625649877, 0.13908633787942, -0.18470298214648, 0.14738720630086, 0.16719015843627, -0.17375445429661, 0.17315570247532, -0.08825181318799, 0.02411987160683, -0.04611538250476, 0.14272913479195, -0.0087678827147, 0.11163283775665, 0.25098690984506, 0.12634150573263, -0.15070423776305, -0.09176409297089, 0.03889419906901, 0.05628297251875, 0.10884671263422, -0.27912617093907, -0.07375764095712, 0.03312796721934, -0.01971708842479, -0.13409576118654, 0.28330883748684, 0.22060544276619, 0.0180522839612, 0.2848195729774, -0.02131688917549, -0.20490954723703]
[-0.19323270510006, -0.233561746111, -0.07826337747673, 0.1884655355094, -0.14657456041651, 0.12435535423262, -0.14342065268192, -0.28124516530799, 0.23319587422274, 0.28187773457644, -0.00476495669169, -0.00977214415536, -0.25223250052341, 0.25229888912294, -0.26194565754625, 0.06735728053829, -0.20204455556648, 0.2549833504881, 0.11469843841344, 0.04062510914791, -0.16255550592212, -0.18730968934801, -0.05686181839617, 0.24633010995841, -0.06762287687877, 0.22041932986181, 0.24060135422955, 0.24321159558972, -0.00149714135572, -0.27080877505562, 0.24002125869195, 0.15148640587945]
[0.1736074939391, -0.26884107796839, 0.16033875269546, 0.00892395403146, 0.29126668798975, -0.0993264013075, 0.16784645052365, -0.09462714820025, 0.21514678350922, 0.02689050695534, 0.2431945939512, -0.21851068253236, 0.13261481760617, 0.03002247109118, 0.12532418329885, -0.26522246655896, -0.25486471421563, -0.15552587298247, 0.26465345268792, 0.26898956992894, 0.23670328545227, 0.05457104472431, 0.04946978187392, 0.1577577381489, 0.04333695354999, 0.26184179624077, 0.27615102458833, -0.24651162964033, -0.23219518151135, 0.19616855834477, -0.16483661616766, 0.11137285441279]

[0.03892856624364, -0.09794475975452, -0.1148424971232, 0.03495147258353, -0.01877961895924, -0.19480240464193, -0.18717296235429, 0.22483995426636, 0.23356251506762, 0.3020078681094, -0.16317540136515, 0.0669908706128, -0.29047776879752, 0.15045475647764, 0.0386900262995, 0.17083576710108, -0.13508815985465, -0.30071660393506, -0.20345278077469, -0.28428204231452, -0.05260596787247, -0.24434047115461, 0.07742803376021, 0.10606866924814, -0.14716533034857, 0.30571736304819, -0.10173690461924, -0.25887245199893, -0.07309671911068, -0.03895763673886, 0.27662595404164, 0.23651516794372]
[-0.05949382233319, -0.06842620529738, 0.04956926743917, -0.07328943198406, -0.06605043306103, 0.10945585072785, -0.29422532733036, -0.02616921332427, 0.01157545153454, 0.18621861642008, -0.07258155241686, -0.07187963950448, 0.01265591625431, 0.15269574402089, 0.09518254686139, -0.14455414699457, 0.25802303776993, -0.16406419244104, 0.02236542546254, -0.16107746647901, 0.29601708928402, -0.12779023651754, 0.30325209636687, 0.18621260107784, -0.20116089573723, 0.25908468000127, -0.09834533541863, -0.12314199040984, 0.14870505336387, -0.06852942568983, -0.02248318469821, 0.14289752709374]
[0.16163204947457, 0.2962903783846, 0.23061890062584, 0.1561171097424, 0.10268046708173, 0.11654537284181, -0.2641117071829, 0.11029712485242, 0.08944667953477, -0.14407468730185, 0.07420454750138, -0.20317603507565, -0.2668414646697, 0.1114755439037, -0.13783425708079, 0.02138576649317, -0.27491252454876, -0.0695345434615, 0.26197657183199, -0.03521819860936, -0.15786129223242, 0.00135281178156, -0.07254366442135, 0.09095629171192, -0.06926296721052, -0.28908119732426, 0.08507459983597, -0.20790779923842, 0.24079129961781, -0.16752460558681, -0.10518048467905, -0.13112821078086]
[-0.01638378655236, 0.0636104214914, 0.03570087615834, -0.00915559507885, -0.27069193707608, -0.24931576057862, -0.08511125363741, -0.23130786883538, 0.07613200819235, 0.09478756384382, 0.00602802998536, -0.25530781030224, 0.23314310062693, 0.2177412829069, 0.07914737324884, -0.19190635245034, -0.15368257888137, 0.19543458052081, -0.06239549144263, 0.00013931153159, -0.27094916820252, 0.24956650194258, -0.2178788235608, 0.24299210558172, 0.05819300945225, -0.16202381390249, 0.2473706722459, -0.15002754915579, 0.05343990054116, 0.22216681377977, -0.21237027103663, 0.21725648730604]
[0.24466784395204, 0.21856039640895, -0.07028311515433, -0.12137379328434, -0.03433521531076, -0.02334738256252, -0.1657554161755, 0.22457274316491, 0.11083122303585, 0.15955135805216, 0.0420651035405, -0.0380656701856, 0.07696121141079, 0.22197544116046, -0.17878934930294, -0.24356742561743, -0.12297477327298, 0.30481365992998, -0.1552738171418, 0.28511552857666, 0.21500282672396, 0.14321872712304, -0.0464475541509, -0.25560925889122, -0.14791142640069, 0.24489388939923, 0.16927159616311, 0.00435063334212, 0.04480717345934, 0.01893322325457, -0.17258398815589, -0.24819837564857]
[-0.00826898354443, 0.18398504236913, -0.18759429477006, 0.15258935798313, -0.10361282617597, 0.17865466068366, 0.12774994107689, -0.30334449368765, -0.02497563548819, -0.15312136305718, -0.07300080981027, 0.18660206881832, 0.22557068180728, -0.30382742704915, -0.26220282114259, 0.09232638242505, 0.05031874522889, 0.15528614915843, 0.08457873794234, -0.10005029944964, -0.2164264100417, 0.14606232400809, 0.00501042005064, -0.26216340339094, -0.09291994862013, -0.28225329547585, 0.29573672803735, 0.3042593024524, -0.046324302554, -0.26690732320304, 0.30288629724095, -0.06058213456072]
[-0.1675778027423, -0.27638073846117, -0.26868069574952, -0.27605447347131, 0.0347081562461, -0.05612585722256, -0.11351981227707, 0.1605867307416, -0.26649203694907, 0.18560287810313, -0.04806405551675, 0.09135769431221, 0.25221693938652, -0.3049971952465, 0.09040572445984, 0.11713571711166, -0.12669808540945, 0.29421194601273, -0.22404252815656, 0.19609476418568, -0.05891849796594, 0.08087058644965, 0.1773280805979, 0.14712842683117, -0.05882420607064, -0.13292904602757, -0.01852880897427, 0.00035570918061, 0.25726028065541, 0.11831513159941, -0.13670276114941, 0.06518039069104]
[-0.08944066629245, -0.11360534563259, -0.01767818065163, -0.20729486776502, -0.18122810360935, 0.06180529044063, -0.16466984794372, -0.11073893525543, 0.11111610100843, -0.04596481417546, 0.20679685203362, -0.26545887376293, 0.03844524978256, 0.24100957848615, 0.10183002485673, 0.10969272122953, -0.06520178948278, 0.08591068640501, -0.06734170374881, 0.22274539145356, 0.30351319492286, 0.02725094712529, 0.15081417964101, -0.10475957209793, -0.13326787117446, 0.15573573540829, 0.30495637706037, -0.24592807105666, -0.18326118378637, 0.24514819839506, 0.09996883087651, -0.18019050726379]
[-0.00344789373717, 0.06345996922373, 0.24797430001892, 0.12836369093598, 0.14372754898025, 0.03404202340111, -0.21057357990395, -0.10285848014728, -0.01255418441477, 0.15336774354122, -0.10958900595134, 0.21258463081361, 0.0078275392814, 0.01969690683688, 0.02728935102445, -0.0083903780603, 0.05438749236069, -0.04586843525887, 0.05835591405098, -0.17675772917535, 0.26519058800573, -0.28916887137266, 0.23504722003791, -0.2129963505259, 0.26520667679842, -0.01633747654653, -0.1017287557838, 0.19817714369147, -0.29335526827818, -0.0023420280254, 0.12456601337307, -0.07718279043438]
[0.27905702350858, 0.24153111755974, 0.19837486662106, -0.10599212404112, -0.27135995564442, 0.28899026425554, 0.08299824322778, -0.09777668546282, -0.00085905328632, 0.12069781914465, -0.12342202232504, 0.25297409400475, 0.30213366895743, -0.26635769207997, 0.03871897979061, -0.1938240059861, -0.27222363703742, -0.00069990752122, -0.27190623842092, -0.23610779183498, -0.24345500785192, 0.09036539222012, 0.11412925583321, 0.11261007241005, -0.21260095152418, 0.25364796484451, 0.18425301375422, -0.28920920162128, -0.16368875743987, 0.06578803529692, 0.11670087180745, 0.14142429648728]
[-0.05029623949472, -0.24012776747546, -0.09744326155207, -0.1406877574721, -0.1838686908037, 0.03849649737893, -0.19062910029093, -0.18426677055792, 0.22180816469724, 0.29312070430717, -0.06883138504401, 0.30600320962549, 0.02114160032567, 0.11293440103796, 0.28134732213665, 0.0029784751156, -0.0084393812191, 0.22131973898377, 0.23595700620084, -0.13099396100492, -0.26914445891024, 0.23557442064292, 0.1631278496406, 0.04632628470646, 0.28808877238481, 0.22058190140662, -0.17380355006001, -0.29845201032388, 0.13093542720775, 0.19572165900083, -0.24614655720915, -0.05996282822175]
[0.06601071140956, -0.25009804921395, 0.03933723328451, -0.01942035703231, 0.01352805399965, -0.13038319744603, -0.18746591540366, -0.12406430564972, -0.198423466148, -0.25776208840273, -0.00635293228634, -0.05784395751558, 0.0609134524436, -0.25581216053766, 0.07517838688755, 0.15754046696735, 0.04362027195741, -0.1300935453638, 0.25079720351312, -0.13913577053281, -0.06599028048959, -0.15572768917369, 0.18026733323217, -0.23782098834325, -0.1975206550201, -0.05392301981624, -0.14122965897211, -0.18001481200282, -0.20095560610632, -0.26355208752725, -0.26564317817696, -0.29271453742084]
[-0.23351385924194, -0.28047638143617, 0.25289819074677, 0.07282308390269, 0.19484894339623, -0.20100546634934, -0.04148260778604, 0.25268902757439, 0.07546827617903, -0.27393912202939, 0.19811452076482, -0.25392203130781, -0.235230761951, 0.16624612945195, -0.19796002019433, -0.14078586220478, 0.13338630662751, 0.27845903215656, -0.20282248477846, 0.18985012072793, -0.14150376537679, -0.08500101699429, -0.22166933508204, 0.17918853561281, -0.10011603361942, -0.17868049340303, -0.10006930962537, 0.09666907569865, 0.24396390882406, -0.22147975430135, 0.2277343380193, 0.11948524210041]
[-0.13221127735689, 0.20422240358531, 0.23116454288914, -0.27126929694043, 0.09132835347398, -0.17439106760703, -0.17042800635146, -0.23397900025546, 0.18652935130512, 0.10045925836161, -0.21875453575364, 0.26985183824341, -0.20957769830933, -0.10099073662699, -0.27768594325359, -0.08841187151313, 0.18249318374091, -0.14065309646078, 0.03261082815833, -0.07463749383316, -0.08980845738866, 0.2847726180386, -0.13550679501837, 0.05045130448954, -0.04799793313892, 0.29624450369265, 0.03236770148409, 0.22042712969889, -0.20353002646904, 0.04214851868419, 0.26242738433328, 0.25265842674459]
[-0.16028419545843, -0.12183269408095, 0.15166985871212, 0.20749734142139, -0.2496787057534, 0.1384103568188, -0.10511654540054, -0.03132152926001, -0.15734666452392, -0.25757197308923, -0.04067164470245, 0.12957949405084, 0.09884105079264, 0.25901296299389, 0.06504089608141, -0.05262657170073, -0.21226143322579, -0.15641145161782, -0.12565518839011, 0.23259774345702, 0.22188106020283, 0.0229814974353, -0.03522756428582, 0.00631013755181, 0.16272240131198, 0.29134650112513, -0.15633472127672, -0.21552081844083, -0.27084446552174, 0.02332987638921, -0.06723483151433, 0.15615339997849]
[-0.2681972088834, 0.21673139535503, 0.26839804945751, -0.03700402856303, 0.21333056309321, -0.01614144882567, 0.25008801540737, -0.26102707919207, 0.26536235123283, 0.10273023755869, 0.29265561666194, 0.05128039804711, -0.06015922760248, 0.15109450821435, 0.17254579677974, -0.20969508220179, 0.27523346759679, 0.13902653492226, 0.01473417397325, 0.01198389368234, 0.01664042360846, 0.0369379864303, -0.02337024440349, -0.10324342374602, -0.21199335602111, -0.06496479852777, -0.24063286928222, 0.25447508260292, 0.20645935214967, 0.09278633191301, -0.23026115584372, 0.23439418306464]
[0.17693346087741, -0.28125809021745, 0.14627639819264, -0.0766033409873, -0.18165146386552, 0.02573104345143, -0.14164439820617, 0.13444284522026, -0.11350605590938, 0.22186765232813, 0.05977492470903, 0.16782743397132, -0.14718998461329, -0.09838258104835, -0.29036032830249, -0.1164907652489, 0.1501730251003, 0.16677510472387, 0.15158566362541, -0.08382287464267, 0.16725258709046, 0.28579267986836, 0.29581852877617, -0.02454404858461, 0.00306412571327, 0.04327547055301, -0.1545253181217, -0.14746827335803, 0.21614506617352, -0.26319134562998, -0.30128204937648, 0.30028136431845]
[0.08837247142091, 0.09460507499322, 0.12396031619113, 0.16532516712109, -0.21504083429817, 0.0831835197888, 0.21980857821975, -0.23287393443102, -0.11113534305392, -0.03160851076478, -0.1210747284298, -0.20518188950949, 0.16956958736318, -0.27667838776659, -0.01236140913441, 0.15949306490827, 0.01572770948408, 0.06561608689499, -0.17874159003578, 0.3015384984192, -0.22616880059606, 0.30318075706254, 0.27911300015756, 0.06817878965134, -0.01341428170815, 0.29116413751635, -0.26770783719177, 0.28842980311204, 0.2808772984875, -0.11084140402678, 0.12604789688596, 0.2478188972845]
[-0.25250916511909, -0.06333615498899, -0.01006012924313, 0.12233217723828, -0.03603149276121, 0.18901835661986, 0.14216171457162, -0.21509856480245, 0.07100498674631, 0.2880359475494, 0.18108166340312, 0.03606560369365, 0.00778651341837, 0.20916919854437, 0.11192370121193, 0.23369723162998, -0.27696327870357, -0.10910782368803, 0.24621516637523, -0.30327924284024, 0.28866876982319, -0.08723827786865, -0.07525785149313, 0.27497792859674, 0.10142300455632, 0.12447365647926, -0.14052090446198, -0.02303905821957, -0.28202270927839, 0.07727737394773, 0.27912155225785, 0.09839746656566]
[0.22552822669679, -0.28492337533446, 0.25509528553217, -0.23095856476555, -0.08184438462377, -0.06785157158082, -0.20168233048559, 0.15726100945913, 0.00463369671848, 0.10762089179859, -0.1947721060275, 0.27003411707414, -0.06244131736935, 0.13897162253699, 0.02915429263122, 0.11253560049426, 0.10605653358654, 0.17598133698301, -0.29127406671175, -0.10703496770141, -0.00978078676479, 0.03836695508194, 0.24726490707885, -0.05525842111129, -0.17704947955894, -0.01643734139356, 0.1687547602872, 0.03610684576176, -0.07910804610644, -0.02563124103013, 0.1733027573397, -0.13774421631445]
[0.21315015660502, 0.19883355615367, -0.23850189190543, -0.27565253105521, -0.13964735594189, 0.24905675229895, 0.25893366102949, 0.1458559044142, -0.29714963320142, 0.01464039897794, -0.08129426737953, -0.08012653613598, -0.19720317927804, -0.1639925445228, 0.13698676508851, 0.1916593544487, 0.22974046639877, -0.12434794077503, 0.17366454658303, -0.26342468154847, -0.25405075873985, 0.13012724671329, -0.24032065992643, 0.26149027279908, -0.25209656213948, 0.24605885066266, 0.18989235502206, 0.17185934238752, 0.30509994125279, -0.1164500347938, 0.26090225762124, -0.07731407955876]
[0.30598774149463, -0.25665253706203, 0.14968644106686, -0.07127833874984, -0.22458457192925, -0.01330661391811, 0.22472510085649, -0.09778286050237, -0.16720770968638, 0.21047728064035, 0.06889687894382, 0.18278296316361, 0.30274979266908, -0.15640458100268, 0.22508014161283, -0.2948076499836, 0.04802648090813, -0.30084480984005, 0.07102566926928, 0.11336043161135, 0.23215604695037, -0.13431307117089, -0.20626211970663, 0.13901763186699, -0.20869744090391, 0.17068198251982, 0.10382785433739, -0.30401655923162, 0.24614238874707, -0.19365217909336, -0.22698850451659, -0.20545901049059]
[0.14266692388123, 0.04013864802179, 0.28318455573092, -0.17284258799708, -0.22343293538968, -0.21858494544473, 0.27470471394457, 0.27879555260768, 0.09113654280591, -0.15652529479865, 0.03540168101046, 0.25836654909438, -0.29173426630788, 0.14481108957224, 0.26580768599793, 0.2019854794381, -0.0766887942234, -0.28931158650388, -0.08140515130198, 0.06866662527401, -0.27018452094593, 0.1013503224167, 0.23133974826868, 0.07063420037471, 0.20974244460385, 0.21645859371176, -0.19549993999705, -0.24942038775817, 0.28608400577108, -0.0254653764578, -0.22171012970917, -0.29470370804911]
[-0.26372000457636, 0.14331628532612, -0.18891499653312, -0.17610134171195, -0.0911171349749, -0.15865149607941, -0.04402579454056, -0.14872161841157, 0.18654091561835, 0.27050886695769, -0.20902648407517, -0.03289638942962, -0.20352342440571, 0.14536066215839, -0.02942995805955, 0.05306867750111, -0.17694411479023, 0.23088343939382, 0.20751477486522, -0.27260455531509, 0.04982712899071, 0.1883723371853, 0.25351048573016, -0.14598161014351, -0.04649601650257, 0.01304910487237, 0.28636116801876, 0.18971865897395, -0.07706826690436, -0.20061871046169, 0.07831338728181, 0.09382328141207]
[0.07105612939529, -0.1718745734202, -0.14618913848761, 0.03313980628891, 0.15756205860752, -0.19340110904473, 0.0375795385411, 0.28197784844963, 0.08423473705662, -0.16966968171245, 0.1409211717353, -0.18066014209066, -0.28918137770161, 0.00265762089114, -0.16840613460458, 0.25544063144596, -0.03538145031424, -0.27791154866665, 0.29403870699056, 0.05670955909851, 0.03882099396259, -0.22792136848527, 0.19959689095267, -0.00027342309185, 0.03704164343319, -0.09380286245897, -0.10017922230565, -0.19609606397059, 0.04520514427097, 0.26797138971317, 0.12293346378558, 0.19108926456202]
[-0.22047374529335, -0.22963431369224, 0.1743290197616, 0.17971659780148, 0.20115823623597, 0.17327090898467, -0.08990208855521, 0.06196050610126, -0.02827564071783, 0.14242164978271, 0.27470860094487, 0.11558309515605, -0.13523241430844, 0.24441745388049, 0.15358601898715, -0.12372038310808, -0.19158767985721, -0.14878867259052, 0.10574785907261, 0.27499167953889, 0.23986158509914, 0.20746264854689, 0.09308851129938, -0.2630323328028, 0.26385941137503, -0.16892611152849, -0.17193674724106, 0.06212834567899, -0.18047636899819, -0.13815821356703, 0.28097606568575, -0.15678461970805]
[0.00690918222422, 0.1563777208567, 0.10335629876162, 0.14317048715367, 0.01120522895572, 0.09492095009528, -0.23472934230333, 0.22504329356777, 0.21536618388557, -0.2105549976473, 0.0207268155688, 0.19606629707729, -0.06991383309639, 0.01284487561232, -0.081897404155, -0.08700263801252, 0.27895722735142, 0.11127594598743, -0.14848927963225, -0.28777280979914, 0.26979915516372, -0.06683357567868, -0.05701874769828, 0.29728687841982, 0.25417702275146, -0.21961581182996, 0.20227911452341, -0.21444535716139, -0.12126124170317, -0.15786755194404, 0.08424443978053, 0.26355482352814]
[0.25742057674467, -0.20214361330549, 0.09864944855359, -0.19165695401747, 0.21927596842164, 0.08490839746832, -0.12903349892952, -0.03999032553907, -0.08448013530842, -0.17601483482325, 0.22987024510573, 0.2595283128707, -0.04913719214307, -0.02363963934238, -0.07910410617601, -0.19350458588362, 0.20693786013297, -0.05981642997505, 0.24783930039669, 0.10137651842091, -0.15794929559556, -0.23154062047053, -0.04575574412983, -0.00525401436169, -0.28056015088236, 0.02608583075079, -0.03714768219131, -0.07100533044372, 0.16912197393421, 0.01604157045669, 0.00289251303876, -0.19496845093276]
[0.11643007343346, 0.0677944960581, -0.1538092418979, 0.1032180038822, -0.09874384079886, -0.03971863330459, -0.02285913282502, 0.30535236636466, 0.00814547258787, 0.06810594552404, 0.24981242463588, 0.03171378277896, -0.25561255638061, 0.10287550710161, -0.1991678907066, 0.08360377547185, 0.26417830686729, -0.03088349203587, -0.21774005437946, 0.11497731042689, 0.27794072420687, -0.05357281895665, 0.26809755425563, -0.2570545727717, 0.27884302635526, 0.22826255644964, -0.21510354908805, 0.03718982163119, 0.03037631665121, 0.16677584161171, 0.22037123956616, 0.07322930547003]
[0.20039173613034, 0.06512726685852, -0.25581049292602, 0.13352081949554, -0.21553543976302, 0.01976513261708, 0.04421492080139, 0.00406789216627, 0.24891494536408, 0.1073359263508, 0.29687280402084, 0.15998418235777, 0.04596903304027, 0.18010553289315, 0.17551917023099, 0.05529790706159, -0.17843455675064, -0.15618376639318, -0.14300653302835, 0.1438921854035, -0.10221485019779, -0.12052049093988, -0.24186790798023, 0.08614089915064, 0.05051768237808, 0.00347788326757, 0.08163113963845, 0.14520293947286, -0.2456265994947, 0.22692368581861, 0.14235258139702, -0.1778984841307]
[-0.12762623173138, 0.27467691808505, 0.07386042975037, -0.27857616549766, 0.21925478475528, 0.13335605218428, 0.09640205978792, 0.10855199639411, 0.16534243723648, 0.01833775972887, 0.18163026743749, 0.21738126423278, 0.27609484114715, -0.12769594220201, -0.10213347579376, -0.19286670304077, 0.03226446542348, 0.11193764016872, -0.25654328195081, 0.06017522942685, -0.21051723773209, 0.23963599578969, 0.29663220038518, -0.17694246393629, 0.24823080580826, -0.08779035263113, -0.14890609796609, -0.20512531590313, 0.11246690495111, 0.06354310574198, -0.0585757309855, 0.17406230141179]
[0.21440133958728, 0.14187781011933, -0.25999798349467, 0.03798887522801, 0.23719809804545, 0.18871977352593, 0.20192474240947, -0.19628074154003, 0.13599903855205, 0.03250574598112, 0.12543895265402, -0.08116647991089, -0.08954651983709, 0.14448964470956, 0.26445995933292, -0.25431013934156, -0.28593124220253, -0.0761573289731, -0.20105091784754, -0.06581736971619, 0.16761156465877, -0.02986838233536, 0.07824320494567, -0.25818333296039, 0.18786782446523, 0.20685501171537, -0.01856058544972, -0.16298513849588, 0.02354770189062, 0.15465931551739, -0.08885412888938, -0.10466915366678]

[-0.19344823316787, -0.18385886841599, 0.01495929237881, -0.3454937633521, 0.20999602310432]
[0.15898119351728, 0.0263849765553, -0.29026281626373, 0.29142613294244, 0.16450133898188]
[-0.1738282255527, -0.07220342841036, -0.33326600472467, -0.02037369849633, -0.13126734257205]
[-0.19941481976149, 0.22696313174254, -0.19551653537291, 0.28757775955408, 0.2063336637492]
[0.19036862443193, 0.3517232527135, 0.00279321630317, 0.1449259055713, -0.07933649243645]
[0.01314319829042, -0.20177439342958, -0.35032855004892, 0.17430334826972, 0.39406350999003]
[0.31631472150268, -0.03487133346323, 0.31155879218513, 0.20025460666294, 0.29088235192213]
[-0.29295390749396, -0.32504525630599, 0.12779758365709, 0.02401747016739, 0.04527055052118]
[0.12442149360028, 0.15048536537668, -0.12290813534538, 0.28694571241015, 0.02257310743527]
[0.31933718532462, -0.1256034949241, 0.35259076737789, 0.18930723343611, -0.36190018039223]
[-0.30598920043364, 0.09715001287, -0.32029487831066, -0.04244656593264, 0.09817485009543]
[-0.38075401436298, -0.04197574024483, 0.12999376418379, 0.23954634610709, -0.08021633414427]
[0.35158705463882, -0.22612384329727, 0.10621244020721, -0.20320236090689, -0.33549925409644]
[0.21232292437188, 0.05592170410879, -0.03486453437351, 0.08747619928742, 0.37470004728647]
[0.20190724340608, -0.14340007897485, 0.29710071405893, 0.19993137410646, 0.38188515772353]
[-0.16712220524687, -0.31907127779697, 0.401757186901, -0.17317410341754, -0.34592277868786]
[-0.26077848387578, -0.27351901017805, -0.11845762493138, -0.02449835540957, -0.08100658612796]
[0.24752494088817, 0.0797129734496, 0.08263012700259, 0.05792447192352, -0.17071325293927]
[0.05306840563436, 0.26982449363833, 0.15871473080003, 0.29503399433867, -0.35906953318327]
[-0.03035384240948, 0.01676888623101, -0.3179264356886, 0.23790546664289, 0.04362261693224]
[0.05702326833847, 0.07541366374616, -0.14934310253976, 0.19889301104158, 0.35208771950575]
[-0.17519277117116, -0.26589775470037, 0.11240934094928, -0.02837934514597, -0.05201218358505]
[-0.40148946618007, -0.09713800382385, -0.32761176226213, -0.16314184293052, 0.17157969576662]
[0.18444770518627, 0.06440318925074, -0.15124999084021, 0.04749907221738, 0.02921279010359]
[-0.3724424447841, -0.29747601524467, 0.12679055340989, -0.07168158837508, 0.20689299179026]
[0.19863496031354, -0.06716931809387, -0.10124266981458, -0.40154752456685, -0.25619729275006]
[0.10633333432398, -0.05890808294349, -0.17283680200782, 0.12252768364026, -0.27001878489024]
[-0.21618954809296, 0.12736146778957, -0.23210715563823, 0.24362505777983, 0.2673424616143]
[0.23405205632472, 0.31917468029997, 0.02701398597448, 0.27039661650563, -0.12823303762739]
[-0.3515442268155, -0.25686264225535, 0.17769167023993, 0.07991046123173, -0.22694695683579]
[0.06907623065044, 0.06931817696176, -0.26688158627062, -0.1011319379439, 0.22654026269532]
[0.34802130190058, 0.36238250308437, 0.08424470933656, -0.08978036430525, 0.28805716354602]


Best Model in generation 1, with a score of 7.190000 
[0.17027567650228, -0.06292738344526, -0.03212349607113, 0.00096052107754, -0.22160723456471, 0.21400243904603, 0.20814758455824, -0.21186308007452, -0.12007443707151, -0.1042428650934, -0.21405402825618, -0.1677676305175, -0.21115262024264, 0.12531386511286, 0.23360978029133, 0.15232144980998, -0.04996190711164, 0.16550986002109, 0.17508871463625, 0.22465810060186, -0.1838597066006, 0.00563246359485, 0.04350261422875, -0.27267514142872, 0.24394917388674, -0.24342751342436, -0.19662945051322, 0.2899722710007, 0.14648446193715, 0.15535145876324, 0.09201247364279, 0.09156768567323]
[0.04960685446606, 0.09938424097072, 0.19989621691709, 0.02417431498743, 0.22846235734292, 0.1947287393911, -0.26195924301138, 0.01349738316286, 0.18406064108205, 0.21801376477809, 0.19876558558149, -0.16920143016519, 0.25513804836683, 0.25105002588335, 0.24062158323741, 0.05189003205882, 0.24771109309391, 0.28289484077992, -0.26542775912373, 0.08119021804552, 0.16048719623511, 0.00818691329348, -0.25587730952668, 0.27036933743091, 0.16867692018925, 0.16791735100063, 0.14383176236413, -0.06931848764526, -0.04274877758511, -0.15873177290053, -0.23543139876195, 0.28310087189717]
[-0.05275743840235, -0.02320482163394, 0.28679854054843, 0.24455544465705, -0.28785986553702, -0.03215978205999, 0.21340156630222, -0.133536749725, -0.29095763298569, 0.09663178373415, -0.13913282746522, 0.07690497014134, 0.17143350404817, 0.22646645259144, 0.05135552466308, -0.09628765041621, -0.24713690300824, -0.08478222486264, 0.26310667050778, 0.09279246214122, 0.24902473353138, 0.00426486342181, -0.23836046789286, -0.12918189811349, 0.16722267971327, -0.15744864445198, -0.19108143595143, -0.18455851329207, 0.00024012626571, -0.02672142135469, 0.11787609689779, 0.07870646573291]
[-0.00419226644072, 0.26279345099688, -0.12130874249776, 0.06841646692073, 0.19172920997473, -0.05371395329232, -0.04247428184354, -0.07931203656786, 0.03917586791885, 0.14173673523001, 0.15843519927571, 0.21754381023666, -0.20979302187502, 0.28779626507577, 0.10084303353164, -0.15013698985069, 0.25804057803604, 0.12246497516754, -0.09625883612301, 0.02434538131391, 0.07817975775364, 0.2168999852724, -0.24472444808677, -0.0192513832587, 0.02926330533836, 0.18496757460366, 0.23018579404062, -0.09622413873062, -0.03277926633501, -0.07911563851387, 0.1126579853038, -0.06699246101086]
[-0.12372391375454, -0.13970063598934, -0.13124594860389, 0.01257335684344, -0.01611737095494, 0.14373265479128, -0.24060776487176, 0.16714853242667, -0.20070991332299, 0.09726608873292, -0.28720761812837, 0.19773845290221, 0.08033045089768, 0.27474361952632, -0.08744716049275, -0.24285750750468, 0.2512888601915, 0.06574620380354, -0.03013770313572, -0.04644703665042, -0.15945596314868, 0.20832154032619, -0.16860582576605, -0.28035147353544, -0.1990295127281, -0.11422388511188, 0.14029923806037, -0.28810445622088, -0.1164040948055, 0.01034071412061, 0.21418796178936, 0.18434915641994]
[0.08057904021782, -0.12289334761756, 0.06491930616376, 0.02748305167962, 0.29879287959354, 0.02591571542136, -0.17176797719055, 0.13857701225827, 0.24009619595223, 0.11767546694902, -0.10441693649423, 0.12453914136638, -0.27553551967739, 0.2262000301151, 0.28542510240223, 0.27526927810512, 0.20108263868385, 0.0196937832068, -0.19078812027299, -0.25804077724604, -0.22020350309364, -0.20198242252179, 0.19145811514525, 0.23612349704887, -0.1072817912808, 0.00880083623242, -0.00052116071989, -0.26871592847923, 0.16890464854202, -0.24352956978755, -0.28194100852533, 0.20787260585521]
[-0.16806370743378, 0.21280222133842, 0.16930731919234, -0.02539676671228, -0.15194495098777, 0.23798876825676, 0.09124736605169, -0.18120754788826, 0.12144991301607, 0.11299579345081, 0.09781092673238, -0.03622816909631, 0.16847439462127, 0.02135326696411, -0.28110432748866, 0.12333026698549, -0.25651622253964, -0.04548445293416, -0.17801405180933, -0.0532844443529, -0.09009920980177, 0.1221056296656, -0.17067979818962, 0.15135966841986, -0.20440440053399, 0.00786402780419, 0.10577822071378, 0.09661741026129, 0.12544363293185, -0.14416059777352, 0.07676331160192, 0.00844404355899]
[0.16262300243278, -0.24646275673409, 0.04695401618731, -0.142500264013, -0.21477669102703, 0.1198187987746, 0.13741438032256, -0.20246840755374, 0.02230555132011, 0.21133831566518, 0.15494494115496, 0.07200942789916, 0.09948002928404, 0.07697089849089, 0.13744654235721, 0.24307657800296, -0.12220797546897, 0.10104472488859, -0.0992816481861, 0.18152715525553, 0.11783791842257, -0.29187190436587, -0.27233837360962, -0.18835152192566, -0.2029196734468, -0.16518796457453, 0.26529964127154, 0.14393735083826, -0.20901849250611, 0.2553885975904, -0.119713869898, 0.11782436016459]
[-0.25623986067664, 0.18044539252762, -0.02720697017939, -0.16592760621753, -0.14275939495094, 0.14616021607147, 0.23445571432391, 0.22560895404332, 0.13526537829396, 0.25435223146434, 0.26630709611268, 0.12272626323976, -0.08628892846386, -0.00805413368832, -0.07497559399641, 0.10753479574057, 0.07340826960115, -0.01257992167329, 0.21593067232301, -0.12602868266037, -0.02480657819002, -0.12251537816954, -0.13493541839666, 0.23508095613824, -0.14498373173023, 0.09182646253042, 0.19816260939324, 0.05994342364414, -0.29325284750169, 0.26372524616052, 0.03842730374757, 0.04241506207962]
[0.17578325569338, -0.18664801997586, 0.0253789901411, 0.08915623756882, 0.02592806953041, -0.27653820331062, -0.05919309903271, 0.20522520070684, -0.23597093632749, 0.0445438708307, -0.24287870186309, 0.10147532516047, 0.00131892346149, 0.06806065086382, 0.05170510506412, 0.15329864976061, 0.23079427508229, -0.08082272003574, 0.02290768046307, 0.00763696068258, -0.17490148660748, 0.10942283864901, 0.11725083662002, 0.07656740907525, 0.13998326109467, -0.18299557047104, -0.0144188306145, 0.03695082369068, 0.21378856457667, -0.008613029047, -0.11987963673977, 0.25939114604176]
[-0.17084490394426, -0.03429590444702, 0.11952510001722, -0.2941375797646, 0.06054947065178, -0.24764529295012, -0.22533952801704, -0.13794264551111, -0.07592103302912, -0.17529109823556, -0.12327942898152, -0.23663433725932, -0.22481867171796, -0.20572428524176, 0.2088970725149, 0.20783914959855, 0.01355139668428, -0.17595336965153, -0.14289202884437, -0.27273822921135, -0.20075633850516, -0.29137604610917, -0.09599702166878, -0.15284024196019, 0.02944467690132, -0.09716623219945, -0.01951993535541, 0.06198837675947, 0.17551112309328, 0.01526588440777, 0.07956706465367, 0.00097474773721]
[-0.03794120764566, -0.0040740556048, 0.24653517535643, -0.00760990942211, -0.14329268343819, 0.13477188788788, 0.05860663590691, -0.27540648544927, -0.13292797835486, 0.21078302756861, -0.205286141626, 0.08374469941237, -0.03683730853161, 0.00356610009109, 0.16810048851055, 0.27991212945571, 0.23891236970062, 0.27788954733188, 0.28381994756569, -0.16259436909557, 0.20351838506645, 0.21468270105995, 0.05736881188569, 0.1748948358099, -0.07552359712635, 0.27422168849432, -0.1946283756702, 0.21540447906201, -0.11192379889443, 0.05379184670124, -0.22910917716776, 0.09050061312561]
[0.1567839301782, -0.15542446945608, -0.03521740854198, 0.26473621713789, -0.24383328569931, -0.26904626784211, -0.01619898258611, -0.15655257644374, 0.1316200394446, -0.26292268354962, 0.20442949715779, -0.00046927591694, -0.08594261995938, -0.10400209936368, 0.11315968981552, -0.24350202595218, 0.1408714346056, 0.2825325330762, -0.06900702683511, -0.10203256172223, -0.1405650607242, 0.10460117904506, 0.29151373264879, 0.29441070341782, -0.09538170177666, -0.12360638154487, 0.12019915132409, -0.01490294407612, 0.08449479584423, 0.08614613758643, 0.1531069929368, -0.17733955053297]
[0.23268401563074, -0.15850944884607, 0.00896403798752, -0.15927138303222, -0.00384616736012, -0.14191988458807, -0.08870387294004, 0.1026075658816, -0.07259742821188, 0.07969472117449, 0.00749186541704, -0.077712729196, -0.22443804239546, 0.18454332787998, 0.04073149051059, 0.26971645975253, 0.25706289943397, 0.19103072860262, 0.24728449261723, -0.11722411586399, -0.21340534497713, 0.15855129825895, 0.29999414583846, -0.06176554504861, 0.26795977180027, 0.24136752067061, -0.23179447169058, -0.1924169142278, -0.22816430678665, 0.08725557757123, -0.10749433579279, 0.12831936491335]
[-0.06602589897078, 0.050938280283, -0.2753264418749, -0.1718317809219, 0.07612945273778, 0.16808078924806, 0.13753265729596, 0.13662239669828, -0.05172334689505, 0.11487960292358, -0.18637175720948, 0.18018142107419, 0.08291934609665, 0.07405622326384, -0.27219988694283, 0.01921392840931, 0.13752502569436, -0.11240005207109, -0.07683552228491, 0.13504919940303, -0.06927290284006, -0.20596472187315, 0.09642423729245, 0.18299003334153, 0.23025342716705, 0.21297084802552, -0.27489665140969, -0.17638636726459, 0.22681710965475, 0.10928951038048, -0.041961032634, 0.09672746609036]
[-0.21032556066414, -0.25349710836443, 0.04570343811435, -0.12458010439412, -0.27579965300119, 0.12615057411732, 0.0260006573016, 0.15346801748907, -0.219841471576, 0.18678079834546, 0.11408447820947, 0.16709882680461, 0.06751597064962, 0.0180498440961, 0.10302531301773, 0.20211775021065, -0.02322143366939, -0.24031436352511, 0.29147812609978, -0.01149509058926, 0.03809291808297, 0.00905419311527, -0.15545755746001, 0.04568571748367, 0.1705775025246, 0.27937035873835, -0.205830090746, -0.20438756709021, -0.23312629504748, -0.23235128544301, 0.2490594654847, -0.09080180212189]
[0.21961108347712, 0.04084523633898, -0.23275061628023, -0.21354593914366, -0.00290118529217, -0.14949445954704, 0.11086398068645, -0.17820374133034, 0.22199272712782, 0.19996717427635, 0.23273747520755, -0.18177805302976, 0.02275272931841, -0.08368864899861, 0.11148714191796, -0.26762657241749, 0.08230935654794, -0.07023922890343, 0.22480196823984, 0.17040393255339, 0.13679153335076, -0.05847197061392, -0.17407003811788, -0.2851767178519, 0.17715736948605, -0.27995682957045, -0.15494675142508, -0.04987669823223, -0.22823321027035, 0.05419245500094, 0.30856541131376, -0.28928670327996]
[-0.05666475406234, 0.19904659415945, -0.06754775186849, 0.02897765417204, -0.08988742725843, 0.15859618498592, -0.04936416662112, 0.25383473627804, 0.06927780189386, -0.23388211885744, 0.17957532804973, 0.05758216026596, 0.09011747095123, -0.00933695411957, -0.08898414073683, 0.11047872979699, 0.02774917577519, 0.23972434718067, 0.08623910840901, -0.09247805286648, -0.13973651393326, -0.28892514578869, 0.14948864376147, 0.11326637838435, 0.0520355167262, 0.28853421501158, 0.21639852364086, 0.19411843624189, -0.11816042613021, 0.00178483249291, 0.16905241873412, -0.22018395992658]
[0.17991616434762, 0.03283129695606, 0.11647936644282, -0.2843740294138, -0.23979520964245, 0.23431826753446, 0.21075727375348, -0.18514883985842, 0.05322871089546, -0.11692112869907, 0.00808688625689, 0.16011752488667, 0.2279399934611, 0.2923412636295, -0.12474813923867, -0.07243518856367, -0.08628019566217, 0.21839603945719, -0.11292726050443, 0.21239421315307, -0.12512188836174, -0.15639437293767, -0.00694288867053, 0.29276401032426, 0.28626458797262, -0.15573591869952, 0.22841606467064, -0.01886154259175, -0.1973849083345, 0.1228414421671, -0.06278147040636, 0.26503023767403]
[0.02096039444443, 0.2697725370924, 0.07258918019407, -0.20803921117341, -0.13457293411614, -0.05191892664412, -0.14898114024918, -0.16187063627817, -0.26770245050287, -0.28594150605057, -0.05770275433181, -0.12295378999209, 0.22406249639778, 0.06395954332353, -0.00204463869384, 0.07828219610793, -0.27865370196052, -0.02432153105652, 0.04875301754123, -0.26167887862667, -0.22016730314814, -0.29295120171947, 0.1214594518902, 0.22978360311919, 0.00216276464553, 0.21162089361463, -0.16433317188531, -0.18459078280687, 0.12211662742237, 0.27831254064081, 0.17429623339977, 0.291018136801]
[-0.03693472152579, 0.08570102337261, 0.11839793906818, -0.08696294058088, -0.0398393491726, -0.01016856087754, 0.07722414268673, -0.11367534566871, 0.21190007306166, 0.0035987008155, 0.00914264757683, 0.15784658946018, 0.13468633999195, 0.01010628911897, 0.28215348033146, -0.23054239423426, -0.06009889217874, -0.27007488629179, 0.12509251368575, -0.24607010405971, 0.01541360795228, 0.16599611439238, 0.09535357899011, -0.23697134630614, 0.18252350225695, 0.15303752448369, 0.13755847129651, 0.14373316992269, -0.04739859258639, -0.12745544234075, 0.08869795288734, 0.107980720067]
[-0.23588395655577, -0.03406370957853, 0.12696860009837, -0.07457090402688, -0.17932371356703, -0.14917547636883, -0.28386547005238, -0.13102891580898, -0.15457602723811, -0.28794806286053, -0.19251415930203, 0.19279914175071, 0.22720114184349, -0.22192353356405, 0.2884993274883, -0.00938533487476, 0.06268316448442, -0.15647551359729, -0.2366900772557, -0.11700544483342, 0.05071174580222, 0.00212203254744, -0.24610846793738, 0.04464084400842, -0.07596047642954, -0.18035942594036, -0.17179662497843, 0.11116632785543, 0.05768774944119, -0.11251062865505, 0.23598588671007, 0.20971037056109]
[0.25086447770102, -0.22531674232591, 0.08824459262245, -0.06829683762243, 0.08511349258644, 0.20200328647537, 0.07354273131009, -0.23340106315384, -0.06213136145843, -0.26283150868475, -0.10062426836262, -0.12728087062106, -0.17505130745113, 0.00061384360807, -0.07759446612346, -0.27873994459382, -0.10969779069791, 0.2403752519317, 0.23966743597327, 0.17311798581575, 0.23877539099583, 0.08973677292167, -0.09239143931757, -0.00128869916324, 0.06076945366366, -0.18143265371562, -0.28553073373447, -0.01398793350825, -0.17732030522441, -0.16298278589715, 0.11970069361536, 0.06926093909312]
[0.05089883732625, -0.28025583029928, 0.10234925606956, -0.27230075788153, -0.1698173860709, -0.02074494710322, -0.08905559170043, 0.25047348721027, -0.24772709048912, -0.21035908713075, 0.2478406921019, 0.11197318751315, -0.04563173482227, 0.25669122441065, -0.25808596104457, -0.01162624048673, -0.03115849923838, 0.18713610029897, -0.06884516692936, -0.042062498901, 0.17005479327436, 0.0303960162415, -0.18420000155537, 0.0734608544375, 0.01830590720837, -0.19656072661628, 0.18646764889948, -0.02186299656599, -0.17496514876104, 0.02039479975883, -0.28339154951401, 0.12417594298606]
[0.27765061203202, -0.01631674821779, 0.0811312514277, -0.17840816331314, 0.20075143566179, 0.00167306084235, -0.16600062829466, 0.1181279735087, -0.04874666121537, -0.10803157129977, -0.07776096125708, 0.26536351997832, -0.20199537073034, 0.09019650905087, 0.24606276417729, 0.10445942040499, 0.25826644945013, 0.22578549583353, -0.09033515809025, -0.19932195220462, -0.1815008144046, -0.13316710949467, 0.05864671965145, 0.18759981391182, 0.14384529029207, -0.0906970587188, 0.21938662092167, 0.00018783578235, -0.2577128085864, 0.0450525813602, 0.24620840804176, -0.21788105433811]
[0.03580861164233, 0.03272453663472, 0.16348359375311, 0.07813422333335, 0.25319727351587, -0.02083250663663, -0.21904739954751, -0.15552798607112, 0.25458056298232, -0.15437823101989, -0.04773770441906, 0.21934979847652, 0.04861678239934, 0.01985113748947, -0.13381254481221, 0.16524250984053, -0.03527542589885, -0.20476005061149, 0.0019926940485, 0.05418186169514, 0.10153282155331, 0.11824815865677, -0.14945104533882, -0.16959384079018, 0.17897896746092, -0.09464585974074, -0.28222160530652, 0.12009158410384, -0.0582910780984, -0.19870436932849, -0.07240989370922, -0.22208872608383]
[-0.244503094133, 0.26769583618936, 0.13008970402803, 0.01301910004998, 0.04860445125996, 0.14918284382273, 0.25950281407989, -0.2073850351981, 0.12847860929516, -0.06051579174533, -0.19453372491943, -0.22057727710696, 0.19972344370814, 0.20322317554339, -0.23625824973107, 0.0408945920211, -0.06890186246626, 0.29003222387679, 0.01767584622673, 0.00554263484624, 0.09948319359508, 0.04050251405927, -0.27296790326342, 0.03161701970299, -0.02405394143874, 0.02627233470334, -0.03053676644063, 0.0353003318582, -0.26177977024011, -0.15068196037611, -0.06184617988237, 0.0354366006083]
[0.2877264243474, -0.05673582781751, 0.10690305914199, 0.27691857991165, -0.20995085762279, 0.21351843185894, -0.23342165774828, -0.24354021421586, -0.15199734303317, 0.00388415862179, 0.0863796630386, -0.19027559571854, -0.16293238013284, 0.07910475513274, -0.08761812625591, 0.17175186039852, -0.0709512340729, -0.13541893681395, 0.05864319153256, 0.1117798687949, 0.22129381411286, 0.10701018459079, -0.16301382306479, -0.25104501208274, 0.23745222363682, 0.03074162109159, 0.0993103811115, 0.07523374681171, 0.22452598015008, 0.20378166064729, -0.19047684006505, -0.11209726850634]
[0.02463118555268, -0.28039135174674, 0.11982805251008, 0.11540491219574, 0.14914114011473, -0.0443365041978, -0.23464327942401, -0.10376988332561, -0.16182593224852, 0.27028307574283, -0.24850228631244, -0.29061684712217, -0.29471958285757, 0.25015938911922, -0.16609577551306, 0.08888757524962, -0.16688771128659, -0.23457484716898, -0.01479057646243, -0.22059951588286, 0.281042066898, -0.19058303879915, -0.01110732905088, -0.12220961998298, -0.00143644235428, 0.03136092537123, 0.05151043842194, -0.10285616006714, 0.25968917729475, -0.24502951985557, -0.08671446429198, -0.24970582486011]
[0.05593526274243, -0.05909360436596, 0.09849844371251, 0.10904353926372, 0.15634750975194, 0.02605243015252, -0.25063695443957, 0.26138558863411, -0.2871554336162, 0.10668331596257, -0.08835911000685, 0.07754787552826, 0.18752494229191, 0.02446656336688, 0.02402222472357, 0.20528368117128, 0.19899271622432, -0.06184427135675, 0.23143172275391, 0.22484831337633, 0.10284585313814, 0.22237733538442, 0.17388888629452, -0.18160650564173, 0.02000246245605, 0.09752516643669, -0.13537826587116, -0.12314895288743, -0.17226941971817, -0.21513220449341, -0.19672049476593, 0.29171754816471]
[0.25332262567309, -0.13424578990933, -0.14386804532971, -0.26676373109665, 0.28622014549624, 0.015817409318, -0.10919976075021, -0.26398816058373, -0.005207964912, -0.02406377841956, -0.22594355185988, 0.2117662509008, -0.25336160473949, -0.075780349695, 0.15534968245445, -0.19474842280491, -0.19152075376142, 0.22463715580704, 0.25372991559684, 0.21489542438291, -0.13879802693759, 0.13000544004909, -0.25452833367954, -0.02874605674319, 0.04570034375623, 0.14981602770375, -0.16018293503856, -0.21118200775187, -0.17241584851509, -0.17166336922578, -0.26913257554396, -0.1598181985743]
[0.08145174697173, -0.00803282201045, -0.2239386607694, -0.0884086436621, 0.12971519652003, 0.02581007292084, -0.27727102388457, 0.26685749050858, -0.24606273854181, -0.27246555852728, -0.24994265216478, 0.22388107528602, 0.03868954320221, -0.19980558384427, -0.19885252193859, -0.25851055858572, 0.05397905060539, 0.14504080330053, 0.1813172731098, -0.08501302198975, 0.1044479452529, 0.00899768877842, 0.24353229175737, 0.24059272639656, -0.06379189213811, -0.09680488768279, 0.24413752798746, 0.08785617111172, -0.28306264257841, -0.13947583750914, -0.14477299011416, 0.19187560422979]
[0.21966459173172, -0.25954356357549, 0.25388810908431, -0.22797476163159, 0.21946553426152, -0.16256578852191, 0.07091802874827, 0.18405924922969, -0.08667624218311, 0.2948697380886, 0.11326000042934, -0.17028256201724, -0.03292824181707, 0.20385252451011, -0.18561102227972, 0.20742623119712, -0.17738872297216, -0.17528208141679, 0.21894111874578, -0.15988072981548, 0.24247829442268, -0.12866230573089, 0.00277967237035, 0.23323997482858, -0.14402709664784, 0.00891751839619, 0.03539739732034, -0.04512053078144, 0.26618266937535, 0.08117984793537, -0.19310803363032, 0.21882898982192]
[0.22142978590935, -0.0432109789224, 0.28311250479616, -0.00317875628909, -0.21949125718094, -0.04882123778191, -0.16709607742767, -0.22092675213727, -0.06061937887726, 0.15961332980825, -0.05580717682141, -0.11959325869748, -0.17584364481638, -0.29102423793506, -0.23976601612701, -0.11258192706853, -0.01458840719174, 0.05332134696745, 0.22843922624949, 0.03618077815714, -0.19048319592415, -0.1928256626366, 0.10179764233234, 0.03649273332078, 0.13504797862845, -0.18594890696305, -0.15912325811575, -0.22398627641439, -0.18200892851513, -0.0878974453221, -0.23222117513546, 0.29018265554951]
[0.21036238388604, 0.13482877785227, 0.19454419736263, -0.03592382295228, 0.03317926797295, -0.15908518674539, 0.2183828531533, 0.11715125591368, 0.28574896253564, -0.12118987206614, -0.11414402206012, 0.25111768125449, -0.19789001513422, -0.00950984298525, 0.03950914040804, -0.04694212268642, 0.05558494991571, -0.09913365290305, -0.17378834034454, -0.15570107615729, -0.18875528454911, -0.23564766076629, 0.12826900212133, 0.09108307866788, -0.24680897448017, -0.07966865668205, 0.15586364997448, -0.22923155862023, -0.13758168597682, -0.0237697218082, 0.14752717027078, 0.22410567238494]
[0.26583380376179, 0.10037811718695, -0.10264519672564, 0.22913542887442, 0.09834701903008, -0.2535390502396, 0.16257658093944, 0.19700488576595, 0.01545403203053, -0.14520054743723, -0.20991338028389, -0.19519640310622, 0.23309349185324, -0.0729459601953, -0.21269977826915, -0.22901235759353, 0.23657683481163, 0.29334096317799, -0.09891531206807, 0.22996563282, -0.17209421541697, -0.0316790967165, 0.12574022317746, 0.22113369180912, 0.04103173148732, 0.02279570198865, 0.21620791928219, 0.19728322081796, 0.0424238602893, 0.21790923968998, 0.19242761355955, 0.1842639022843]
[0.0849067004995, 0.15679668148128, -0.0419042353905, 0.09839492334881, 0.2013897664907, 0.23679069571753, -0.00821648296544, 0.19127118225235, 0.20374307379577, -0.00816656064765, 0.28042402059376, -0.12783781312367, 0.03192850453991, 0.15269208056367, 0.17167237932463, -0.01437990830813, -0.13646480644026, -0.13486368973642, 0.22023977825473, 0.02854748324328, 0.00780856063784, 0.19270034894233, -0.00259560135335, 0.15192133736915, -0.00213654028013, -0.06856206402229, 0.02997585308393, 0.06024403604677, 0.10298563153863, 0.14780706848083, -0.24422376471401, 0.12374778997943]

[0.29421576217236, 0.04505255608572, 0.13515417951552, -0.20778217719402, 0.10946719506361, -0.02604848317538, -0.06869036383076, 0.26711901529795, -0.0503160983634, -0.27313083737177, 0.14762013696826, -0.16684424161283, 0.05807034266276, 0.20100111117185, 0.20816860332922, 0.0149596783737, -0.09183365029872, -0.12191747979591, -0.09876614542398, 0.13118799265644, 0.29265978818382, -0.1860282521192, 0.10476853746588, -0.00226086807603, -0.15913890951701, -0.22038942444878, -0.08671143392011, -0.26285787406779, 0.24309928973271, 0.18231150430732, 0.0298251321713, 0.2587384228498]
[-0.23074785079976, -0.26928283919616, 0.21393775042146, -0.18355432077621, -0.25235839133753, 0.27192314902461, -0.14356833472926, -0.13153018604789, -0.23006276459733, -0.1875885722674, 0.11730044517052, 0.19842929191222, 0.12738885544739, -0.00392855883035, 0.08026876686887, 0.03869237487752, 0.14268201139746, -0.10182712561879, 0.14687895445078, 0.23223720367063, 0.14726037135007, 0.21188317911472, -0.24666746969724, 0.08226787699287, 0.20088269756677, 0.22417280272912, 0.02287765960015, -0.21957812466193, -0.14729224507828, -0.24106357384332, -0.03240035590335, -0.24640093242236]
[0.12120759914348, -0.18160871471276, -0.10352621871632, -0.06684160315939, 0.10417043756481, 0.16822799130702, 0.11377390994125, 0.23012831200385, 0.1568290674875, -0.16233616742917, 0.11593886060596, 0.30358992057283, -0.23367330741516, 0.1030135247696, -0.15224894288646, 0.28730010970706, 0.12160380446146, -0.28824036739567, 0.06360280168905, 0.02056264669414, -0.16872206003759, -0.28442407940921, 0.12084798351999, 0.12329164254963, -0.0699457925615, -0.01057141573512, -0.22762096222506, 0.22342753345496, -0.06346798423885, -0.07080221148491, 0.29942850531652, 0.09440421745806]
[-0.21130226830902, -0.00314327459252, 0.26827148432511, 0.15738571816901, -0.18834639245509, 0.18289266996169, -0.0241018320341, 0.25966995609699, -0.00486178334205, -0.24145446408829, 0.07001549500209, -0.24271242105295, -0.25034638313323, -0.07418519855603, 0.22017753835668, -0.28348722384718, 0.20926626556676, 0.16644958482492, 0.13649167113408, -0.00268974168441, 0.02939256713966, 0.28434413769683, 0.0856367238337, 0.22820900143192, -0.25126237665148, 0.19918777554149, 0.272745473497, 0.07262836640971, -0.12501983957873, 0.07886449185718, -0.25859203214389, 0.11623680362204]
[0.0508335551416, 0.14753362449318, -0.05396400032471, -0.28915042569627, 0.01060312257711, -0.14702658066755, 0.09157398982541, -0.25843628694157, -0.08807239757024, -0.20751860726964, 0.28109120185632, 0.03928954831258, 0.17049768563843, -0.17022544754287, -0.15426935609699, 0.27679338260479, -0.19149099638067, 0.02943441531235, -0.05454631135981, -0.25290848442541, 0.27308809418527, -0.18406558028493, 0.09019011459015, 0.02063893539139, 0.28065394302078, 0.26781720653222, -0.28069127763738, -0.10561551478489, -0.29962683409557, -0.15677478836412, -0.27426624386369, 0.19675214833421]
[-0.18546200137722, 0.2509019584172, -0.01833234567748, 0.02310740570789, -0.19654970153616, -0.05224980140205, 0.11116479548468, -0.20174405679123, 0.16181022648756, 0.15152504432251, 0.30244661031704, 0.12968810038847, 0.16707026890733, -0.2171333811139, 0.22488604116227, -0.02046520302839, 0.26455970929044, 0.30562964832956, -0.11778292529297, 0.22933473249938, -0.1383832741134, -0.11920178113755, -0.22081047160514, 0.28292257649309, -0.27803541288026, 0.26920695207137, 0.03343634658852, 0.06660767263417, -0.03547376994443, 0.06899691194905, 0.30178777355198, 0.02831327239061]
[0.05939071774883, -0.09786130600004, 0.19235790284067, 0.07209196441005, 0.04208713823168, 0.29573662819576, 0.23282228925941, 0.26375081963511, -0.16859283178734, 0.1602199958616, -0.20389208134172, 0.18548702213879, -0.23475722845527, -0.18183712132227, 0.025714028122, 0.03820687803037, -0.00356120104938, -0.29327669736267, -0.22088167504729, 0.00461524741249, -0.21776332667849, -0.30273207792651, -0.25724764672538, 0.20195537440808, 0.12945310946677, 0.03565026037679, 0.22874255877665, -0.02916421374206, 0.0273759485937, 0.10655608950853, -0.25798976216699, 0.08872956488688]
[-0.22676720717711, 0.19685858348876, -0.22564676789914, 0.01736262513951, 0.17937891299766, 0.25283719935474, -0.20660955771629, 0.2087268745737, -0.02949708670516, -0.07283316055662, -0.20226467987062, -0.24134118221679, -0.05252413779556, -0.18869117568555, -0.06537380795797, 0.28922893865882, 0.03148724101733, -0.02758251353281, 0.2075930387534, -0.24991476083658, -0.0191164597225, 0.08434403070122, -0.28581272874789, 0.16385743120017, -0.18417757466702, 0.26934913224709, -0.29090320856079, -0.20531478327222, 0.02240130953885, -0.21247102526345, -0.26930143007035, -0.23228347609107]
[0.23630430951457, 0.00285869733841, 0.04858119420233, 0.12259673001296, -0.01219950026259, 0.22349329329082, 0.27588360394787, -0.0854106064053, 0.30065496059068, 0.00932137683093, -0.27470590025906, 0.02576858449842, -0.03075275957085, -0.0214739673827, 0.0609899750172, -0.04706958037717, 0.29052075133009, 0.11523446223727, -0.21150074775085, -0.11668789692276, 0.16513672746689, 0.22917756721339, -0.15893871715161, 0.2292107064581, 0.05264171391199, -0.06397579836145, 0.11370739727408, 0.07828447172152, -0.15721869900017, -0.04859672690141, -0.26406763504754, 0.12751247122507]
[0.0051250965104, -0.05221229120464, -0.15681632933679, 0.25437750789653, 0.20847867018777, 0.18450248123049, -0.14071444397872, 0.0005774142503, -0.24187589046601, -0.26231472351432, 0.21395471203104, -0.00556652232961, 0.06349391620565, -0.15978879995801, -0.14674251867572, 0.02866670599155, -0.05518757582969, -0.24233109841975, -0.01032321401591, -0.24066596588853, -0.13912231282003, 0.06577892653986, -0.07072105755758, -0.11128051701497, -0.17622217123882, -0.05393138340403, -0.10688959663069, 0.08754294896657, 0.27495443382013, 0.22879078782099, 0.30506705795719, 0.20500019869472]
[0.24065943792234, -0.15637018674959, -0.18985370764411, 0.00286844634381, -0.1971293473946, -0.29386981021009, -0.13543643335933, 0.04847971717287, -0.13128756192617, -0.22027373732369, -0.03966795018752, 0.14177321618732, 0.00512354110059, 0.08842274844884, 0.15281805677201, -0.11925884618524, -0.14147598634447, -0.04562026205455, 0.13042150551714, 0.06226590775051, 0.20879620779708, 0.11353201082797, -0.02710086304562, 0.27499750158525, -0.29796257486561, 0.16843712648333, -0.07600544248649, 0.29580806090175, 0.06191706835927, -0.15285310232013, 0.21360323241358, 0.16150419524084]
[-0.29034745961393, -0.30291054303946, -0.15666062715943, 0.10065338991443, 0.09310869501805, -0.24638813199889, -0.25803195504821, -0.30394413677999, 0.09942080402123, 0.20222095578919, 0.20929892606166, -0.29331763026029, -0.0687119786651, 0.1002247583643, 0.1267459427531, -0.17710053168633, -0.0930489911903, 0.01338204820063, 0.2758866326014, 0.17167857936572, 0.19620553545741, 0.07044463238681, 0.04620794103501, -0.06552134882387, 0.10112019982828, -0.22460135252512, 0.12022479833357, -0.23103494533068, -0.08746590902934, 0.08070305678829, 0.10179666384341, -0.22597039657652]
[-0.29760566325356, 0.22286076797179, -0.15059575124459, -0.01931652743182, -0.1554971376667, -0.045876157267, -0.03555491629216, -0.12559517636505, -0.10056293211486, 0.06180265505355, -0.23757852208472, -0.15739959788869, 0.03916224906719, 0.28296412968195, -0.23176588308999, -0.04692224656799, 0.10836996954509, -0.03522086066312, -0.30578350809006, 0.08768674987663, 0.07200439968634, -0.18619271957897, -0.07917079829674, -0.22330958423463, -0.15921021823135, -0.14958541667959, 0.02033019742031, -0.29772608626657, -0.16728967629667, 0.11582347220345, 0.22988225526223, 0.2952749664954]
[0.26387818751271, 0.19480821396259, -0.06328487841643, -0.1276759036131, 0.27390369203252, 0.29670444190333, 0.01129534316511, 0.08870185130383, 0.05536146755847, -0.26918805920202, 0.09753955169552, 0.25486841904424, 0.00690993043291, 0.12756634426123, -0.26623004769282, -0.02322306684127, 0.12984375277531, 0.10097437597702, 0.24680668079114, 0.09492384957441, 0.13136986452544, -0.23449209953766, -0.18050654507438, -0.10418098650385, 0.19457531675695, 0.04577370856276, -0.24935147913251, 0.05565050355953, -0.26533605778616, 0.27810591736454, 0.03163713862761, -0.10572302929401]
[0.07072466797533, -0.273144330445, 0.10603866411664, 0.17995836297926, -0.03215076011195, -0.16845365412701, 0.25946563738394, 0.21687577696697, -0.272160842615, -0.11623188348443, 0.07889414554057, -0.30309324468785, -0.11930529518009, -0.19127018630637, 0.13197773226208, -0.20364088135559, -0.24811190972457, 0.17464670699173, 0.00750754893156, 0.20621197578314, -0.25505776491326, -0.17792907725191, 0.10989135010083, 0.18704227808709, -0.10661743944962, -0.1255106313913, -0.13946112921099, 0.10931024900012, -0.27011149951745, 0.17015817588854, -0.25301476447109, 0.22421919602885]
[-0.12824940856184, -0.11761839400325, 0.13829374780305, 0.13325448896694, 0.18284551427114, 0.02830677450437, 0.03001933957013, -0.10825499339213, -0.1877860985755, -0.21676985475838, -0.21133754491077, 0.23744093660974, -0.08442678145766, 0.07047899651188, -0.17425823111709, 0.28148728384092, 0.18862743576565, -0.00973584157531, -0.07965873174654, 0.07977022261488, 0.22491926702902, 0.07468205535231, 0.0227808749562, -0.17750692075727, -0.29611108582014, -0.29619318898244, -0.28269595291909, 0.24035297752333, 0.23426637935208, 0.29649231652522, -0.29131550846537, 0.17543704322518]
[0.22963561382447, -0.21545305780554, 0.02525522137781, 0.2229315456084, -0.00981310878995, 0.15671353363283, -0.29779037057859, -0.25146965686335, -0.30308880425293, 0.18013552541277, 0.30224560541422, 0.0065869157965, 0.26299472138481, -0.0964763284518, 0.2865915145713, -0.08407097549504, -0.00415669952069, -0.24312611857749, 0.05675305166174, -0.24890340098623, -0.05130367267258, -0.28645051531659, -0.12240497486844, -0.01230766643495, -0.04416120260192, -0.0782078403677, -0.26225857595136, 0.2581805610147, 0.17270615262608, -0.20149052502987, 0.02220278039399, -0.03928593508575]
[0.04319747346403, -0.23709568194464, 0.0270711511692, 0.13005635266635, -0.08233983139146, 0.07289704462892, 0.1045942413204, -0.1774627005697, -0.12525762639996, -0.07021548510409, 0.06638959157863, 0.1157541075338, 0.14568514511883, -0.26676420603352, 0.02160527017063, -0.14159028142291, -0.19753310041515, 0.16978916571724, -0.02390766109221, -0.26953624590816, -0.24973690370999, -0.07468586638325, -0.17659544856641, 0.04343938823505, 0.24059527744747, 0.02512068614893, 0.22608597610289, 0.19953071923031, -0.03695021494817, 0.19657258431752, 0.26791993436397, 0.13832074730586]
[0.29734749581241, 0.00022203389243, -0.02698434291449, 0.22162506293723, 0.01803393245843, 0.30378213665388, -0.28497825916796, -0.09743103156911, -0.11226056947729, -0.18598148777769, 0.16368012648377, 0.06967243408238, -0.27634841164951, 0.27223181693056, 0.09299232187689, -0.29806916867084, -0.19144022765607, 0.12496716219591, -0.01767016663566, 0.29329225490231, -0.08635473695875, 0.27669681790737, -0.1596583711276, 0.25665460933459, -0.21935709403512, -0.01509956922928, 0.22321068865712, -0.05390486096544, 0.10646045361625, -0.24474818332761, 0.13253153552543, 0.30282580550644]
[-0.171872285145, 0.20725852338141, 0.16736017104447, 0.16844977499362, 0.01748472108802, 0.29624085074435, -0.24708024905987, 0.05140173317503, 0.09969106053777, 0.18377440656594, -0.23602812378744, 0.10019656375669, 0.28390219020975, 0.281545075475, -0.03723241312118, -0.27024110971463, 0.22379041934954, 0.05129709002116, 0.25423970056852, 0.20098771769909, 0.19329334122491, -0.05226070986255, -0.16638069416081, -0.06387460667877, 0.03413295569903, 0.13777724567434, -0.09564544567871, 0.002132308648, 0.26611800702837, 0.01464426751081, 0.0396017340709, 0.27092905718581]
[0.08404717773593, -0.18931725818224, -0.27134582985619, -0.0684407592246, 0.17979721139623, -0.05394730762088, -0.20834641729716, -0.30491094714906, 0.28260705413718, -0.14106520609173, 0.01450796072569, -0.2707941167885, -0.22677145893597, -0.14444047345161, 0.18472404360851, 0.01858830154513, 0.09298078567987, 0.0528943999997, 0.10628575772003, 0.20611687560531, 0.0603288503384, -0.18108101813145, 0.05190528390658, -0.22242958776574, -0.22379691182376, 0.18041340558497, 0.1880323318387, 0.04997348127741, 0.24318924716862, -0.09508104261584, 0.19649331564987, 0.14130322897704]
[0.19822012472935, 0.28106292075652, 0.0349581444649, -0.09303386485663, 0.25836279387255, -0.06347263699607, 0.09394866463967, 0.02890655318879, -0.04961574422237, -0.06411469863588, -0.2710860573921, -0.02283108242409, 0.10196655380853, 0.29058000920859, -0.23430032290004, -0.20959482026653, -0.05295594961368, 0.29380151456611, -0.22258417115608, -0.16629890827854, 0.08102931006932, -0.27379348302246, 0.13654173743754, -0.17559493289924, -0.18303048754285, 0.20014820860896, 0.09921062709316, -0.12533247997964, -0.16157439174435, 0.2253284433888, -0.24849862547535, -0.09265805124767]
[0.10215037446329, -0.10013821742795, 0.18205387765711, -0.15241454238695, -0.18103519064131, -0.04394143506526, 0.07877776529311, -0.22982776853254, 0.05850819573424, -0.17830141693798, -0.27722660261632, 0.0065121519594, -0.03641324918494, 0.07146440605919, -0.16766667813746, -0.22194227550267, 0.00510648288323, 0.10946197351609, 0.2927190988878, -0.09763547048282, 0.12430090023827, -0.01227305429676, 0.00857750129814, 0.10971139472901, 0.08430603980211, -0.0462053928328, 0.02714309742828, 0.25848432373642, 0.06386320453522, 0.29989238144496, -0.28469992515877, 0.26767476523628]
[0.15302252548704, 0.19242476991476, 0.23858670515676, 0.02877907545788, -0.24405245700821, -0.0187874147022, 0.04968485644575, 0.21648828537213, -0.30373568130966, 0.02074113837955, -0.21602744590373, -0.20728887695516, -0.10475437605176, -0.15201212733553, -0.15336526913671, 0.07963892657049, 0.07745426182406, -0.16102008351287, -0.1896191069502, 0.22794802348699, 0.15656791418681, 0.29656307471635, -0.0801687185117, -0.00231268003258, -0.00443603295104, 0.05259484929112, -0.20088342352799, 0.1087061436213, -0.12885395135215, -0.29690701112269, 0.20739391673004, 0.29427194016846]
[-0.24365298478153, 0.18947046122205, -0.23546551546166, -0.28177469063947, 0.210163785507, 0.01926461062263, 0.184803626317, 0.26875668136357, 0.22932321148307, -0.07334510336505, 0.27076716923895, 0.29723123056256, 0.12576902275691, 0.14620815385688, -0.05068259343238, -0.02835359598022, -0.06191273520579, -0.18302556477238, -0.17078908373884, -0.06637189769294, -0.33646032135862, -0.04715640969188, 0.12263622869004, -0.15202304137544, -0.01331516355753, -0.05272291753486, 0.10297631123805, 0.07573568695034, 0.21326566227346, -0.13932315376071, -0.24330262914077, -0.22242156665675]
[-0.02089844878537, 0.07913875245922, -0.17240652720617, -0.2518103071839, 0.26928258928801, -0.00972620275822, -0.26783845605525, -0.00856403339659, 0.23781788596501, -0.06825151043302, 0.00924328309836, -0.1360058065976, -0.29298577014111, -0.1098099485121, -0.06244185013245, 0.21270559592093, -0.1066637296253, 0.14669023874467, 0.03089414277302, 0.24349055800312, 0.0672806835493, 0.04836765434851, -0.23112200256007, -0.16890893979887, -0.12117924445466, 0.27515061376467, 0.14818860239867, 0.11278855504686, 0.18160471759304, 0.22742179147401, 0.15611244596957, -0.02577203357387]
[0.11091912666395, 0.21902511034793, 0.11659293145236, 0.25032113519241, 0.2321836709538, -0.03212494423441, -0.05536129743094, 0.22041567061035, -0.18560566465143, 0.01399700765855, -0.05866021530733, -0.19721058588762, -0.23387349639289, 0.18222375358879, -0.28762997267516, -0.19798396678518, -0.15063431241462, -0.23891632259018, 0.29574682915476, 0.21823239165524, -0.13562471070226, -0.26107412553915, -0.2924946497357, -0.2345354869029, -0.27607617845042, 0.19903319846463, 0.08269498903547, -0.29598357699716, -0.07572147991943, -0.20038936819189, 0.28188206566098, 0.2678241928476]
[-0.15742994794005, -0.24756199926876, 0.17924937410839, -0.29010621067807, 0.23719708963234, 0.25655531093907, 0.0483763703656, -0.29093951792054, 0.1681878386404, -0.27211693270167, 0.0354612642368, -0.2326330307675, 0.14553743880177, -0.26988967515996, -0.08833855796772, 0.0409254118415, -0.19845993316178, 0.02287424051202, -0.26501276596155, 0.22367770533515, 0.00647848866504, 0.07991841329341, 0.13074761799216, -0.15759876101726, 0.18083994906465, 0.19782374684623, -0.28873081816746, 0.2472833698637, -0.15184672945744, -0.17200078513261, 0.05597786618025, 0.17089446418766]
[0.2382368879275, 0.25480291942709, 0.23863537972267, -0.16842376218849, 0.13466042186045, -0.30445751496976, 0.23838391998508, -0.02475984436846, -0.21260063797966, 0.00849420379273, 0.20799434608937, -0.25612693971111, -0.10787298926653, 0.0238896321245, -0.06243677496758, -0.24851759682629, 0.05358727036941, -0.04512606712073, -0.20637831062687, 0.02428884793835, -0.28399569129236, -0.12402320836265, -0.24280823011092, -0.17901880549101, -0.17422172563524, 0.27364902342242, 0.14852810515225, 0.1701873270211, -0.00054551904701, 0.02406512462925, -0.19502647312776, -0.25446554840403]
[0.00484362412833, -0.17209814937403, -0.24316666073789, -0.18002576453673, 0.06174272902681, 0.118299748399, 0.16124437525511, 0.20347056934786, -0.06752534651243, -0.14361201706778, -0.12428162315381, 0.10450185999091, 0.17369868405371, -0.02373919047371, 0.17683414264259, 0.01816659658772, 0.07214024752485, 0.05534138586447, -0.07500682131052, 0.19844820245549, 0.00580258212562, -0.01947879134997, 0.28080131278468, -0.29634443749045, 0.15911738540717, 0.22342341312996, 0.14205365549131, -0.18219727021646, 0.06467237348549, 0.25574834375009, 0.30483177203903, -0.19964750567889]
[0.13297775522642, -0.10582991753833, -0.27568908441236, -0.23715605993486, 0.23058508533607, -0.06544466511532, -0.07447672405386, 0.26916526862786, -0.17112652029406, 0.25365138744701, -0.08760923699236, -0.01555369403662, 0.24489086408239, 0.22180989079204, 0.11522835526633, -0.28529850052009, 0.18271841449083, -0.29770940491504, 0.07428211823447, -0.09440362009023, -0.06125222351786, 0.30021963982594, -0.06095368082031, -0.28765315090604, 0.18709868697614, -0.25559063860491, 0.23524003443449, 0.29498078640475, -0.09518275200263, 0.29133891781644, 0.11152615241063, -0.19813648081116]
[0.22774246343559, 0.23063092803398, -0.00364611052157, -0.23170245912933, 0.1087559119073, -0.12378835396267, 0.02881227459208, 0.15143904901743, -0.08647315529566, 0.2587683930866, -0.25359454594882, 0.10129365693237, 0.14518253160143, 0.1669511192875, 0.11939152471852, 0.22542363358404, -0.22691499510439, -0.06154022400213, 0.13622139730431, 0.24685770349514, -0.29638370625868, -0.17592604176778, 0.14603221061866, 0.2826206124998, 0.13801833762944, 0.11969312562596, -0.16167460853275, -0.15827317908065, -0.11407507244279, -0.08974307841854, -0.23785422043057, 0.00987579193341]

[-0.16568697773842, 0.39190277273028, -0.05856316796886, -0.28392259543725, -0.18236514119984]
[-0.1088410404279, 0.08240672561746, 0.0325881986529, -0.04073844479126, 0.04272735266934]
[0.21098377611064, 0.13449450865309, -0.16384631815409, 0.26123823766074, -0.06921430737678]
[0.31239009851441, -0.36046143779733, 0.15009675144664, -0.35361049309126, -0.3329592755014]
[-0.01225890898087, -0.38867398129844, 0.14112580478618, 0.28279107710986, -0.20637006169715]
[-0.2469338198634, 0.31422407729131, -0.34153858406271, -0.3100861733336, -0.2100102158967]
[0.05051509361702, -0.34246153708381, -0.13152276665294, 0.01420294777307, -0.24931577942515]
[-0.4121625998064, -0.40363762921081, -0.18088727409203, -0.25870395357933, -0.1377942373857]
[-0.03910492157091, 0.3316140857868, 0.03774795398119, 0.1846361511451, 0.2312070129327]
[-0.26959576696635, -0.20091100517084, -0.02228886768537, 0.03603402965496, -0.36894564042549]
[0.31681977150729, 0.02284566131224, -0.25386815544465, 0.05187184277821, 0.0727503562927]
[0.39051290525931, 0.08413151178124, -0.32398449503721, 0.16027041683879, 0.16898962682297]
[-0.39861879076324, -0.03282670072778, 0.04807186647683, -0.35697224666932, -0.24285907160022]
[-0.16804308169696, 0.01700460174132, -0.29083345205178, 0.33834994614044, -0.35683290936414]
[0.00172585923767, -0.28621634916037, 0.18499160218511, 0.02362978370821, -0.3161077923187]
[-0.00655591228982, 0.12773663108274, 0.28665572794427, -0.14501192119441, -0.32396485391148]
[-0.16603124565156, 0.1553531933409, -0.30686922296784, -0.13069716241741, -0.08794348048176]
[-0.3607371342602, -0.23107454106881, 0.106631878207, 0.08330733093328, -0.26410612752228]
[0.03968410350246, -0.12906586045019, -0.29249366189482, -0.29932692784563, -0.29658285421341]
[0.38204226460647, 0.16876267815255, 0.3278041451056, -0.08840483564034, -0.28037502350241]
[-0.1631735623173, -0.34702154941024, -0.02984848810849, 0.24017389611031, 0.09572671738184]
[0.19103486920372, 0.29966969591048, 0.23239162130718, -0.05184643356723, 0.33784397939617]
[-0.25443968341386, -0.07319942748229, 0.0745630406714, -0.0809353063588, 0.07979094017902]
[0.28956067101341, -0.32313355814276, -0.02686971368112, -0.18213594279306, -0.3524661880873]
[0.04893469189908, 0.1302508513802, -0.12944112087166, 0.37615449879761, -0.18720680727826]
[-0.07364941103882, -0.13679732711807, -0.11293665668632, 0.30046527160319, 0.36076040738947]
[0.26684672598054, 0.16821535744337, 0.00881721174242, 0.00859702067162, -0.34171092325781]
[-0.14263314471457, 0.23355120260645, -0.29985962147777, -0.17224736606166, 0.12574700092484]
[-0.27733400480127, -0.0209677577855, 0.18868453908433, -0.12215677624109, 0.3304989881088]
[0.17392254253021, 0.0191668706549, -0.01038303402336, -0.25294319669937, 0.13906119656598]
[0.20109022944804, 0.36296536161843, 0.08374745529164, -0.18350517798794, -0.2999851123926]
[0.03679488472009, -0.14985470256476, -0.20214474464687, -0.16660807956743, 0.2567560103828]


Best Model in generation 2, with a score of 18.000000 
[0.17027567650228, -0.06292738344526, -0.03212349607113, 0.00096052107754, -0.22160723456471, 0.21400243904603, 0.20814758455824, -0.21186308007452, -0.12007443707151, -0.1042428650934, -0.21405402825618, -0.1677676305175, -0.21115262024264, 0.12531386511286, 0.23360978029133, 0.15232144980998, -0.04996190711164, 0.16550986002109, 0.17508871463625, 0.22465810060186, -0.1838597066006, 0.00563246359485, 0.04350261422875, -0.27267514142872, 0.24394917388674, -0.24342751342436, -0.19662945051322, 0.2899722710007, 0.14648446193715, 0.15535145876324, 0.09201247364279, 0.09156768567323]
[0.04960685446606, 0.09938424097072, 0.19989621691709, 0.02417431498743, 0.22846235734292, 0.1947287393911, -0.26195924301138, 0.01349738316286, 0.18406064108205, 0.21801376477809, 0.19876558558149, -0.16920143016519, 0.25513804836683, 0.25105002588335, 0.24062158323741, 0.05189003205882, 0.24771109309391, 0.28289484077992, -0.26542775912373, 0.08119021804552, 0.16048719623511, 0.00818691329348, -0.25587730952668, 0.27036933743091, 0.16867692018925, 0.16791735100063, 0.14383176236413, -0.06931848764526, -0.04274877758511, -0.15873177290053, -0.23543139876195, 0.28310087189717]
[-0.05275743840235, -0.02320482163394, 0.28679854054843, 0.24455544465705, -0.28785986553702, -0.03215978205999, 0.21340156630222, -0.133536749725, -0.29095763298569, 0.09663178373415, -0.13913282746522, 0.07690497014134, 0.17143350404817, 0.22646645259144, 0.05135552466308, -0.09628765041621, -0.24713690300824, -0.08478222486264, 0.26310667050778, 0.09279246214122, 0.24902473353138, 0.00426486342181, -0.23836046789286, -0.12918189811349, 0.16722267971327, -0.15744864445198, -0.19108143595143, -0.18455851329207, 0.00024012626571, -0.02672142135469, 0.11787609689779, 0.07870646573291]
[-0.00419226644072, 0.26279345099688, -0.12130874249776, 0.06841646692073, 0.19172920997473, -0.05371395329232, -0.04247428184354, -0.07931203656786, 0.03917586791885, 0.14173673523001, 0.15843519927571, 0.21754381023666, -0.20979302187502, 0.28779626507577, 0.10084303353164, -0.15013698985069, 0.25804057803604, 0.12246497516754, -0.09625883612301, 0.02434538131391, 0.07817975775364, 0.2168999852724, -0.24472444808677, -0.0192513832587, 0.02926330533836, 0.18496757460366, 0.23018579404062, -0.09622413873062, -0.03277926633501, -0.07911563851387, 0.1126579853038, -0.06699246101086]
[-0.12372391375454, -0.13970063598934, -0.13124594860389, 0.01257335684344, -0.01611737095494, 0.14373265479128, -0.24060776487176, 0.16714853242667, -0.20070991332299, 0.09726608873292, -0.28720761812837, 0.19773845290221, 0.08033045089768, 0.27474361952632, -0.08744716049275, -0.24285750750468, 0.2512888601915, 0.06574620380354, -0.03013770313572, -0.04644703665042, -0.15945596314868, 0.20832154032619, -0.16860582576605, -0.28035147353544, -0.1990295127281, -0.11422388511188, 0.14029923806037, -0.28810445622088, -0.1164040948055, 0.01034071412061, 0.21418796178936, 0.18434915641994]
[0.08057904021782, -0.12289334761756, 0.06491930616376, 0.02748305167962, 0.29879287959354, 0.02591571542136, -0.17176797719055, 0.13857701225827, 0.24009619595223, 0.11767546694902, -0.10441693649423, 0.12453914136638, -0.27553551967739, 0.2262000301151, 0.28542510240223, 0.27526927810512, 0.20108263868385, 0.0196937832068, -0.19078812027299, -0.25804077724604, -0.22020350309364, -0.20198242252179, 0.19145811514525, 0.23612349704887, -0.1072817912808, 0.00880083623242, -0.00052116071989, -0.26871592847923, 0.16890464854202, -0.24352956978755, -0.28194100852533, 0.20787260585521]
[-0.16806370743378, 0.21280222133842, 0.16930731919234, -0.02539676671228, -0.15194495098777, 0.23798876825676, 0.09124736605169, -0.18120754788826, 0.12144991301607, 0.11299579345081, 0.09781092673238, -0.03622816909631, 0.16847439462127, 0.02135326696411, -0.28110432748866, 0.12333026698549, -0.25651622253964, -0.04548445293416, -0.17801405180933, -0.0532844443529, -0.09009920980177, 0.1221056296656, -0.17067979818962, 0.15135966841986, -0.20440440053399, 0.00786402780419, 0.10577822071378, 0.09661741026129, 0.12544363293185, -0.14416059777352, 0.07676331160192, 0.00844404355899]
[0.16262300243278, -0.24646275673409, 0.04695401618731, -0.142500264013, -0.21477669102703, 0.1198187987746, 0.13741438032256, -0.20246840755374, 0.02230555132011, 0.21133831566518, 0.15494494115496, 0.07200942789916, 0.09948002928404, 0.07697089849089, 0.13744654235721, 0.24307657800296, -0.12220797546897, 0.10104472488859, -0.0992816481861, 0.18152715525553, 0.11783791842257, -0.29187190436587, -0.27233837360962, -0.18835152192566, -0.2029196734468, -0.16518796457453, 0.26529964127154, 0.14393735083826, -0.20901849250611, 0.2553885975904, -0.119713869898, 0.11782436016459]
[-0.25623986067664, 0.18044539252762, -0.02720697017939, -0.16592760621753, -0.14275939495094, 0.14616021607147, 0.23445571432391, 0.22560895404332, 0.13526537829396, 0.25435223146434, 0.26630709611268, 0.12272626323976, -0.08628892846386, -0.00805413368832, -0.07497559399641, 0.10753479574057, 0.07340826960115, -0.01257992167329, 0.21593067232301, -0.12602868266037, -0.02480657819002, -0.12251537816954, -0.13493541839666, 0.23508095613824, -0.14498373173023, 0.09182646253042, 0.19816260939324, 0.05994342364414, -0.29325284750169, 0.26372524616052, 0.03842730374757, 0.04241506207962]
[0.17578325569338, -0.18664801997586, 0.0253789901411, 0.08915623756882, 0.02592806953041, -0.27653820331062, -0.05919309903271, 0.20522520070684, -0.23597093632749, 0.0445438708307, -0.24287870186309, 0.10147532516047, 0.00131892346149, 0.06806065086382, 0.05170510506412, 0.15329864976061, 0.23079427508229, -0.08082272003574, 0.02290768046307, 0.00763696068258, -0.17490148660748, 0.10942283864901, 0.11725083662002, 0.07656740907525, 0.13998326109467, -0.18299557047104, -0.0144188306145, 0.03695082369068, 0.21378856457667, -0.008613029047, -0.11987963673977, 0.25939114604176]
[-0.17084490394426, -0.03429590444702, 0.11952510001722, -0.2941375797646, 0.06054947065178, -0.24764529295012, -0.22533952801704, -0.13794264551111, -0.07592103302912, -0.17529109823556, -0.12327942898152, -0.23663433725932, -0.22481867171796, -0.20572428524176, 0.2088970725149, 0.20783914959855, 0.01355139668428, -0.17595336965153, -0.14289202884437, -0.27273822921135, -0.20075633850516, -0.29137604610917, -0.09599702166878, -0.15284024196019, 0.02944467690132, -0.09716623219945, -0.01951993535541, 0.06198837675947, 0.17551112309328, 0.01526588440777, 0.07956706465367, 0.00097474773721]
[-0.03794120764566, -0.0040740556048, 0.24653517535643, -0.00760990942211, -0.14329268343819, 0.13477188788788, 0.05860663590691, -0.27540648544927, -0.13292797835486, 0.21078302756861, -0.205286141626, 0.08374469941237, -0.03683730853161, 0.00356610009109, 0.16810048851055, 0.27991212945571, 0.23891236970062, 0.27788954733188, 0.28381994756569, -0.16259436909557, 0.20351838506645, 0.21468270105995, 0.05736881188569, 0.1748948358099, -0.07552359712635, 0.27422168849432, -0.1946283756702, 0.21540447906201, -0.11192379889443, 0.05379184670124, -0.22910917716776, 0.09050061312561]
[0.1567839301782, -0.15542446945608, -0.03521740854198, 0.26473621713789, -0.24383328569931, -0.26904626784211, -0.01619898258611, -0.15655257644374, 0.1316200394446, -0.26292268354962, 0.20442949715779, -0.00046927591694, -0.08594261995938, -0.10400209936368, 0.11315968981552, -0.24350202595218, 0.1408714346056, 0.2825325330762, -0.06900702683511, -0.10203256172223, -0.1405650607242, 0.10460117904506, 0.29151373264879, 0.29441070341782, -0.09538170177666, -0.12360638154487, 0.12019915132409, -0.01490294407612, 0.08449479584423, 0.08614613758643, 0.1531069929368, -0.17733955053297]
[0.23268401563074, -0.15850944884607, 0.00896403798752, -0.15927138303222, -0.00384616736012, -0.14191988458807, -0.08870387294004, 0.1026075658816, -0.07259742821188, 0.07969472117449, 0.00749186541704, -0.077712729196, -0.22443804239546, 0.18454332787998, 0.04073149051059, 0.26971645975253, 0.25706289943397, 0.19103072860262, 0.24728449261723, -0.11722411586399, -0.21340534497713, 0.15855129825895, 0.29999414583846, -0.06176554504861, 0.26795977180027, 0.24136752067061, -0.23179447169058, -0.1924169142278, -0.22816430678665, 0.08725557757123, -0.10749433579279, 0.12831936491335]
[-0.06602589897078, 0.050938280283, -0.2753264418749, -0.1718317809219, 0.07612945273778, 0.16808078924806, 0.13753265729596, 0.13662239669828, -0.05172334689505, 0.11487960292358, -0.18637175720948, 0.18018142107419, 0.08291934609665, 0.07405622326384, -0.27219988694283, 0.01921392840931, 0.13752502569436, -0.11240005207109, -0.07683552228491, 0.13504919940303, -0.06927290284006, -0.20596472187315, 0.09642423729245, 0.18299003334153, 0.23025342716705, 0.21297084802552, -0.27489665140969, -0.17638636726459, 0.22681710965475, 0.10928951038048, -0.041961032634, 0.09672746609036]
[-0.21032556066414, -0.25349710836443, 0.04570343811435, -0.12458010439412, -0.27579965300119, 0.12615057411732, 0.0260006573016, 0.15346801748907, -0.219841471576, 0.18678079834546, 0.11408447820947, 0.16709882680461, 0.06751597064962, 0.0180498440961, 0.10302531301773, 0.20211775021065, -0.02322143366939, -0.24031436352511, 0.29147812609978, -0.01149509058926, 0.03809291808297, 0.00905419311527, -0.15545755746001, 0.04568571748367, 0.1705775025246, 0.27937035873835, -0.205830090746, -0.20438756709021, -0.23312629504748, -0.23235128544301, 0.2490594654847, -0.09080180212189]
[0.21961108347712, 0.04084523633898, -0.23275061628023, -0.21354593914366, -0.00290118529217, -0.14949445954704, 0.11086398068645, -0.17820374133034, 0.22199272712782, 0.19996717427635, 0.23273747520755, -0.18177805302976, 0.02275272931841, -0.08368864899861, 0.11148714191796, -0.26762657241749, 0.08230935654794, -0.07023922890343, 0.22480196823984, 0.17040393255339, 0.13679153335076, -0.05847197061392, -0.17407003811788, -0.2851767178519, 0.17715736948605, -0.27995682957045, -0.15494675142508, -0.04987669823223, -0.22823321027035, 0.05419245500094, 0.30856541131376, -0.28928670327996]
[-0.05666475406234, 0.19904659415945, -0.06754775186849, 0.02897765417204, -0.08988742725843, 0.15859618498592, -0.04936416662112, 0.25383473627804, 0.06927780189386, -0.23388211885744, 0.17957532804973, 0.05758216026596, 0.09011747095123, -0.00933695411957, -0.08898414073683, 0.11047872979699, 0.02774917577519, 0.23972434718067, 0.08623910840901, -0.09247805286648, -0.13973651393326, -0.28892514578869, 0.14948864376147, 0.11326637838435, 0.0520355167262, 0.28853421501158, 0.21639852364086, 0.19411843624189, -0.11816042613021, 0.00178483249291, 0.16905241873412, -0.22018395992658]
[0.17991616434762, 0.03283129695606, 0.11647936644282, -0.2843740294138, -0.23979520964245, 0.23431826753446, 0.21075727375348, -0.18514883985842, 0.05322871089546, -0.11692112869907, 0.00808688625689, 0.16011752488667, 0.2279399934611, 0.2923412636295, -0.12474813923867, -0.07243518856367, -0.08628019566217, 0.21839603945719, -0.11292726050443, 0.21239421315307, -0.12512188836174, -0.15639437293767, -0.00694288867053, 0.29276401032426, 0.28626458797262, -0.15573591869952, 0.22841606467064, -0.01886154259175, -0.1973849083345, 0.1228414421671, -0.06278147040636, 0.26503023767403]
[0.02096039444443, 0.2697725370924, 0.07258918019407, -0.20803921117341, -0.13457293411614, -0.05191892664412, -0.14898114024918, -0.16187063627817, -0.26770245050287, -0.28594150605057, -0.05770275433181, -0.12295378999209, 0.22406249639778, 0.06395954332353, -0.00204463869384, 0.07828219610793, -0.27865370196052, -0.02432153105652, 0.04875301754123, -0.26167887862667, -0.22016730314814, -0.29295120171947, 0.1214594518902, 0.22978360311919, 0.00216276464553, 0.21162089361463, -0.16433317188531, -0.18459078280687, 0.12211662742237, 0.27831254064081, 0.17429623339977, 0.291018136801]
[-0.03693472152579, 0.08570102337261, 0.11839793906818, -0.08696294058088, -0.0398393491726, -0.01016856087754, 0.07722414268673, -0.11367534566871, 0.21190007306166, 0.0035987008155, 0.00914264757683, 0.15784658946018, 0.13468633999195, 0.01010628911897, 0.28215348033146, -0.23054239423426, -0.06009889217874, -0.27007488629179, 0.12509251368575, -0.24607010405971, 0.01541360795228, 0.16599611439238, 0.09535357899011, -0.23697134630614, 0.18252350225695, 0.15303752448369, 0.13755847129651, 0.14373316992269, -0.04739859258639, -0.12745544234075, 0.08869795288734, 0.107980720067]
